tree
version=v4
num_class=1
num_tree_per_iteration=1
label_index=0
max_feature_idx=23
objective=quantile
feature_names=Age Base_Percent Relative_Weeks Weeks_squared Weeks_cubed Week_Decay lung_vol_ml hu_mean hu_std hu_skew hu_kurt glcm_contrast glcm_homogeneity glcm_energy glcm_correlation FVC_Week_Interaction Age_Week_Interaction Percent_Week_Interaction LungVol_FVC_Ratio LungVol_Week_Interaction HU_Week_Interaction Sex Smk_Ex Smk_Cur
feature_infos=[49:88] [43.352279059400402:153.01291248206601] [0:62] [0:3844] [0:238328] [0:0.6964799755703599] [0:5592.286722227258] [-1667.889892578125:-488.71304321289062] [0:1133.221435546875] [-0.62835692705838253:2.5510769576620098] [-1.4545910235226864:7.128640392331091] [0:44.890219308734402] [0:0.96754178542295155] [0:0.95945834483821657] [0:0.68263369763524051] [0:358344] [0:5456] [0:8568.723098995697] [0:1.6181385186947683] [0:206914.60872240853] [-95069.723876953125:0] [0:1] [0:1] [0:1]
tree_sizes=1337 1355

Tree=0
num_leaves=15
num_cat=0
split_feature=1 16 18 1 18 1 1 11 12 7 1 0 15 6
split_gain=7.14691 4.23518 3.91426 4.74571 4.16816 3.60798 3.42086 2.61792 2.21692 2.11834 2.0818 1.98277 2.70903 0.369419
threshold=53.957868940578706 123.00000000000001 0.43070530043995131 66.753743543973471 0.04135247493088838 103.44022081686902 59.09353072040475 26.712274218347478 0.64589943802775662 -670.90139770507801 100.77741630935651 73.500000000000014 87810.500000000015 74.40985893249514
decision_type=2 2 2 2 2 2 2 2 2 2 2 2 2 2
left_child=-1 13 4 6 11 9 -4 10 -9 -5 -6 12 -3 -2
right_child=1 2 3 5 7 -7 -8 8 -10 -11 -12 -13 -14 -15
leaf_value=1.0238278210238172 1.0177224218845367 1.0198700046789484 1.0201124683532989 1.0198742558711813 1.0201426090556018 1.0202908123878398 1.0251653938815835 1.0190345525933879 1.0173446715059922 1.0161668426375616 1.0167859131289381 1.0171647108472284 1.0180506229634154 1.0177224218845367
leaf_weight=31 20 112 23 77 99 28 29 41 283 47 28 30 36 117
leaf_count=31 20 112 23 77 99 28 29 41 283 47 28 30 36 117
internal_value=1.01869 1.01794 1.01927 1.02529 1.01733 1.02079 1.03833 1.01476 1.01238 1.01716 1.02082 1.02379 1.02618 1.00979
internal_weight=1001 970 833 204 629 152 52 451 324 124 127 178 148 137
internal_count=1001 970 833 204 629 152 52 451 324 124 127 178 148 137
is_linear=0
shrinkage=1


Tree=1
num_leaves=14
num_cat=0
split_feature=1 16 15 9 12 11 8 10 6 10 8 19 6
split_gain=7.08692 4.34263 3.72449 2.86288 2.59571 2.17736 2.12033 1.86023 2.6688 2.55007 1.42906 1.32991 0.369419
threshold=53.957868940578706 123.00000000000001 23208.000000000004 2.1570455934393657 0.64589943802775662 25.843618193429162 292.10589599609381 0.9598265391659887 962.25624587241839 0.64552467635699184 292.66711425781256 1316.4056284728142 74.40985893249514
decision_type=2 2 2 2 2 2 2 2 2 2 2 2 2
left_child=-1 12 4 5 -3 6 -4 9 -9 -6 -5 -7 -2
right_child=1 2 3 10 7 11 -8 8 -10 -11 -12 -13 -14
leaf_value=0.0049140080880895054 -0.00088612109422683274 0.0018747484837881912 -0.00064055313944880524 0.001100284542397768 0.001049443102109456 0.00048902472440476286 0.0034311437047255555 -0.00048747920118528135 0.002310709410422928 0.0023632589177344215 0.00023205867719318826 -0.0013343401956277623 -0.00088612109422683274
leaf_weight=31 20 24 65 20 41 29 40 137 76 25 35 341 117
leaf_count=31 20 24 65 20 41 29 40 137 76 25 35 341 117
internal_value=0.000134852 -0.000613338 0.000738207 -0.00178268 0.00516331 -0.00304146 0.00328259 0.00378001 0.00147818 0.0111195 0.00898367 -0.00485004 -0.00886214
internal_weight=1001 970 833 530 303 475 105 279 213 66 55 370 137
internal_count=1001 970 833 530 303 475 105 279 213 66 55 370 137
is_linear=0
shrinkage=0.05


end of trees

feature_importances:
Base_Percent=6
lung_vol_ml=3
hu_std=2
hu_kurt=2
glcm_contrast=2
glcm_homogeneity=2
FVC_Week_Interaction=2
Age_Week_Interaction=2
LungVol_FVC_Ratio=2
Age=1
hu_mean=1
hu_skew=1
LungVol_Week_Interaction=1

parameters:
[boosting: gbdt]
[objective: quantile]
[metric: quantile]
[tree_learner: serial]
[device_type: cpu]
[data_sample_strategy: bagging]
[data: ]
[valid: ]
[num_iterations: 500]
[learning_rate: 0.05]
[num_leaves: 31]
[num_threads: 0]
[seed: 0]
[deterministic: 0]
[force_col_wise: 0]
[force_row_wise: 0]
[histogram_pool_size: -1]
[max_depth: 6]
[min_data_in_leaf: 20]
[min_sum_hessian_in_leaf: 0.001]
[bagging_fraction: 0.8]
[pos_bagging_fraction: 1]
[neg_bagging_fraction: 1]
[bagging_freq: 5]
[bagging_seed: 3]
[bagging_by_query: 0]
[feature_fraction: 0.9]
[feature_fraction_bynode: 1]
[feature_fraction_seed: 2]
[extra_trees: 0]
[extra_seed: 6]
[early_stopping_round: 0]
[early_stopping_min_delta: 0]
[first_metric_only: 0]
[max_delta_step: 0]
[lambda_l1: 0.1]
[lambda_l2: 0.1]
[linear_lambda: 0]
[min_gain_to_split: 0]
[drop_rate: 0.1]
[max_drop: 50]
[skip_drop: 0.5]
[xgboost_dart_mode: 0]
[uniform_drop: 0]
[drop_seed: 4]
[top_rate: 0.2]
[other_rate: 0.1]
[min_data_per_group: 100]
[max_cat_threshold: 32]
[cat_l2: 10]
[cat_smooth: 10]
[max_cat_to_onehot: 4]
[top_k: 20]
[monotone_constraints: ]
[monotone_constraints_method: basic]
[monotone_penalty: 0]
[feature_contri: ]
[forcedsplits_filename: ]
[refit_decay_rate: 0.9]
[cegb_tradeoff: 1]
[cegb_penalty_split: 0]
[cegb_penalty_feature_lazy: ]
[cegb_penalty_feature_coupled: ]
[path_smooth: 0]
[interaction_constraints: ]
[verbosity: -1]
[saved_feature_importance_type: 0]
[use_quantized_grad: 0]
[num_grad_quant_bins: 4]
[quant_train_renew_leaf: 0]
[stochastic_rounding: 1]
[linear_tree: 0]
[max_bin: 255]
[max_bin_by_feature: ]
[min_data_in_bin: 3]
[bin_construct_sample_cnt: 200000]
[data_random_seed: 1]
[is_enable_sparse: 1]
[enable_bundle: 1]
[use_missing: 1]
[zero_as_missing: 0]
[feature_pre_filter: 1]
[pre_partition: 0]
[two_round: 0]
[header: 0]
[label_column: ]
[weight_column: ]
[group_column: ]
[ignore_column: ]
[categorical_feature: ]
[forcedbins_filename: ]
[precise_float_parser: 0]
[parser_config_file: ]
[objective_seed: 5]
[num_class: 1]
[is_unbalance: 0]
[scale_pos_weight: 1]
[sigmoid: 1]
[boost_from_average: 1]
[reg_sqrt: 0]
[alpha: 0.8]
[fair_c: 1]
[poisson_max_delta_step: 0.7]
[tweedie_variance_power: 1.5]
[lambdarank_truncation_level: 30]
[lambdarank_norm: 1]
[label_gain: ]
[lambdarank_position_bias_regularization: 0]
[eval_at: ]
[multi_error_top_k: 1]
[auc_mu_weights: ]
[num_machines: 1]
[local_listen_port: 12400]
[time_out: 120]
[machine_list_filename: ]
[machines: ]
[gpu_platform_id: -1]
[gpu_device_id: -1]
[gpu_use_dp: 0]
[num_gpu: 1]

end of parameters

pandas_categorical:[]
