tree
version=v4
num_class=1
num_tree_per_iteration=1
label_index=0
max_feature_idx=23
objective=quantile
feature_names=Age Base_Percent Relative_Weeks Weeks_squared Weeks_cubed Week_Decay lung_vol_ml hu_mean hu_std hu_skew hu_kurt glcm_contrast glcm_homogeneity glcm_energy glcm_correlation FVC_Week_Interaction Age_Week_Interaction Percent_Week_Interaction LungVol_FVC_Ratio LungVol_Week_Interaction HU_Week_Interaction Sex Smk_Ex Smk_Cur
feature_infos=[49:87] [43.352279059400402:153.01291248206601] [0:63] [0:3969] [0:250047] [0:0.7022611329001035] [0:5592.286722227258] [-1667.889892578125:-471.44827270507812] [0:1133.221435546875] [-0.66847141651245146:2.5510769576620098] [-1.4545910235226864:7.128640392331091] [0:45.714773921808323] [0:0.96754178542295155] [0:0.95945834483821657] [0:0.68814825198550156] [0:358344] [0:4819] [0:8568.723098995697] [0:1.6181385186947683] [0:206914.60872240853] [-95069.723876953125:0] [0:1] [0:1] [0:1]
tree_sizes=2094 2554 2469 2212 1959 2035 2379 1948 2142 2302 2246 2401 2391 2208 1959 1702 2137 1792 1621 1880 2123 2135 2216 1365 1704 1531 2141 1446 1705 1704 1542 2397 1781 1620 2301 1534 1529 1282 1542 1788 1364 1802 1174

Tree=0
num_leaves=24
num_cat=0
split_feature=16 9 11 15 8 6 12 18 18 0 0 7 17 17 7 7 20 15 0 7 8 12 0
split_gain=12.168 3.58333 2.55753 2.55198 2.16493 1.94909 2.26779 2.39226 1.93189 2.20448 2.14999 1.48266 1.14171 0.99864 0.732249 1.16409 0.688128 0.574398 0.849882 1.21346 0.556536 0.278483 0.00310082
threshold=1154.0000000000002 1.9018666267464044 25.288821965276146 13543.000000000002 274.14001464843756 1307.4718404215128 0.69727260748447295 0.041179370142384472 0.17899090422701433 71.500000000000014 74.500000000000014 -653.27853393554676 2595.4385080138113 3712.1097168798933 -656.84777832031239 -636.09033203124989 -28005.718322753903 2317.5000000000005 71.500000000000014 -681.19372558593739 286.22706604003912 0.66719270650073514 68.500000000000014
decision_type=2 2 2 2 2 2 2 2 2 2 2 2 2 2 2 2 2 2 2 2 2 2 2
left_child=3 2 16 17 -5 6 7 -4 9 11 -11 -6 -8 -3 21 -16 -2 -1 20 -20 -19 -10 -22
right_child=1 13 5 4 8 -7 12 -9 14 10 -12 -13 -14 -15 15 -17 -18 18 19 -21 22 -23 -24
leaf_value=0.91473484635353086 0.91273544731269651 0.91244025770619652 0.91155477107433358 0.90894462765973583 0.91292443275453472 0.9095115513657841 0.9060701955037711 0.90719966353009107 0.91146414282884491 0.90732899013423507 0.909965948580022 0.90881557286363601 0.90575316015918195 0.90864194938260612 0.90652605415042398 0.91184441387842285 0.90868399443552961 0.91124959292637797 0.91279636087498228 0.90793740520329713 0.91341660086241416 0.91258890330954312 0.91113390327710175
leaf_weight=133 21 32 28 23 61 36 20 117 21 21 23 29 39 26 27 37 31 21 33 25 79 90 21
leaf_count=133 21 32 28 23 61 36 20 117 21 21 23 29 39 26 27 37 31 21 33 25 79 90 21
internal_value=0.910333 0.902835 0.900576 0.914416 0.911346 0.898398 0.896504 0.899944 0.912463 0.907973 0.898796 0.912411 0.888166 0.91412 0.91593 0.911573 0.910535 0.917665 0.915747 0.910677 0.918133 0.918393 0.919688
internal_weight=994 350 292 644 332 240 204 145 309 134 44 90 59 58 175 64 52 312 179 58 121 111 100
internal_count=994 350 292 644 332 240 204 145 309 134 44 90 59 58 175 64 52 312 179 58 121 111 100
is_linear=0
shrinkage=1


Tree=1
num_leaves=28
num_cat=0
split_feature=16 7 15 11 7 0 6 12 2 10 13 13 17 1 1 13 7 0 15 0 7 8 20 1 17 1 0
split_gain=11.1282 3.64865 2.67622 2.20643 2.12169 1.81295 1.59497 1.62786 2.0422 1.50025 1.38126 1.2124 1.11046 1.1233 1.9433 1.04468 0.932362 0.89194 0.574398 0.849882 1.21346 0.556536 0.344795 0.231827 0.129368 0.0734982 0.00310082
threshold=1154.0000000000002 -663.06277465820301 13543.000000000002 31.034026385876775 -681.19372558593739 71.500000000000014 1159.0731657480626 0.69537155196147005 39.500000000000007 1.8230963278400563 0.54640998424296905 0.52779398675601519 3830.7020600701067 85.636994829033114 80.277485306073501 0.51307878037787757 -749.74990844726551 66.500000000000014 2317.5000000000005 71.500000000000014 -681.19372558593739 286.22706604003912 -9079.9476623535138 88.598696923925417 479.31368015281515 70.326372627072416 68.500000000000014
decision_type=2 2 2 2 2 2 2 2 2 2 2 2 2 2 2 2 2 2 2 2 2 2 2 2 2 2 2
left_child=2 3 18 12 16 9 7 8 11 10 -6 -3 13 14 -2 -14 17 -4 -1 21 -21 -20 -18 -5 -24 -11 -23
right_child=1 6 4 23 5 -7 -8 -9 -10 25 -12 -13 15 -15 -16 -17 22 -19 19 20 -22 26 24 -25 -26 -27 -28
leaf_value=0.0042632576823234567 0.0019943349670208887 -0.0027491471038131711 0.0022626483747143489 -0.0034771084354450798 -0.0027020075899272591 -0.00266351947475198 -0.0018188796601824398 -0.0066414404837058924 -0.00606059209267709 0.0021120796315628634 0.0013770882141072528 0.00087523491253994066 -0.0016834968750853354 0.0019434132016999364 -0.0020413202216961065 0.0010530594943359759 0.0015160403558767549 -0.00076379909322770063 0.00095226692652818914 0.0024216964777023287 -0.0021943114103986083 0.0030109244657625933 0.0020945055618016499 -0.0028408509538940859 0.0027399786980609204 0.0021191848841286397 0.00084236175971573739
leaf_weight=133 48 26 23 20 48 37 36 32 29 20 37 22 32 38 21 25 35 21 21 33 25 79 20 21 69 22 21
leaf_count=133 48 26 23 20 48 37 36 32 29 20 37 22 32 38 21 25 35 21 21 33 25 79 20 21 69 22 21
internal_value=0.000186098 -0.00698372 0.00409098 -0.00265724 0.000948509 -0.00307739 -0.01306 -0.0160862 -0.0119974 -0.000196696 -0.00405405 -0.00550936 -3.04692e-05 0.00294118 -0.000795948 -0.00569177 0.00490779 -0.00124717 0.00741749 0.00549972 0.000430293 0.00788604 0.00713135 -0.013017 0.00881033 0.00748219 0.00944056
internal_weight=994 350 644 205 332 164 145 109 77 127 85 48 164 107 69 57 168 44 312 179 58 121 124 41 89 42 100
internal_count=994 350 644 205 332 164 145 109 77 127 85 48 164 107 69 57 168 44 312 179 58 121 124 41 89 42 100
is_linear=0
shrinkage=0.05


Tree=2
num_leaves=27
num_cat=0
split_feature=15 15 7 7 14 10 9 1 0 1 7 9 10 0 12 9 20 13 2 15 15 0 7 8 7 0
split_gain=9.58285 2.8955 3.31593 2.85572 2.38841 1.81962 2.79979 1.71736 1.65499 2.28158 1.76196 1.54862 1.27396 1.1603 0.894401 0.851151 0.718317 0.68053 0.583996 1.27193 0.574398 0.849882 1.21346 0.556536 0.48589 0.00310082
threshold=54078.000000000007 13543.000000000002 -681.19372558593739 -657.40975952148426 0.57270878828220873 3.901648040942352 1.7689737485038097 67.006778334115225 71.500000000000014 77.088600378406611 -592.90643310546864 0.95139040085056692 1.9726228240750159 63.500000000000007 0.68795959698240172 1.5879188348950235 -4331.6735229492178 0.48224136520158128 11.500000000000002 40719.000000000007 2317.5000000000005 71.500000000000014 -681.19372558593739 286.22706604003912 -626.90438842773426 68.500000000000014
decision_type=2 2 2 2 2 2 2 2 2 2 2 2 2 2 2 2 2 2 2 2 2 2 2 2 2 2
left_child=1 20 16 5 12 6 13 -6 10 -10 14 -12 24 -2 -4 -15 18 -7 -3 -20 -1 23 -23 -22 -5 -25
right_child=3 2 8 4 7 17 -8 -9 9 -11 11 -13 -14 15 -16 -17 -18 -19 19 -21 21 22 -24 25 -26 -27
leaf_value=0.0040500947982072821 -0.0027790817634172019 0.002403242037676142 0.0014787348735006993 -0.005124695557760928 0.0019126932001580664 -0.0013511389728993032 -0.001259769642489987 -0.0031647640766440132 -0.00029009162564442307 -0.0048686728436857507 0.00055264891598601315 -0.0032309599071182952 -0.0058961565142024875 0.0011279189453801512 -0.0011503481610487293 -0.001795187285048485 -0.00034984416605690161 0.0021985928961368527 -0.00048461179369993713 0.0020829487702093454 0.00090465358020178077 0.0023006116538172141 -0.0020845958398786782 0.0028603782424744652 -0.0053062751253364253 0.00080024367172994995
leaf_weight=133 32 85 59 26 20 21 33 27 28 20 20 20 26 41 42 43 25 31 27 34 21 33 25 79 22 21
leaf_count=133 32 85 59 26 20 21 33 27 28 20 20 20 26 41 42 43 25 31 27 34 21 33 25 79 22 21
internal_value=0.000487878 0.00389079 0.000819217 -0.00659733 -0.0126755 -0.002909 -0.00573441 -0.0037155 -0.00372819 -0.0117464 -0.000956768 -0.00985037 -0.0182861 -0.00202412 0.00252226 0.0010107 0.00587376 0.00508637 0.00722108 0.00335516 0.00741749 0.00549972 0.000430293 0.00788604 -0.0231809 0.00944056
internal_weight=994 672 360 322 121 201 149 47 189 48 141 40 74 116 101 84 171 52 146 61 312 179 58 121 48 100
internal_count=994 672 360 322 121 201 149 47 189 48 141 40 74 116 101 84 171 52 146 61 312 179 58 121 48 100
is_linear=0
shrinkage=0.05


Tree=3
num_leaves=24
num_cat=0
split_feature=16 7 15 8 6 11 14 1 7 2 17 1 1 13 10 9 2 15 10 1 1 7 8
split_gain=9.86303 3.11376 2.80338 2.07647 1.97787 1.81149 1.5449 1.95932 1.54291 1.41853 1.11046 1.1233 1.9433 1.04468 1.01814 1.00831 0.683235 0.574398 0.514461 0.42486 0.203846 0.430351 0.001047
threshold=1154.0000000000002 -663.06277465820301 13543.000000000002 274.14001464843756 1255.0478435120312 31.034026385876775 0.56910681493153825 69.676660987550108 -681.19372558593739 31.500000000000004 3830.7020600701067 85.636994829033114 80.277485306073501 0.51307878037787757 1.9726228240750159 1.6074590640627175 11.500000000000002 2317.5000000000005 0.4011524282545369 88.598696923925417 63.907236971459859 -681.19372558593739 307.57380676269537
decision_type=2 2 2 2 2 2 2 2 2 2 2 2 2 2 2 2 2 2 2 2 2 2 2
left_child=2 5 17 -4 8 10 9 -8 16 -3 11 12 -2 -12 -11 -10 -5 -1 -19 -7 -20 -22 -6
right_child=1 6 3 4 22 19 7 -9 15 14 13 -13 -14 -15 -16 -17 -18 18 20 -21 21 -23 -24
leaf_value=0.0038475900582969182 0.0019259154378415905 -0.0029112025512958851 -0.0010996065480450999 0.0019112074517559287 0.0028203333575759571 -0.0031642989255019614 0.00055562581147939672 -0.0035827018740653932 -0.00091190493779749662 -0.0059551661459535813 -0.0014755610713877317 0.001925293550064208 -0.0018494948479545461 0.0011002906146745882 -0.0055868290424573204 -0.0027887288467023214 -0.00016166152030677676 -0.0025966350762157532 0.0030099598738633146 -0.0026358199238025815 0.0023479302077184234 0.00058127956771238261 0.002513884912087492
leaf_weight=133 48 33 23 76 51 20 30 30 100 32 32 38 21 25 20 23 39 21 38 21 62 58 20
leaf_count=133 48 33 23 76 51 20 30 30 100 32 32 38 21 25 20 23 39 21 38 21 62 58 20
internal_value=0.000336988 -0.00641245 0.00401335 0.000797952 0.00189259 -0.00241346 -0.0120262 -0.00574043 -0.000272995 -0.0163925 -3.04692e-05 0.00294118 -0.000795948 -0.00569177 -0.0215931 -0.00418359 0.0038662 0.00741749 0.00549972 -0.0118005 0.00648324 0.00537052 0.00921238
internal_weight=994 350 644 332 309 205 145 60 238 85 164 107 69 57 52 123 115 312 179 41 158 120 71
internal_count=994 350 644 332 309 205 145 60 238 85 164 107 69 57 52 123 115 312 179 41 158 120 71
is_linear=0
shrinkage=0.05


Tree=4
num_leaves=21
num_cat=0
split_feature=16 6 8 9 10 12 11 12 19 12 16 8 12 12 9 18 6 13 1 11
split_gain=9.39842 2.70829 2.53258 1.96853 1.7353 1.89422 3.4498 1.86937 1.678 2.85458 1.42968 1.99818 0.897428 2.49507 2.30654 0.578763 0.829625 0.140018 0.105179 0.00128629
threshold=638.50000000000011 1159.0731657480626 274.14001464843756 1.9018666267464044 3.1741699702597002 0.68747009033811246 25.288821965276146 0.67850997614319708 58256.847992324816 0.68510974785704859 60.500000000000007 274.14001464843756 0.67542048926205756 0.66114084910437765 1.5738876810630564 0.32401603747180635 108.35178076744081 0.49912629662744995 59.281264761454906 26.365180344192719
decision_type=2 2 2 2 2 2 2 2 2 2 2 2 2 2 2 2 2 2 2 2
left_child=10 3 -3 4 5 7 -7 -2 19 -10 -1 -12 13 18 -15 16 -14 -17 -13 -4
right_child=1 2 8 -5 -6 6 -8 -9 9 -11 11 12 15 14 -16 17 -18 -19 -20 -21
leaf_value=0.0036552105553820714 -0.0014531364456316334 -0.00081516541886689296 0.002503618269964647 0.0017100388322899571 -0.0025856952890509002 0.00086166255318071133 -0.0032876139542527961 0.0020580118458869549 -0.0034177829003594834 0.0025621274743167582 -0.0010942018231560272 0.0013758183635068288 0.0026165595383630296 -0.0038876817197578788 0.00064910656179944246 0.001872229417042648 0.00015055967908680131 0.0026190890078505698 0.0021953698352373541 0.0023038311721758175
leaf_weight=126 107 23 20 36 24 47 104 41 20 26 21 20 49 25 33 20 67 93 40 52
leaf_count=126 107 23 20 36 24 47 104 41 20 26 21 20 49 25 33 20 67 93 40 52
internal_value=0.000437582 -0.00438912 0.00145287 -0.0066973 -0.00793872 -0.00687061 -0.0108206 -0.00280216 0.00444539 -0.00292842 0.00533293 0.0037354 0.00465284 0.00105843 -0.00628227 0.00648189 0.00391904 0.00906278 0.00823627 0.0092233
internal_weight=994 500 141 359 323 299 151 148 118 46 494 368 347 118 58 229 116 113 60 72
internal_count=994 500 141 359 323 299 151 148 118 46 494 368 347 118 58 229 116 113 60 72
is_linear=0
shrinkage=0.05


Tree=5
num_leaves=22
num_cat=0
split_feature=16 9 15 13 7 6 18 19 8 10 18 0 9 6 8 16 13 0 8 15 7
split_gain=10.8279 4.26604 2.17112 3.37434 2.58214 1.3301 1.9273 1.27031 1.50718 1.26502 1.18429 1.96387 2.91343 1.15269 1.10837 0.872772 0.754056 0.594771 0.439587 0.102624 0.0511652
threshold=638.50000000000011 1.9018666267464044 97318.000000000015 0.566125666748306 -665.39282226562489 108.35178076744081 0.077546461778511169 21.634639053752135 274.14001464843756 2.4328389257414971 0.32401603747180635 71.500000000000014 1.6736879379553258 372.16232518128146 308.05574035644537 3531.5000000000005 0.61120554658529136 70.500000000000014 319.02706909179693 129145.00000000001 -647.69213867187489
decision_type=2 2 2 2 2 2 2 2 2 2 2 2 2 2 2 2 2 2 2 2 2
left_child=7 2 3 5 9 -2 -7 -1 -9 13 11 14 -13 -4 -10 -6 -5 19 20 -3 -12
right_child=1 17 4 16 15 6 -8 8 10 -11 18 12 -14 -15 -16 -17 -18 -19 -20 -21 -22
leaf_value=0.0034724500276129668 0.001644448178600392 0.0028453058420784012 0.001394118628898139 -0.0024564105201844645 -0.0072568897884359614 -0.0019389807244821215 -0.00019616857524232094 -0.001039491731998227 -0.0013896839074550114 -0.0015732456647961899 0.002793179656240602 -0.003255091282950174 0.001044726676887153 -0.0011462797074071275 0.0019905811459914042 -0.0045836464378778393 -0.0028259121826265665 0.00032760437084783595 0.0020469455352498224 0.0011760212742769911 0.001149721414812141
leaf_weight=128 37 38 21 34 39 30 147 21 44 23 101 24 24 34 92 21 21 28 35 20 35
leaf_count=128 37 38 21 34 39 30 147 21 44 23 101 24 24 34 92 21 21 28 35 20 35
internal_value=0.000466352 -0.00479619 -0.00693933 -0.00429208 -0.0120565 -0.00142457 -0.00324675 0.00562388 0.00413454 -0.00595391 0.00491411 0.00209125 -0.00654886 -0.00172414 0.00518001 -0.0198835 -0.0153358 0.00528455 0.00791935 0.00817556 0.00922116
internal_weight=997 493 407 269 138 214 177 504 376 78 355 184 48 55 136 60 55 86 171 58 136
internal_count=997 493 407 269 138 214 177 504 376 78 355 184 48 55 136 60 55 86 171 58 136
is_linear=0
shrinkage=0.05


Tree=6
num_leaves=26
num_cat=0
split_feature=16 9 13 17 14 11 7 11 11 10 7 19 7 1 12 1 7 0 1 14 16 2 15 6 10
split_gain=9.60183 3.7671 1.85485 2.9441 2.45964 2.22116 2.04192 1.81816 2.06203 1.89221 1.45505 1.27031 1.28561 0.968479 1.21521 1.87062 0.85111 1.44465 0.665111 0.639484 0.145044 0.103923 0.0847109 0.0223004 0.0805216
threshold=638.50000000000011 1.9018666267464044 0.54864191794494521 3639.567643812094 0.29697360874984619 26.416736897742002 -706.54229736328114 28.096315427648303 26.712274218347478 1.8770004180252535 -655.29049682617176 21.634639053752135 -682.92562866210926 67.006778334115225 0.66114084910437765 82.614878239635317 -749.74990844726551 64.500000000000014 81.827381581343516 0.44743043686252343 219.50000000000003 37.500000000000007 14337.000000000002 532.78784493035857 3.148567508127079
decision_type=2 2 2 2 2 2 2 2 2 2 2 2 2 2 2 2 2 2 2 2 2 2 2 2 2
left_child=11 2 3 7 -4 -5 -6 8 -2 -9 -8 -1 16 20 -15 -16 17 -13 -7 21 -14 -3 -22 24 -18
right_child=1 19 4 5 6 18 10 9 -10 -11 -12 12 13 14 15 -17 23 -19 -20 -21 22 -23 -24 -25 -26
leaf_value=0.0032988275262323175 -2.2983769637148127e-05 0.0025446847879552282 0.0003444686830080027 0.00027203816900985526 -0.0030088498747366573 -0.0027234519197568878 0.00036720335811541799 -0.0011527576348904368 -0.003466951893392323 0.0021244273327379231 -0.0045905549790556709 0.0019971709259233392 0.0018883822416647621 0.001567874166540561 -0.0015383513827373619 0.00092790709328715551 0.0024856378659995262 -0.0014307770632101197 -0.002493121834698798 0.00012326306852491475 0.0029361597334872269 0.0019694185716383279 0.00024681435082579537 0.0026271916295994451 0.0011372755024783912
leaf_weight=128 69 39 23 20 22 20 21 48 37 68 58 24 20 21 59 49 25 22 21 27 27 20 20 89 20
leaf_count=128 69 39 23 20 22 20 21 48 37 68 58 24 20 21 59 49 25 22 21 27 27 20 20 89 20
internal_value=0.000767225 -0.00418779 -0.00620241 -0.00393854 -0.0113215 -0.0136661 -0.0146884 -0.00123818 -0.00598492 0.00305771 -0.0108091 0.00562388 0.00413454 0.00130036 -0.00120062 -0.0033765 0.00719045 0.00119306 -0.0203163 0.00528455 0.0061848 0.00820643 0.00774947 0.00920955 0.00764967
internal_weight=997 493 407 283 124 61 101 222 106 116 79 504 376 196 129 108 180 46 41 86 67 59 47 134 45
internal_count=997 493 407 283 124 61 101 222 106 116 79 504 376 196 129 108 180 46 41 86 67 59 47 134 45
is_linear=0
shrinkage=0.05


Tree=7
num_leaves=21
num_cat=0
split_feature=16 9 17 13 12 7 10 0 8 7 8 13 0 16 7 1 14 6 0 16
split_gain=8.83929 2.98215 2.35922 4.07584 2.48759 1.81639 1.81403 2.02378 1.69904 1.39839 1.28084 1.89899 1.26099 0.933829 1.19473 0.989888 1.31686 0.500533 0.784322 0.166262
threshold=739.00000000000011 2.1606481846591779 3639.567643812094 0.55120997261462457 0.70098338663665072 -639.52175903320301 1.7648730418959884 62.500000000000007 274.14001464843756 -579.01602172851551 295.65740966796881 0.51847626204833641 68.500000000000014 60.500000000000007 -682.92562866210926 70.559898839520571 0.53655196036043684 537.8399322607969 72.500000000000014 258.00000000000006
decision_type=2 2 2 2 2 2 2 2 2 2 2 2 2 2 2 2 2 2 2 2
left_child=8 2 3 5 10 12 7 -5 -1 -7 -4 -12 -2 -10 17 19 -17 18 -15 -16
right_child=1 -3 4 6 -6 9 -8 -9 13 -11 11 -13 -14 14 15 16 -18 -19 -20 -21
leaf_value=-0.00079203926974323916 0.0016472879116217248 0.0026836935269073515 -0.0050044999867350269 -0.002945358058800421 -3.8429676348122457e-06 -0.0040628254531575939 -0.0048065942561885877 -0.00020876877496597002 0.0031338861499207006 0.00013419658407217683 -0.002989283684489601 -0.0026421297202410235 -3.2720669527867804e-05 0.0020075943120416401 0.00078823204441472335 -0.0012946515575423222 0.0013716909229611351 0.0026194334897521616 -0.00025237469138692864 0.0017190542450710928
leaf_weight=36 80 41 24 23 32 36 23 46 119 21 20 20 89 56 27 49 58 107 29 61
leaf_count=36 80 41 24 23 32 36 23 46 119 21 20 20 89 56 27 49 58 107 29 61
internal_value=0.000967807 -0.00416392 -0.00544554 -0.003348 -0.0123309 0.000243255 -0.012215 -0.00803184 0.005285 -0.00744308 -0.0180187 -0.0235661 0.00286813 0.00603636 0.00481788 0.0020246 -0.00116713 0.00762624 0.0046416 0.00595914
internal_weight=997 455 414 318 96 226 92 69 542 57 64 40 169 506 387 195 107 192 85 88
internal_count=997 455 414 318 96 226 92 69 542 57 64 40 169 506 387 195 107 192 85 88
is_linear=0
shrinkage=0.05


Tree=8
num_leaves=23
num_cat=0
split_feature=16 7 12 18 13 20 12 19 15 7 13 13 15 14 8 18 9 7 0 11 11 6
split_gain=8.2719 3.39049 2.15929 3.1764 2.72381 1.79117 1.55115 1.39216 1.13481 1.22759 1.16913 1.08863 1.41307 1.07257 0.959642 0.99943 0.861697 0.844441 0.923414 0.511958 0.42422 0.219986
threshold=638.50000000000011 -657.40975952148426 0.68747009033811246 0.47618268065483593 0.51576631714022347 -26242.079498291012 0.71430371108364754 21.634639053752135 102180.50000000001 -741.11328124999989 0.50431756690294283 0.52281051287303926 70495.500000000015 0.56708305123251679 274.14001464843756 0.038328527582790525 1.8835359381698316 -681.19372558593739 71.500000000000014 28.804525639922208 28.698032043378639 811.64965239358469
decision_type=2 2 2 2 2 2 2 2 2 2 2 2 2 2 2 2 2 2 2 2 2 2
left_child=7 5 4 13 -3 8 16 -1 -2 -10 -11 -6 -13 -4 -9 19 20 21 -19 -16 -7 -17
right_child=1 2 3 -5 11 6 -8 14 9 10 -12 12 -14 -15 15 17 -18 18 -20 -21 -22 -23
leaf_value=0.0029771918424246649 -0.0023506930995104949 -0.0061610903601925044 -0.0041364245870580867 0.0013503846523732763 0.0019302238793466081 -8.7261673721758476e-06 -0.00076832825965380018 -0.00087099761309487932 0.0011718591645525889 -0.0012021479544836418 -6.8305293055779192e-05 0.00074589366121087909 -0.0039129425236080857 -0.004861180461902443 -0.0012481013370559324 0.00095440161883754155 0.0022604506744779498 0.0012560371304255569 -0.0026156751018420544 0.00040406472961669674 0.0011077416206415149 0.0025601453068519798
leaf_weight=128 24 24 35 20 22 56 32 21 33 26 44 36 24 29 36 60 57 111 30 26 31 92
leaf_count=128 24 24 35 20 22 56 32 21 33 26 44 36 24 29 36 60 57 111 30 26 31 92
internal_value=0.000917661 -0.0036808 -0.00891636 -0.0149227 -0.00409991 -0.000379413 0.00286769 0.00542551 -0.00491739 -0.00257032 -0.00634807 0.000182704 -0.00324459 -0.0203588 0.00386865 0.00449169 0.00510062 0.00571477 0.0028703 -0.00120773 0.00189437 0.0083169
internal_weight=997 493 190 84 106 303 176 504 127 103 70 82 60 64 376 355 144 293 141 62 87 152
internal_count=997 493 190 84 106 303 176 504 127 103 70 82 60 64 376 355 144 293 141 62 87 152
is_linear=0
shrinkage=0.05


Tree=9
num_leaves=25
num_cat=0
split_feature=16 9 17 13 11 10 10 15 0 6 13 11 17 15 10 0 15 14 16 20 1 9 0 11
split_gain=7.38464 2.74374 2.47559 2.43827 2.20524 1.90602 1.88702 1.60496 1.50143 1.4531 1.38503 1.34345 0.851478 0.839895 0.842221 0.727823 0.71674 0.521731 0.256403 0.771841 0.239356 0.165076 0.102624 0.0917748
threshold=638.50000000000011 1.9018666267464044 3639.567643812094 0.5504454723935257 26.712274218347478 1.7648730418959884 1.8230963278400563 8974.5000000000018 62.500000000000007 484.05868486404427 0.52779398675601519 28.096315427648303 3712.1097168798933 25605.000000000004 2.0341228526000865 69.500000000000014 21003.500000000004 0.60405119311084754 60.500000000000007 -766.38256835937489 79.100580344303864 1.6858943875985948 69.500000000000014 29.929443808632616
decision_type=2 2 2 2 2 2 2 2 2 2 2 2 2 2 2 2 2 2 2 2 2 2 2 2
left_child=7 2 3 6 -4 8 10 18 -5 -6 -2 -8 22 14 16 21 17 -9 -1 23 -17 -16 -3 -20
right_child=1 12 4 5 9 -7 11 13 -10 -11 -12 -13 -14 -15 15 20 -18 -19 19 -21 -22 -23 -24 -25
leaf_value=0.0028283322503034336 -0.0018035189069344601 0.0024748914580138529 -0.00054964211891595611 -0.002657620239863598 -0.0016077259080672112 -0.0045601184704872847 -0.00062242103607789876 0.00045062113669040087 -2.4656240989675836e-05 -0.0057299049152853623 0.00052306933455105648 0.0018773653561394471 -0.00013551711007209452 0.0020290857084176608 0.0026160900289152128 0.00048207509787849556 -0.0016677533699479637 -0.00095018040299218998 0.0020024898839308583 -0.00059943548787310243 -0.00021845992458082114 0.0019435934437244955 0.002170674248276131 0.0017964482352270474
leaf_weight=127 59 38 32 25 21 23 54 74 51 30 42 70 28 36 39 23 23 21 53 20 25 40 20 23
leaf_count=127 59 38 32 25 21 23 54 74 51 30 42 70 28 36 39 23 23 21 53 20 25 40 20 23
internal_value=0.000967807 -0.0033766 -0.00509703 -0.00310089 -0.0128159 -0.00963673 -0.000199911 0.00522714 -0.00571616 -0.0192759 -0.00529179 0.00390814 0.00470383 0.00268588 0.00161159 0.00444532 -0.00139712 0.000473186 0.0084043 0.00629553 -0.00031185 0.0073957 0.00817556 0.0086071
internal_weight=997 493 407 324 83 99 225 504 76 51 101 124 86 281 245 127 118 95 223 96 48 79 58 76
internal_count=997 493 407 324 83 99 225 504 76 51 101 124 86 281 245 127 118 95 223 96 48 79 58 76
is_linear=0
shrinkage=0.05


Tree=10
num_leaves=24
num_cat=0
split_feature=15 7 1 14 10 8 12 2 21 18 12 12 1 7 20 20 10 9 12 12 13 13 7
split_gain=6.87836 5.73607 2.81551 1.77712 2.20387 2.38227 1.76627 1.59268 1.1725 1.12187 1.08227 0.904993 0.923761 0.472151 0.364522 0.348316 0.332399 0.638776 0.216632 0.603161 0.137008 0.0956205 0.00239037
threshold=12058.000000000002 -656.84777832031239 89.320321614240825 0.53384336041474845 0.4011524282545369 275.99171447753912 0.69780668915299604 37.500000000000007 1.0000000180025095e-35 0.35608774904948276 0.67285717392546973 0.71430371108364754 65.058307770283463 -682.92562866210926 -626.74389648437489 -766.38256835937489 1.8770004180252535 1.6927069285499974 0.67444295433913515 0.66000155447300457 0.47745102488161401 0.58228329500299669 -647.26455688476551
decision_type=2 2 2 2 2 2 2 2 2 2 2 2 2 2 2 2 2 2 2 2 2 2 2
left_child=14 7 3 10 -5 -6 -4 9 -9 11 -3 12 -2 20 15 18 -10 -18 19 -1 -11 22 -20
right_child=1 2 6 4 5 -7 -8 8 16 13 -12 -13 -14 -15 -16 -17 17 -19 21 -21 -22 -23 -24
leaf_value=0.0021541840662626962 -0.00031000549137169829 -0.00080327915445955263 -0.0019598313961669452 -0.0054807596882593887 -0.0037875606594681005 0.00081023333571183522 -0.0040195210798406539 -0.0015001809715719265 0.00079790070773334701 0.00093119154527728876 -0.0038830835359889059 -0.00039702475821689893 0.001227033747989173 9.26463426214432e-05 0.0026869156377882621 -7.6341865961643545e-05 -0.00087970023599663453 0.00012589208933537328 0.0024019626172643773 -0.00072740659346707398 0.0023767068016775751 0.00096416518950955498 0.0015000627618669178
leaf_weight=21 21 22 24 25 22 118 33 27 22 20 20 39 135 22 124 20 28 39 57 20 85 20 20
leaf_count=21 21 22 24 25 22 118 33 27 22 20 20 39 135 22 124 20 28 39 57 20 85 20 20
internal_value=0.00125495 -0.00138869 -0.00721318 -0.00446644 -0.00208964 0.000321199 -0.0170753 0.00211139 -0.00288544 0.00392735 -0.013658 0.00151205 0.00323511 0.00759245 0.00785183 0.00616698 -5.61167e-05 -0.00186289 0.0070601 0.00377129 0.00899144 0.00839341 0.00927367
internal_weight=984 702 264 207 165 140 57 438 116 322 42 195 156 127 282 158 89 67 138 41 105 97 77
internal_count=984 702 264 207 165 140 57 438 116 322 42 195 156 127 282 158 89 67 138 41 105 97 77
is_linear=0
shrinkage=0.05


Tree=11
num_leaves=26
num_cat=0
split_feature=15 7 1 0 9 11 12 11 12 8 1 20 9 16 7 0 16 20 20 12 8 12 12 13 7
split_gain=6.5648 4.71419 2.75102 1.52338 1.83256 3.82851 1.47709 1.34029 2.53157 1.80959 1.25937 0.936162 0.846023 0.752151 0.702459 0.606304 0.453124 0.364522 0.348316 0.252063 0.234155 0.216632 0.603161 0.0956205 0.00239037
threshold=12058.000000000002 -656.84777832031239 89.320321614240825 69.500000000000014 1.5648539668197754 27.529432901413127 0.69780668915299604 29.929443808632616 0.66491322242051287 274.14001464843756 59.168161544296701 -27586.954284667965 1.7689737485038097 3600.0000000000005 -716.68252563476551 68.500000000000014 3013.0000000000005 -626.74389648437489 -766.38256835937489 0.68510974785704859 314.19374084472662 0.67444295433913515 0.66000155447300457 0.58228329500299669 -647.26455688476551
decision_type=2 2 2 2 2 2 2 2 2 2 2 2 2 2 2 2 2 2 2 2 2 2 2 2 2
left_child=17 3 7 11 20 12 -4 9 -9 -3 -11 13 -6 16 -7 19 -2 18 21 -13 -5 22 -1 24 -23
right_child=1 2 6 4 5 14 -8 8 -10 10 -12 15 -14 -15 -16 -17 -18 -19 -20 -21 -22 23 -24 -25 -26
leaf_value=0.0020464748629495633 -4.5316059605604555e-05 -0.0035981826264946978 -0.0018618398263585976 0.0028398814260983721 -0.0033222249950848521 0.0017963237908469175 -0.0038185450258486236 -0.00067259704341320883 -0.007104148393413833 -0.0016535581700709734 0.0012574280866620474 0.0012003359070406159 -0.00029450522357174583 0.0024306815673982725 -0.00011389853013729721 0.00030829041272624822 -0.0017546282223436461 0.0025525698558988511 -7.2524772663562769e-05 0.0022301127850134169 9.3763971624586726e-05 0.0022818644864011609 -0.00069103626379372202 0.00091595693003407536 0.0014250596237735742
leaf_weight=21 30 22 24 27 23 32 33 30 20 38 97 73 31 21 38 36 20 124 20 87 20 57 20 20 20
leaf_count=21 30 22 24 27 23 32 33 30 20 38 97 73 31 21 38 36 20 124 20 87 20 57 20 20 20
internal_value=0.00140738 -0.00117505 -0.00645589 0.00199726 -0.00166569 -0.0048751 -0.0161996 -0.00374215 -0.0108782 -0.00143221 0.000703183 0.00436166 -0.0148799 -0.000492264 0.00278174 0.00614482 -0.00389222 0.00785183 0.00616698 0.00746409 0.0066879 0.0070601 0.00377129 0.00839341 0.00927367
internal_weight=984 702 264 438 171 124 57 207 50 157 135 267 54 71 70 196 50 282 158 160 47 138 41 97 77
internal_count=984 702 264 438 171 124 57 207 50 157 135 267 54 71 70 196 50 282 158 160 47 138 41 97 77
is_linear=0
shrinkage=0.05


Tree=12
num_leaves=26
num_cat=0
split_feature=17 7 6 1 12 10 19 0 9 7 20 1 17 20 14 0 11 11 11 6 12 14 19 7 0
split_gain=6.16447 5.30693 2.62497 2.72694 3.48981 2.27006 1.30262 1.20702 1.64871 1.78751 1.42257 1.04167 0.812823 0.812056 0.932192 0.613335 0.469865 0.609512 0.377644 0.292775 0.20161 0.232156 0.132534 0.0782857 0.00218107
threshold=472.55458103547136 -656.84777832031239 1159.0731657480626 67.780167398999211 0.66114084910437765 1.5076187993727419 53311.516636795037 68.500000000000014 1.4905550280074795 -682.92562866210926 -27586.954284667965 78.765187064622367 1395.893394489314 -626.74389648437489 0.60405119311084754 67.500000000000014 25.142782871673667 27.462895074603846 30.091711235294756 1499.8526800117493 0.68510974785704859 0.41744860616873936 413.29025753843297 -688.71319580078114 63.500000000000007
decision_type=2 2 2 2 2 2 2 2 2 2 2 2 2 2 2 2 2 2 2 2 2 2 2 2 2
left_child=13 7 3 12 -5 -6 19 10 23 11 18 -10 -3 14 15 22 -17 -18 -2 -4 21 -12 -1 -9 -22
right_child=1 2 6 4 5 -7 -8 8 9 -11 20 -13 -14 -15 -16 16 17 -19 -20 -21 24 -23 -24 -25 -26
leaf_value=0.0010857172476302155 0.00014399104770974671 0.0007040339738242341 0.0017091798068510371 7.286117815234824e-05 -0.0085613112628053108 -0.0030843898674036228 -0.0013675348039730135 0.00017190293663141415 0.0015653831068639596 -0.0034470598231537289 0.0020116313661398808 -0.00015317195651759805 -0.0011969416682193429 0.002424941363103911 -0.0006659618930606523 0.0012889600234605814 -0.0008945742402567434 0.00082330811474854533 -0.0017579037136454833 0.00065597137743116823 0.0012853084618980296 0.00073923853744341282 0.0022871674148619218 0.0043029556573750301 0.002343000260217336
leaf_weight=20 37 30 22 23 49 32 20 20 33 28 20 92 36 124 24 22 32 50 28 24 20 43 75 24 56
leaf_count=20 37 30 22 23 49 32 20 20 33 28 20 92 36 124 24 22 32 50 28 24 20 43 75 24 56
internal_value=0.00130576 -0.00160885 -0.00756036 -0.0108466 -0.0158982 -0.0207768 0.000832073 0.00188232 -0.000887874 -0.00336381 0.00458109 -0.000759392 -0.00279879 0.00666955 0.00481847 0.00595178 0.00321806 0.00140073 -0.00145929 0.00553145 0.00744069 0.00515055 0.00888538 0.00759637 0.00926413
internal_weight=984 637 236 170 104 81 66 401 197 153 204 125 66 347 223 199 104 82 65 46 139 63 95 44 76
internal_count=984 637 236 170 104 81 66 401 197 153 204 125 66 347 223 199 104 82 65 46 139 63 95 44 76
is_linear=0
shrinkage=0.05


Tree=13
num_leaves=24
num_cat=0
split_feature=15 7 17 18 6 1 11 18 16 9 7 1 12 14 12 6 20 20 12 12 16 13 7
split_gain=6.05935 4.71419 2.61 2.03828 1.57138 2.04753 1.9891 1.42307 1.402 1.44546 1.4536 1.26565 0.975161 1.09985 0.867958 0.8531 0.51043 0.58151 0.365274 0.388449 0.128799 0.0956205 0.00239037
threshold=12058.000000000002 -656.84777832031239 3382.8075207805864 0.43693137236148 1159.0731657480626 64.807881437313867 30.860554605951332 0.60054863106155132 2723.0000000000005 1.6074590640627175 -722.96145629882801 59.168161544296701 0.71430371108364754 0.29697360874984619 0.67747463053921353 980.81104123350281 -626.74389648437489 -766.38256835937489 0.67444295433913515 0.66000155447300457 2474.5000000000005 0.58228329500299669 -647.26455688476551
decision_type=2 2 2 2 2 2 2 2 2 2 2 2 2 2 2 2 2 2 2 2 2 2 2
left_child=16 3 4 8 5 11 -7 -6 12 -10 -11 -3 14 -14 -2 -4 17 18 19 -1 -5 22 -20
right_child=1 2 15 20 7 6 -8 -9 9 10 -12 -13 13 -15 -16 -17 -18 -19 21 -21 -22 -23 -24
leaf_value=0.0018297927490589926 -6.2801150723633807e-05 -0.00066805057001195485 -0.0077348018161520066 0.0023743442652544682 0.0017144655189416436 -0.0036798698723639225 6.9218119244732944e-05 -0.00059248218469946327 0.00045761055625362498 -0.00039631246223549728 -0.0015946711724589028 0.0024731021523624244 0.0004696850018471603 -0.00029525655410622047 0.0013554498848082298 -0.0013554220114034322 0.0023036942949487163 -0.00017124240650273024 0.0020993429741835139 -0.00068047103765511187 0.00032651448590029377 0.00088307038800223355 0.0013193236894756127
leaf_weight=21 98 43 23 68 38 72 23 23 29 24 23 22 23 25 128 20 124 20 57 20 20 20 20
leaf_count=21 98 43 23 68 38 72 23 23 29 24 23 22 23 25 128 20 124 20 57 20 20 20 20
internal_value=0.00130576 -0.00117505 -0.00645589 0.00199726 -0.00422886 -0.00683948 -0.0115142 0.00253682 0.000271351 -0.00571616 -0.0111465 0 0.00195184 -0.00446985 0.00333923 -0.0177494 0.00749734 0.00553447 0.00669804 0.00255474 0.00879682 0.00839341 0.00927367
internal_weight=984 702 264 438 221 160 95 61 350 76 47 65 274 48 226 43 282 158 138 41 88 97 77
internal_count=984 702 264 438 221 160 95 61 350 76 47 65 274 48 226 43 282 158 138 41 88 97 77
is_linear=0
shrinkage=0.05


Tree=14
num_leaves=21
num_cat=0
split_feature=15 7 17 6 8 0 18 7 23 11 0 18 6 20 20 13 11 0 7 15
split_gain=5.71743 4.50532 2.69982 1.85385 1.8748 2.68376 1.71147 1.61822 1.08057 1.26573 1.75858 1.06281 0.8531 0.591725 0.535883 0.307068 0.280453 0.440158 0.674368 0.242537
threshold=12058.000000000002 -656.84777832031239 3382.8075207805864 1159.0731657480626 308.05574035644537 71.500000000000014 0.43693137236148 -578.31149291992176 1.0000000180025095e-35 24.621345546973377 73.500000000000014 0.60054863106155132 980.81104123350281 -626.74389648437489 -766.38256835937489 0.54587893020040468 26.686663216670443 64.500000000000014 -677.01226806640614 80447.000000000015
decision_type=2 2 2 2 2 2 2 2 2 2 2 2 2 2 2 2 2 2 2 2
left_child=13 6 3 4 7 -6 8 -3 9 19 -11 -5 -4 14 16 -8 -1 -18 -19 -2
right_child=1 2 12 11 5 -7 15 -9 -10 10 -12 -13 -14 -15 -16 -17 17 18 -20 -21
leaf_value=0.0022231768983208486 0.0021275237380005045 -0.0027404252916283581 -0.0073480617253444047 0.0016287422429945631 0.00064911991724747944 -0.0034125413178398576 0.0027585785683658065 -0.00065022284228700685 0.002199449119036309 -5.2571128829121858e-07 -0.0015742365543508501 -0.00056285807546449193 -0.001287650910833258 0.0021885095802012811 -0.0001626802861775962 0.00012506766582965172 0.0016863982234496062 0.001564807327289592 -8.3677758608951067e-05 0.00042490974293065629
leaf_weight=42 29 36 23 38 63 25 67 36 37 222 42 23 20 124 20 21 30 29 37 20
leaf_count=42 29 36 23 38 63 25 67 36 37 222 42 23 20 124 20 21 30 29 37 20
internal_value=0.00130576 -0.00110383 -0.00626657 -0.00400271 -0.00683948 -0.00187287 0.00199726 -0.0128294 0.000414167 -0.000526988 -0.00191215 0.00335516 -0.0177494 0.0073201 0.00521822 0.00822929 0.00633599 0.00473465 0.00234493 0.00682281
internal_weight=984 702 264 221 160 88 438 72 350 313 264 61 43 282 158 88 138 96 66 49
internal_count=984 702 264 221 160 88 438 72 350 313 264 61 43 282 158 88 138 96 66 49
is_linear=0
shrinkage=0.05


Tree=15
num_leaves=18
num_cat=0
split_feature=16 7 1 19 12 0 1 14 12 19 12 1 7 7 0 12 12
split_gain=5.15176 2.89859 2.62203 2.08733 1.887 1.7176 4.08423 1.74104 1.18934 1.35995 1.04117 1.15574 1.10117 1.38664 0.764811 0.782173 0.348082
threshold=1031.0000000000002 -665.39282226562489 91.33580968493176 21.634639053752135 0.67369482976166195 73.500000000000014 79.959291643405464 0.62289947440159521 0.68747009033811246 31923.027079816409 0.7200624878307661 106.8636975412805 -725.83108520507801 -709.41030883789051 68.500000000000014 0.70561425887492846 0.74779641322552892
decision_type=2 2 2 2 2 2 2 2 2 2 2 2 2 2 2 2 2
left_child=3 10 4 -1 -3 7 -7 14 -6 -10 11 12 -2 -14 16 -16 -5
right_child=1 2 -4 5 8 6 -8 -9 9 -11 -12 -13 13 -15 15 -17 -18
leaf_value=0.00207908410119122 0.001636289701711242 -0.0040782788067619978 -0.0062095952255970324 0.0014191675573080398 0.0012081898437793946 0.0018802854835871458 -0.0017923739464333463 -0.0029892125947897519 -0.0022338694000911493 8.7779696186640035e-05 -0.0022805760675907584 -0.00090789020887774513 -0.0023596958249307663 0.00030454653544396791 0.00054776156008286747 -0.0004669358020594117 0.00029258249202560748
leaf_weight=126 56 32 21 241 33 32 36 27 23 27 33 32 21 82 115 24 20
leaf_count=126 56 32 21 241 33 32 36 27 23 27 33 32 21 82 115 24 20
internal_value=0.00143207 -0.00331852 -0.00907421 0.00419417 -0.00603823 0.00271662 -0.00462555 0.00389838 -0.00198556 -0.00688623 0.00015618 0.00159602 0.00336267 0.000242483 0.00473632 0.00168943 0.00633857
internal_weight=981 360 136 621 115 495 68 427 83 50 224 191 159 103 400 139 261
internal_count=981 360 136 621 115 495 68 427 83 50 224 191 159 103 400 139 261
is_linear=0
shrinkage=0.05


Tree=16
num_leaves=23
num_cat=0
split_feature=15 7 13 9 17 10 19 11 12 7 9 16 9 7 16 16 12 12 12 13 11 11
split_gain=4.07706 2.6853 2.06723 4.49121 2.01127 2.00286 1.24502 1.12167 1.67406 1.39185 1.16387 0.924753 0.859904 1.01739 0.847143 1.14365 0.58948 0.525979 1.23982 0.473498 0.103186 0.179857
threshold=12058.000000000002 -660.49163818359364 0.54464931961575735 1.6103418401316563 3382.8075207805864 -1.0462166378496518 37281.027254867549 29.929443808632616 0.68747009033811246 -639.52175903320301 1.3855655862939102 1710.0000000000002 1.7326148522809028 -739.97729492187489 60.500000000000007 80.500000000000014 0.6666180231923039 0.67542048926205756 0.66198301829275474 0.51235494344147958 26.686663216670443 29.620795900612553
decision_type=2 2 2 2 2 2 2 2 2 2 2 2 2 2 2 2 2 2 2 2 2 2
left_child=14 2 6 5 7 -4 17 8 11 -9 -10 -3 -8 -14 -1 -16 -17 18 -2 -19 -18 -22
right_child=1 4 3 -5 -6 -7 12 9 10 -11 -12 -13 13 -15 15 16 20 19 -20 -21 21 -23
leaf_value=0.001975129896131661 0.0017321280427152739 0.00141081088807688 -0.0015447711030557869 -0.0030310317739593159 -0.0056681356175636213 0.002032495449367332 0.0023436440824860997 0.00012669382148321504 -0.00068204196059042392 -0.0035549229177171669 -0.0016862833490668427 -0.00060879229689698555 0.00098578348254317973 -0.0022843455944273508 -0.00099723759486368478 7.9844732343848355e-06 0.0017224390805750261 0.0005353745881768742 -0.00032989814053860627 0.0020646501984853695 0.00095195605994677877 0.0018449138892892578
leaf_weight=123 51 62 27 29 35 46 23 21 65 28 21 25 22 20 21 29 42 76 49 98 43 25
leaf_count=123 51 62 27 29 35 46 23 21 65 28 21 25 22 20 21 29 42 76 49 98 43 25
internal_value=0.00173785 -0.000307979 0.00205169 -0.00416259 -0.00437573 0.00239398 0.00393689 -0.00258892 -0.000664356 -0.0092668 -0.00563298 0.00419059 -0.00222734 -0.00653207 0.00679972 0.00434104 0.00600288 0.00541773 0.00244755 0.00709362 0.00767484 0.00624082
internal_weight=981 698 441 102 257 73 339 222 173 49 86 87 65 42 283 160 139 274 100 174 110 68
internal_count=981 698 441 102 257 73 339 222 173 49 86 87 65 42 283 160 139 274 100 174 110 68
is_linear=0
shrinkage=0.05


Tree=17
num_leaves=19
num_cat=0
split_feature=16 19 7 12 13 10 8 6 8 18 18 0 8 7 0 12 17 9
split_gain=4.13022 1.85748 1.82163 2.17339 1.70331 3.17973 1.64019 1.43557 1.08203 1.59029 1.54066 0.951483 1.7876 1.10595 0.872941 0.481504 0.477887 0.00756712
threshold=1031.0000000000002 21.634639053752135 -639.52175903320301 0.67369482976166195 0.54464931961575735 1.8230963278400563 274.14001464843756 1119.2264020114492 310.78361511230474 0.43693137236148 0.34827756505165491 71.500000000000014 314.74223327636724 -660.49163818359364 66.500000000000014 0.66393216251945597 3574.0692121740517 2.0735555869526263
decision_type=2 2 2 2 2 2 2 2 2 2 2 2 2 2 2 2 2 2
left_child=1 -1 4 -4 8 -6 -3 11 9 10 -2 13 -13 -8 -5 -9 -10 -17
right_child=2 6 3 14 5 -7 7 15 16 -11 -12 12 -14 -15 -16 17 -18 -19
leaf_value=0.0018763734013250767 0.00014600344272287227 -0.00059396853401462023 -0.0055002187896322496 -0.0053470825687322093 0.00017468690014973628 -0.0035678058725541121 0.0014471153384168938 0.00021352659779196454 0.0012850485759181842 0.0028844578839013445 -0.0012015526006013944 0.00097946291008299937 -0.0012780264652013705 6.0810348227639618e-05 0.0010481549899203539 0.001857594117797044 0.00033120176281814517 0.0025920598583116681
leaf_weight=126 62 30 28 22 38 28 106 24 56 35 42 66 39 116 29 94 20 20
leaf_count=126 62 30 28 22 38 28 106 24 56 35 42 66 39 116 29 94 20 20
internal_value=0.00204362 0.00451618 -0.00220772 -0.00891277 -0.000302383 -0.00733737 0.00312058 0.00385939 0.00183636 -0.000754853 -0.00389049 0.00203302 -0.00185538 0.00389464 -0.00264188 0.00814627 0.00663601 0.0095092
internal_weight=981 621 360 79 281 66 495 465 215 139 104 327 105 222 51 138 76 114
internal_count=981 621 360 79 281 66 495 465 215 139 104 327 105 222 51 138 76 114
is_linear=0
shrinkage=0.05


Tree=18
num_leaves=17
num_cat=0
split_feature=16 19 13 10 0 7 0 1 14 18 16 10 20 10 1 0
split_gain=4.83856 1.85748 1.2972 3.92978 2.41364 1.60253 1.26055 3.20994 1.52948 1.21834 1.12212 2.21108 1.11072 0.89694 0.65825 0.638682
threshold=1031.0000000000002 21.634639053752135 0.54864191794494521 1.6972547050589701 64.500000000000014 -644.41839599609364 73.500000000000014 79.959291643405464 0.6274956712273797 0.041520688229653706 2771.5000000000005 2.1340454646354239 -17541.981811523434 1.0000000180025095e-35 69.676660987550108 68.500000000000014
decision_type=2 2 2 2 2 2 2 2 2 2 2 2 2 2 2 2
left_child=1 -1 5 4 -4 9 8 -8 13 -2 12 -12 -11 -3 -7 -15
right_child=2 6 3 -5 -6 14 7 -9 -10 10 11 -13 -14 15 -16 -17
leaf_value=0.001782554731258823 0.0018755264922761792 -0.00020115217631375951 -0.0031504123484664055 -0.0038630556937966371 0.00058493073516799657 -0.00064975752406096112 0.0017339965724638814 -0.0016001767941441339 -0.0029867951181162117 0.000689232674461205 0.00044140292269596231 -0.0011740189355431178 -0.00029308177445334688 0.0013371824600170007 -0.0053406977248700339 0.00020801606987960074
leaf_weight=126 40 24 27 26 32 23 32 36 25 78 29 43 36 240 26 138
leaf_count=126 40 24 27 26 32 23 32 36 25 78 29 43 36 240 26 138
internal_value=0.00183977 0.00451618 -0.00276312 -0.00816686 -0.000930626 -0.00107234 0.00312058 -0.00315712 0.00413252 0.000685537 -0.000994089 -0.00589459 0.0020596 0.00488684 -0.0092668 0.00548797
internal_weight=981 621 360 85 59 275 495 68 427 226 186 72 114 402 49 378
internal_count=981 621 360 85 59 275 495 68 427 226 186 72 114 402 49 378
is_linear=0
shrinkage=0.05


Tree=19
num_leaves=20
num_cat=0
split_feature=16 19 8 6 10 7 20 20 12 0 13 9 8 0 0 18 12 12 9
split_gain=3.79715 1.85748 1.64019 1.43557 1.42569 1.28745 1.42307 1.03334 1.91403 1.0199 0.860693 1.47495 0.889641 0.985253 0.798862 0.725274 0.481504 0.229692 0.00756712
threshold=1031.0000000000002 21.634639053752135 274.14001464843756 1119.2264020114492 -0.11237240692287703 -665.39282226562489 -27800.15716552734 -17118.880401611324 0.68747009033811246 74.500000000000014 0.54464931961575735 1.5980706056060121 309.67208862304693 69.500000000000014 68.500000000000014 0.3871485648156312 0.66393216251945597 0.67039559116644087 2.0735555869526263
decision_type=2 2 2 2 2 2 2 2 2 2 2 2 2 2 2 2 2 2 2
left_child=1 -1 -3 4 -4 9 -7 15 -9 10 12 -12 13 -2 -6 -8 -5 -14 -18
right_child=5 2 3 16 14 6 7 8 -10 -11 11 -13 17 -15 -16 -17 18 -19 -20
leaf_value=0.0016934269946958791 0.00025371280721305493 -0.0005149253156185845 -0.0023298295886659301 0.0001698661404755926 0.0010642317599850431 -0.0048264119020111507 -0.00040451404990650419 0.00018737324098347266 -0.0019220526729977823 0.0014356853455662619 0.00013518059366586144 -0.0027813125968897431 0.00039330424668707439 -0.0003538601530798228 5.5844902005181229e-05 0.0014341020183167761 0.0017247888358323405 0.001285941303881169 0.0023955977423952331
leaf_weight=126 66 30 22 24 148 37 32 27 20 34 27 20 20 31 157 20 94 26 20
leaf_count=126 66 30 22 24 148 37 32 27 20 34 27 20 20 31 157 20 94 26 20
internal_value=0.00214555 0.00451618 0.00312058 0.00385939 0.00203302 -0.00193002 -0.00576782 -0.00257316 -0.00796178 0.000379295 -0.00102578 -0.00690021 0.000873515 -0.00180227 0.00293346 0.00220729 0.00814627 0.00661605 0.0095092
internal_weight=981 621 495 465 327 360 136 99 47 224 190 47 143 97 305 52 138 46 114
internal_count=981 621 495 465 327 360 136 99 47 224 190 47 143 97 305 52 138 46 114
is_linear=0
shrinkage=0.05


Tree=20
num_leaves=23
num_cat=0
split_feature=16 8 9 17 13 13 8 16 16 10 11 11 17 0 9 14 20 1 17 7 1 7
split_gain=4.50925 1.76554 1.56578 1.75853 2.32195 1.42861 2.99292 1.42323 1.36553 1.46 1.22281 1.85792 1.01348 1.10197 1.59725 2.40613 0.803214 0.479936 0.624972 0.361044 0.257811 0.117576
threshold=836.00000000000011 278.15986633300787 2.1606481846591779 3024.4716423133455 0.566125666748306 0.51307878037787757 298.53958129882818 193.50000000000003 3553.0000000000005 1.1888175573281183 28.804525639922208 26.639099314432837 74.396818930316158 68.500000000000014 1.6736879379553258 0.53655196036043684 -18941.072143554684 94.684519297427912 757.22618314783347 -639.52175903320301 59.878519593167759 -716.68252563476551
decision_type=2 2 2 2 2 2 2 2 2 2 2 2 2 2 2 2 2 2 2 2 2 2
left_child=1 7 3 4 10 6 -5 -1 9 -7 11 -2 -3 17 15 -15 -6 20 -19 -12 -14 -16
right_child=2 12 -4 5 16 8 -8 -9 -10 -11 19 -13 13 14 21 -17 -18 18 -20 -21 -22 -23
leaf_value=0.0015758050273986177 0.0016130428734725398 0.0016087556449610853 0.0015998914831045563 -0.00016581820809338484 -0.0015650668523749434 -0.0056943675669614393 -0.0033986510187057925 -0.00059539805255534844 0.00043570786301710686 -0.00027787663135722023 0.0011793156022794191 -0.0006986565303353714 0.000824112429280694 -0.0010290112982149775 0.0020792614791087364 0.0022982369353322825 -0.0017573942210891121 -0.00041557138561873312 0.0014215557228488931 6.2078498159131836e-05 0.0013509489379530347 0.00079326527118269818
leaf_weight=20 52 108 32 29 21 20 22 39 38 29 43 77 34 65 33 39 21 21 24 26 128 31
leaf_count=20 52 108 32 29 21 20 22 39 38 29 43 77 34 65 33 39 21 21 24 26 128 31
internal_value=0.00164373 0.00463937 -0.00230432 -0.00321344 -0.000603915 -0.0077118 -0.0143836 -0.0034687 -0.00373134 -0.0092668 0.00164059 -0.00120062 0.00564065 0.0043855 0.00133849 -0.00244957 -0.0112827 0.00683245 0.00210643 0.00701881 0.00811228 0.0075663
internal_weight=952 542 410 378 240 138 51 59 87 49 198 129 483 375 168 104 42 207 45 69 162 64
internal_count=952 542 410 378 240 138 51 59 87 49 198 129 483 375 168 104 42 207 45 69 162 64
is_linear=0
shrinkage=0.05


Tree=21
num_leaves=23
num_cat=0
split_feature=16 7 8 16 1 12 11 10 17 0 8 10 18 23 17 12 1 12 1 17 1 7
split_gain=3.6117 1.89529 1.76554 1.42323 1.24455 2.81374 1.19345 2.57147 1.01348 1.10197 1.52091 1.33899 0.94363 0.926477 0.855479 1.48227 0.606979 0.597154 0.479936 0.624972 0.257811 0.234473
threshold=836.00000000000011 -657.40975952148426 278.15986633300787 193.50000000000003 67.558816661110157 0.66114084910437765 26.639099314432837 1.4924230526458746 74.396818930316158 68.500000000000014 297.20193481445318 3.2107090539944005 0.43693137236148 1.0000000180025095e-35 3830.7020600701067 0.70684659957053808 59.168161544296701 0.71430371108364754 94.684519297427912 757.22618314783347 59.878519593167759 -699.98574829101551
decision_type=2 2 2 2 2 2 2 2 2 2 2 2 2 2 2 2 2 2 2 2 2 2
left_child=2 12 3 -1 16 -6 -7 -8 -4 18 -11 -12 13 14 17 -16 -3 -2 20 -20 -10 -14
right_child=1 4 8 -5 5 6 7 -9 9 10 11 -13 21 -15 15 -17 -18 -19 19 -21 -22 -23
leaf_value=0.0014970147760286865 0.00028247412847915587 -0.0018823130910105242 0.0015283178627130301 -0.00056562814992757967 0.00074916960660582161 -0.00035732636023146238 -0.0068137047963074812 -0.0019911275884763944 0.0007829068078166585 0.0017593631144874888 -0.00073902555745299775 0.0018292909474094989 0.0020430877715934509 0.0026488925113191224 -0.0016240723020582754 2.5666602526955471e-05 0.001122075262593162 -0.00061049596340987213 -0.00039479281633779503 0.0013504779367064504 0.0012834014910553812 0.00010257710033984794
leaf_weight=20 99 33 108 39 20 29 25 24 34 40 93 35 32 20 28 21 30 28 21 24 128 21
leaf_count=20 99 33 108 39 20 29 25 24 34 40 93 35 32 20 28 21 30 28 21 24 128 21
internal_value=0.00195883 -0.00157279 0.00463937 -0.0034687 -0.00580385 -0.00932722 -0.0136364 -0.0184318 0.00564065 0.0043855 0.00133849 -0.00128806 0.00114412 -0.000433452 -0.0016184 -0.00723014 -0.000237718 0.000511408 0.00683245 0.00210643 0.00811228 0.00706215
internal_weight=952 410 542 59 161 98 78 49 483 375 168 128 249 196 176 49 63 127 207 45 162 53
internal_count=952 410 542 59 161 98 78 49 483 375 168 128 249 196 176 49 63 127 207 45 162 53
is_linear=0
shrinkage=0.05


Tree=22
num_leaves=24
num_cat=0
split_feature=16 15 8 13 9 0 7 8 16 12 8 8 6 7 0 1 9 14 19 12 15 18 13
split_gain=3.66387 1.70737 1.81129 1.50102 3.28279 2.22872 1.3805 1.20657 1.35091 2.29369 1.05545 0.878562 1.27665 0.848576 1.19297 2.34922 0.717672 0.54148 0.420609 0.649859 0.382988 0.377415 0.00388885
threshold=813.00000000000011 2045.5000000000002 278.15986633300787 0.54464931961575735 1.6103418401316563 62.500000000000007 -660.49163818359364 278.15986633300787 2771.5000000000005 0.66839841356555274 272.53179931640631 297.71977233886724 1237.4563314314998 -681.19372558593739 68.500000000000014 77.251998742700707 1.3341563960977341 0.49701141648373598 4599.8364564785461 0.71785047661009427 17451.000000000004 0.33674700042332978 0.48194064206311799
decision_type=2 2 2 2 2 2 2 2 2 2 2 2 2 2 2 2 2 2 2 2 2 2 2
left_child=1 -1 10 7 5 -5 -7 -2 11 -10 -3 12 -9 18 20 -16 -13 -11 19 -4 -15 -8 -20
right_child=3 2 13 4 -6 6 21 8 9 17 -12 16 -14 14 15 -17 -18 -19 22 -21 -22 -23 -24
leaf_value=0.0014519019695773796 -0.0005694695083902397 0.00020672389961595103 0.0013257346499895711 -0.0026553681453955745 -0.0024135181214769664 0.0014846625058756759 -0.0029135426749847832 -0.00037600692867524344 -0.0043824393668409223 -0.00026350818057405839 -0.00079925026766282034 -0.00015781912510434817 0.0017535878434693189 0.001271179707276528 0.00032627122151997884 -0.0024876353187406105 0.0010488315416006975 0.00074435835448218675 0.0015398009710394596 -0.00015931363244284149 0.00026375771889649598 0.00041903297153416904 0.0012086232003196019
leaf_weight=119 35 20 76 20 22 37 20 45 24 30 26 21 20 65 40 32 95 29 20 23 48 20 65
leaf_count=119 35 20 76 20 22 37 20 45 24 30 26 21 20 65 40 32 95 29 20 23 48 20 65
internal_value=0.00190631 0.00465269 0.00311973 -0.00159053 -0.00633921 -0.0023172 0.00149157 0.000284186 0.00145778 -0.00379061 -0.00618221 0.00389288 -0.000691244 0.00429423 0.00186386 -0.00312067 0.00650301 0.00143824 0.00670831 0.00438951 0.005084 -0.00486284 0.00934195
internal_weight=952 534 415 418 119 97 77 299 264 83 46 181 65 369 185 72 116 59 184 99 113 40 85
internal_count=952 534 415 418 119 97 77 299 264 83 46 181 65 369 185 72 116 59 184 99 113 40 85
is_linear=0
shrinkage=0.05


Tree=23
num_leaves=14
num_cat=0
split_feature=19 8 6 15 10 12 0 7 13 1 18 3 6
split_gain=3.76686 2.26022 2.17344 2.09726 2.06443 1.76791 1.56233 1.35788 1.24824 1.05657 0.832306 0.933085 0.00122872
threshold=21.634639053752135 274.14001464843756 1255.0478435120312 61896.000000000007 -0.11237240692287703 0.68747009033811246 68.500000000000014 -656.50134277343739 0.54523875557281054 82.218986585281115 0.77080163732231022 1722.5000000000002 1623.794130946708
decision_type=2 2 2 2 2 2 2 2 2 2 2 2 2
left_child=-1 5 3 4 -3 -2 -6 9 -9 -5 11 12 -4
right_child=1 2 10 7 6 -7 -8 8 -10 -11 -12 -13 -14
leaf_value=0.0013793068710985124 0.00014335308442505121 -0.0020235730345121209 0.0022766551288434297 0.00017303838122954639 0.0010121735808339004 -0.00052747812835549567 -3.5007222452838762e-06 -0.002965187359612354 -0.0043435151168401435 -0.0005959105430389085 -3.6787738261957642e-05 -8.7465157987061046e-05 0.0012946911318237426
leaf_weight=122 20 28 72 60 183 34 200 39 21 73 24 20 56
leaf_count=122 20 28 72 60 183 34 200 39 21 73 24 20 56
internal_value=0.00174877 0.00053608 0.00123051 -0.000173812 0.00183654 -0.00933457 0.00280606 -0.00447954 -0.0107321 -0.00161533 0.00618826 0.00759622 0.00917252
internal_weight=952 830 776 604 411 54 383 193 60 133 172 148 128
internal_count=952 830 776 604 411 54 383 193 60 133 172 148 128
is_linear=0
shrinkage=0.05


Tree=24
num_leaves=18
num_cat=0
split_feature=19 15 8 9 1 0 7 1 6 9 7 12 14 6 7 15 2
split_gain=3.5753 2.17882 2.11774 1.69084 1.54199 1.36377 1.91649 4.24582 0.949275 1.29637 1.97354 0.684953 0.5734 0.563268 0.401666 0.503637 0.424996
threshold=21.634639053752135 61896.000000000007 278.15986633300787 2.1606481846591779 78.859811123491966 68.500000000000014 -682.92562866210926 77.251998742700707 1255.0478435120312 1.8504971698104491 -656.50134277343739 0.68468406277502691 0.47491526697366199 1531.6877859115598 -647.69213867187489 17451.000000000004 14.500000000000002
decision_type=2 2 2 2 2 2 2 2 2 2 2 2 2 2 2 2 2
left_child=-1 2 4 8 -2 14 12 -8 9 10 -3 -10 -7 -13 16 -16 -4
right_child=1 3 5 -5 -6 6 7 -9 11 -11 -12 13 -14 -15 15 -17 -18
leaf_value=0.0013103415275435848 -0.0021562049314048965 1.6001742523925783e-05 0.0012088392178827402 0.0015996133122272898 1.0698640999131249e-05 0.00020561561297729796 0.00024682935582265981 -0.0026620106967820524 -0.00037760230049113278 -0.0010756478348107861 -0.0030017253448510195 0.0034616526971217084 0.0013458813157947421 -6.8478795446489132e-06 0.00088018319535650743 -6.8145868176921283e-06 0.00026566321999600337
leaf_weight=122 22 94 156 24 31 52 72 44 21 24 67 24 66 22 40 49 22
leaf_count=122 22 94 156 24 31 52 72 44 21 24 67 24 66 22 40 49 22
internal_value=0.00195883 0.000777015 0.00258979 -0.00284317 -0.00687382 0.00360208 0.000790261 -0.00374677 -0.00406585 -0.00591572 -0.00425202 0.000968703 0.00529213 0.00444685 0.00604642 0.00319865 0.00743964
internal_weight=952 830 554 276 53 501 234 116 252 185 161 67 118 46 267 89 178
internal_count=952 830 554 276 53 501 234 116 252 185 161 67 118 46 267 89 178
is_linear=0
shrinkage=0.05


Tree=25
num_leaves=16
num_cat=0
split_feature=19 2 8 6 10 0 11 12 13 13 14 18 0 0 6
split_gain=3.93954 2.60038 1.70182 1.68973 1.48774 1.69984 1.4586 1.28894 1.64997 1.54302 0.85116 0.568474 0.447632 0.171325 0.00642813
threshold=21.634639053752135 31.500000000000004 274.14001464843756 1255.0478435120312 -0.11237240692287703 68.500000000000014 25.399594559021917 0.67633086538044795 0.54464931961575735 0.58405045241071163 0.5208767982961614 0.77080163732231022 65.500000000000014 71.500000000000014 1623.794130946708
decision_type=2 2 2 2 2 2 2 2 2 2 2 2 2 2 2
left_child=-1 2 6 4 -4 -6 -2 10 12 -10 -3 14 -9 -14 -5
right_child=1 7 3 11 5 -7 -8 8 9 -11 -12 -13 13 -15 -16
leaf_value=0.0012448244511664042 -0.00050539311310549375 -0.00091372121771799222 -0.0017475760649254936 0.0020135739405558175 0.00090088135315738145 -2.2115635135579131e-05 0.00015617911242384323 -0.0002919055960666938 -0.0035162745689330701 0.0012251768402990948 -0.0039527220895654814 8.0578513691458565e-05 0.0011970950805112782 0.0004023595370854727 0.0012488366949357267
leaf_weight=134 20 38 39 68 201 238 23 26 38 22 33 20 24 23 51
leaf_count=134 20 38 39 68 201 238 23 26 38 22 33 20 24 23 51
internal_value=0.00197876 0.000734869 0.00226481 0.00294118 0.00151642 0.00235709 -0.00730858 -0.00418912 -0.00123967 -0.00740433 -0.00963432 0.00780014 0.00376197 0.0066879 0.00910999
internal_weight=998 864 660 617 478 439 43 204 133 60 71 139 73 47 119
internal_count=998 864 660 617 478 439 43 204 133 60 71 139 73 47 119
is_linear=0
shrinkage=0.05


Tree=26
num_leaves=23
num_cat=0
split_feature=16 13 10 0 19 7 16 13 8 6 7 13 10 14 0 13 19 14 1 2 19 14
split_gain=3.86066 2.10178 4.4894 2.76812 1.69753 1.57455 1.48567 2.4128 1.19892 1.45604 1.13595 0.999064 1.57767 1.15565 0.918783 0.657723 0.699541 0.515688 0.453717 0.405438 0.265591 0.10568
threshold=739.00000000000011 0.54464931961575735 1.9056556391224519 63.500000000000007 21.634639053752135 -682.92562866210926 3103.5000000000005 0.51501161423423214 284.96220397949224 1273.0722822761536 -653.27853393554676 0.51847626204833641 1.4924230526458746 0.51791742127474205 70.500000000000014 0.52779398675601519 19184.561202842557 0.60405119311084754 106.8636975412805 28.500000000000004 603.74692886308765 0.5147208584544537
decision_type=2 2 2 2 2 2 2 2 2 2 2 2 2 2 2 2 2 2 2 2 2 2
left_child=4 6 3 -3 -1 18 8 -8 9 -2 -5 12 -7 14 -13 16 -10 -15 20 -12 -6 -22
right_child=1 2 -4 10 5 11 7 -9 15 -11 19 13 -14 17 -16 -17 -18 -19 -20 -21 21 -23
leaf_value=0.0011825832286080863 -0.0014376007577529446 -0.0019567705293442078 -0.0024681100416006252 0.00071253684643102753 0.00076810253256161373 -0.0025135997583334156 -0.0016973982340194507 0.0013151830996753315 -1.5519443015002973e-05 0.00010221448398995846 0.00083961535636273711 0.00010227540886198717 0.00039452072383488747 0.0011984730199712966 -0.0012106013172579536 0.0022034654210606962 0.00075317294102712675 3.6402466135034571e-05 0.00089370573367248448 -0.0012023806259402962 0.0010566283252515577 0.00053425487676718919
leaf_weight=130 27 31 34 38 20 30 37 30 76 22 21 21 34 88 20 45 80 28 36 20 109 21
leaf_count=130 27 31 34 38 20 30 37 30 76 22 21 21 34 88 20 45 80 28 36 20 109 21
internal_value=0.00207895 -0.00126871 -0.00628036 -0.00131698 0.00496183 0.00335298 0.000993377 -0.00558867 0.00277889 -0.00417515 0.00360303 0.000474898 -0.00475819 0.00264163 -0.00450122 0.00450025 0.0029148 0.00521103 0.00674369 -0.00206813 0.00796136 0.00880092
internal_weight=998 461 144 110 537 407 317 67 250 49 79 221 64 157 41 201 156 116 186 41 150 130
internal_count=998 461 144 110 537 407 317 67 250 49 79 221 64 157 41 201 156 116 186 41 150 130
is_linear=0
shrinkage=0.05


Tree=27
num_leaves=15
num_cat=0
split_feature=19 2 8 7 1 14 18 6 19 8 10 11 18 6
split_gain=3.41103 2.25352 1.89638 1.43425 2.2014 1.54084 1.39602 1.31388 1.25455 1.21068 0.967266 1.11113 0.252769 0.0649755
threshold=21.634639053752135 31.500000000000004 274.14001464843756 -639.52175903320301 67.360295695749826 0.53384336041474845 0.40771947112194223 1255.0478435120312 40494.325033318142 271.92787170410162 -0.11237240692287703 25.288821965276146 0.77080163732231022 1623.794130946708
decision_type=2 2 2 2 2 2 2 2 2 2 2 2 2 2
left_child=-1 2 9 5 -5 6 8 10 -3 -2 -4 -12 13 -9
right_child=1 3 7 4 -6 -7 -8 12 -10 -11 11 -13 -14 -15
leaf_value=0.0011234540671776817 0.00040428568983425569 -0.00047192459073618998 -0.0015779338312995172 0.00049434193309889852 -0.0038457167655847079 0.00080156914505486994 0.00017913304708299456 0.0018665742141655041 -0.0018442685081953404 -0.00049488112589349427 0.0010098664864076749 0.00019179265138270928 8.8083442725305028e-05 0.0011487362098198393
leaf_weight=134 22 71 39 20 31 28 29 68 25 21 51 388 20 51
leaf_count=134 22 71 39 20 31 28 29 68 25 21 51 388 20 51
internal_value=0.00252981 0.00137137 0.00279503 -0.00320921 -0.0104697 -0.000751143 -0.00315747 0.00350835 -0.00608741 -0.00730858 0.00224848 0.00292644 0.00780014 0.00869018
internal_weight=998 864 660 204 51 153 125 617 96 43 478 439 139 119
internal_count=998 864 660 204 51 153 125 617 96 43 478 439 139 119
is_linear=0
shrinkage=0.05


Tree=28
num_leaves=18
num_cat=0
split_feature=19 2 8 1 12 13 13 6 12 12 14 12 15 6 18 8 11
split_gain=3.41103 1.79884 1.48618 1.63127 1.44801 1.63328 1.69614 1.36045 0.972341 1.52409 0.91278 0.677855 0.802006 0.657701 0.278439 0.217301 0.024369
threshold=21.634639053752135 31.500000000000004 278.15986633300787 78.859811123491966 0.66802899453938192 0.54864191794494521 0.57056109545135925 1255.0478435120312 0.66114084910437765 0.6666180231923039 0.52782357915534417 0.69616956569562893 123034.00000000001 1515.4601216850274 0.77080163732231022 310.44163513183599 28.690972170976568
decision_type=2 2 2 2 2 2 2 2 2 2 2 2 2 2 2 2 2
left_child=-1 2 3 -2 10 11 -7 8 15 -10 -3 12 -6 -5 16 -4 -9
right_child=1 4 7 13 5 6 -8 14 9 -11 -12 -13 -14 -15 -16 -17 -18
leaf_value=0.001067281363818795 -0.0017671991885149039 -0.00078437585805334531 0.00029609010336177963 0.0006807781518061622 -0.00040697798077711885 -0.0051537195029353403 0.00052398394598011423 0.0018556127834047217 -0.0014708639183826045 0.00028027079510851879 -0.0071403498932995583 0.00047896353935032601 0.00025894881240712497 -8.0588455143741159e-05 8.3679270589041933e-05 0.001600322129210952 0.0010727719383628884
leaf_weight=134 27 25 24 23 27 26 28 68 38 355 21 38 39 20 20 44 41
leaf_count=134 27 25 24 23 27 26 28 68 38 355 21 38 39 20 20 44 41
internal_value=0.00252981 0.00137137 0.00264354 -0.00420827 -0.00271926 -0.000411132 -0.00748614 0.00346551 0.00217957 0.00120834 -0.0105206 0.00321806 7.5643e-05 0.00174014 0.00801704 0.00770925 0.00902841
internal_weight=998 864 660 70 204 158 54 590 461 393 46 104 66 43 129 68 109
internal_count=998 864 660 70 204 158 54 590 461 393 46 104 66 43 129 68 109
is_linear=0
shrinkage=0.05


Tree=29
num_leaves=18
num_cat=0
split_feature=19 15 11 11 15 15 6 14 0 0 7 9 14 13 13 7 18
split_gain=3.45752 1.66382 1.52169 1.29107 1.24824 1.51503 1.51145 1.24385 1.84773 0.912313 1.04935 1.81954 0.883648 0.483898 0.299526 0.331574 0.094591
threshold=21.634639053752135 61896.000000000007 30.091711235294756 37.337796376604736 70495.500000000015 95647.500000000015 930.20214172572673 0.60405119311084754 65.500000000000014 67.500000000000014 -682.92562866210926 1.4515923400017321 0.47491526697366199 0.52671669943349131 0.4743017052109107 -647.69213867187489 0.18530988814802549
decision_type=2 2 2 2 2 2 2 2 2 2 2 2 2 2 2 2 2
left_child=-1 7 4 13 -3 16 -7 9 -9 14 12 -12 -11 -4 -2 -16 -6
right_child=1 2 3 -5 5 6 -8 8 -10 10 11 -13 -14 -15 15 -17 -18
leaf_value=0.0010139172956278532 5.2498994248640603e-05 -0.00086366887464036323 -0.0012966107502626961 9.3330835920770608e-05 0.00032221007157869801 -0.0013312956211609828 0.00014278332346383322 -0.0017940488600652759 0.0012156187679724379 0.00017108512948196253 0.00087207392344296707 -0.0010344369591181884 0.0012118006790055081 -0.0029139852540869 0.0010707895799541443 0.00028456888745554082 0.001094422506135784
leaf_weight=134 20 21 28 24 21 57 70 31 25 76 77 57 72 23 143 80 39
leaf_count=134 20 21 28 24 21 57 70 31 25 76 77 57 72 23 143 80 39
internal_value=0.00247971 0.00131351 -0.00181915 -0.00792277 0.000360404 0.00168359 -0.00137687 0.00284805 -0.00418895 0.00360884 0.00164835 -0.00152871 0.00455773 -0.0124266 0.00586179 0.00638727 0.00823627
internal_weight=998 864 283 75 208 187 127 581 56 525 282 134 148 51 243 223 60
internal_count=998 864 283 75 208 187 127 581 56 525 282 134 148 51 243 223 60
is_linear=0
shrinkage=0.05


Tree=30
num_leaves=16
num_cat=0
split_feature=15 6 8 14 6 6 8 11 18 15 20 18 6 7 7
split_gain=3.49248 1.88543 2.07681 1.65068 1.59325 2.60264 1.58574 0.947029 0.471373 0.446012 1.02708 0.197727 0.171364 0.165254 0.112335
threshold=8974.5000000000018 1263.7645445046153 274.14001464843756 0.61743308587864287 108.35178076744081 114.53289405562502 318.18777465820318 31.034026385876775 0.77080163732231022 1615.0000000000002 -766.38256835937489 0.39172330230771751 923.38698336792015 -672.59390258789051 -606.48925781249989
decision_type=2 2 2 2 2 2 2 2 2 2 2 2 2 2 2
left_child=9 3 -3 4 7 -6 -7 13 11 -1 12 -4 -11 -2 -13
right_child=1 2 8 -5 5 6 -8 -9 -10 10 -12 14 -14 -15 -16
leaf_value=0.00096322143084646159 0.0017018042929359896 -8.9742243155442472e-05 0.00067725927401306586 -0.0026112283048501019 -0.0024996167253145407 0.00022607649884346195 -0.00089338404519831926 -5.5224230251473953e-05 5.4863163675019867e-05 0.0011851215299073289 -0.0010366403168901262 0.0015824090113675197 0.00056300733722292268 0.00064802581546178413 0.00096608506156890372
leaf_weight=117 41 33 25 38 23 274 119 37 20 46 20 94 28 54 23
leaf_count=117 41 33 25 38 23 274 119 37 20 46 20 94 28 54 23
internal_value=0.00213184 0.000582512 0.00484367 -0.000827504 -0.000118591 -0.00164624 -0.000674129 0.00465556 0.00718692 0.00783989 0.00515409 0.00819845 0.00789474 0.0073081 0.00909479
internal_weight=992 781 195 586 548 416 393 132 162 211 94 142 74 95 117
internal_count=992 781 195 586 548 416 393 132 162 211 94 142 74 95 117
is_linear=0
shrinkage=0.05


Tree=31
num_leaves=26
num_cat=0
split_feature=15 7 14 7 8 7 17 16 18 11 11 9 15 15 17 13 16 19 12 7 18 14 7 15 1
split_gain=3.25498 1.95767 2.10625 2.03256 1.16628 1.263 2.38425 1.02288 1.15564 1.17637 2.30845 0.906376 0.84129 0.850857 0.684075 0.514893 0.837644 0.498589 0.474377 0.3292 0.423317 0.30094 0.250264 0.121561 0.0730426
threshold=13185.500000000002 -657.40975952148426 0.53617636573240468 -647.69213867187489 298.39784240722662 -533.18139648437489 1529.0998803906944 961.00000000000011 0.46155262555722332 30.608408449134817 37.337796376604736 1.5648539668197754 1615.0000000000002 4174.5000000000009 2717.5870992018886 0.5245061602247586 205.50000000000003 4959.8647308349609 0.71430371108364754 -721.11871337890614 0.40495003150168801 0.5147208584544537 -699.98574829101551 20467.500000000004 79.100580344303864
decision_type=2 2 2 2 2 2 2 2 2 2 2 2 2 2 2 2 2 2 2 2 2 2 2 2 2
left_child=12 7 3 -3 5 6 -4 18 9 11 -11 -9 -1 -14 17 16 -15 -6 19 23 -21 -18 -10 -2 -17
right_child=1 2 4 -5 14 -7 -8 8 22 10 -12 -13 13 15 -16 24 21 -19 -20 20 -22 -23 -24 -25 -26
leaf_value=0.00091506035930413732 0.00044772710170182879 -0.00082187922558350399 -0.001847195669490871 -0.0045028862158772087 9.0981117849715218e-05 0.0016446240624265751 0.00037244799376261829 0.0018978590703158959 0.0013274125299462939 -0.0015820522415116217 0.00053562955334423537 -6.8577770710140081e-05 -0.00054179192558667904 0.00094949555086794107 -0.0028738953420296299 0.00058668751809599776 0.0013036142058807931 0.0012681367719678189 -8.3175432369855331e-06 0.00066274526558615307 -4.5116135868130406e-05 -0.0004644484270570488 0.00028723496807803823 0.0012019325297950381 0.00081597088583483513
leaf_weight=117 20 35 35 29 28 24 39 38 31 21 21 120 30 26 21 55 21 39 34 63 20 22 20 57 26
leaf_count=117 20 35 35 29 28 24 39 38 31 21 21 120 30 26 21 55 21 39 34 63 20 22 20 57 26
internal_value=0.00223264 0.000352467 -0.00317873 -0.0109984 -0.000456744 -0.00423038 -0.00748988 0.00234779 0.000219036 -0.00147426 -0.00890736 0.000474383 0.00661393 0.00441421 0.00368899 0.00596269 0.00267728 0.0061848 0.0050747 0.00621487 0.00391095 -0.00150812 0.00694716 0.00862516 0.00869297
internal_weight=992 695 250 64 186 98 74 445 251 200 42 158 297 180 88 150 69 67 194 160 83 43 51 77 81
internal_count=992 695 250 64 186 98 74 445 251 200 42 158 297 180 88 150 69 67 194 160 83 43 51 77 81
is_linear=0
shrinkage=0.05


Tree=32
num_leaves=19
num_cat=0
split_feature=19 6 19 9 0 9 19 8 11 11 6 0 6 1 1 9 2 11
split_gain=3.38003 1.5208 2.04729 1.81079 1.72248 2.58007 1.4152 1.34334 0.949399 1.54485 2.04044 1.45646 0.761305 0.420994 0.159351 0.430295 0.0953967 0.00317632
threshold=21.634639053752135 1263.7645445046153 8657.798785377503 1.3469088581355881 63.500000000000007 1.0821491467908502 40494.325033318142 274.14001464843756 24.945630971969894 27.176406532251075 209.85355990674674 71.500000000000014 986.08053215261577 71.544367718317901 92.36865352975822 2.1850880488043409 11.500000000000002 26.395433365095528
decision_type=2 2 2 2 2 2 2 2 2 2 2 2 2 2 2 2 2 2
left_child=-1 2 8 4 -4 -6 12 -3 16 10 -10 -11 -5 -9 17 -16 -2 -15
right_child=1 7 3 6 5 -7 -8 13 9 11 -12 -13 -14 14 15 -17 -18 -19
leaf_value=0.00086930734133893188 0.00069544930753880508 -3.314066250687807e-05 -0.0036197323348923643 0.00033112410965535681 0.0019065385797152835 -0.007434892913491419 -0.0011623770345380077 0.0001448003216393649 -0.0025070075527040799 0.00074049262772715176 0.00046273912808773632 -9.6527664391512515e-05 -8.4664704927156931e-05 0.0010737461332500232 0.00032001775250705056 0.0021677546534803029 0.0002256151122530776 0.0012402084562470632
leaf_weight=120 33 35 21 64 24 21 35 36 44 214 42 100 45 20 28 29 20 61
leaf_count=120 33 35 21 64 24 21 35 36 44 214 42 100 45 20 28 29 20 61
internal_value=0.00208144 0.000991859 -0.000173428 -0.00425988 -0.0111195 -0.00543237 -0.00107564 0.00471066 0.00171044 0.000862284 -0.00505226 0.0024992 0.00169569 0.00651924 0.00778421 0.00551664 0.00800377 0.00930949
internal_weight=992 872 663 210 66 45 144 209 453 400 86 314 109 174 138 57 53 81
internal_count=992 872 663 210 66 45 144 209 453 400 86 314 109 174 138 57 53 81
is_linear=0
shrinkage=0.05


Tree=33
num_leaves=17
num_cat=0
split_feature=19 9 6 11 1 1 0 16 18 16 1 8 10 17 13 9
split_gain=3.42375 1.47964 1.10527 1.37975 2.08258 1.85006 1.50838 1.2339 1.03962 0.866966 0.866896 0.340543 0.110048 0.126196 0.076824 0.171325
threshold=21.634639053752135 1.9018666267464044 1307.4718404215128 26.051416147762435 68.471815443561013 100.02361345195546 64.500000000000014 1710.0000000000002 0.63774312670478006 3310.0000000000005 120.63012470470052 292.28465270996099 1.7345404379442753 1320.470824347806 0.48224136520158128 2.197519539795699
decision_type=2 2 2 2 2 2 2 2 2 2 2 2 2 2 2 2
left_child=-1 2 3 6 7 -6 -2 -5 12 10 14 -8 13 -4 15 -3
right_child=1 9 8 4 5 -7 11 -9 -10 -11 -12 -13 -14 -15 -16 -17
leaf_value=0.00082584197427198471 -0.00052286837120053267 0.00055903471979591496 0.0011514067895631215 0.00060396320372097228 -0.0011003524153524644 0.00048037144972256192 0.00021650125582836754 -0.00052243107640891702 -4.0696993603254603e-05 -0.00072231400472882611 -0.00023056691686325836 0.0020200904800683965 0.001315542745607656 0.00016232119176547223 0.0016687846155651062 0.0018598283033351712
leaf_weight=120 22 23 27 126 236 59 43 52 35 21 26 57 35 20 66 24
leaf_count=120 22 23 27 126 236 59 43 52 35 21 26 57 35 20 66 24
internal_value=0.00203105 0.000934526 -3.51074e-05 -0.000915812 -0.00214542 -0.00472721 0.00380835 0.00210556 0.00439795 0.00527795 0.00672178 0.00644356 0.00749086 0.00562633 0.00862069 0.0066879
internal_weight=992 872 712 595 473 295 122 178 117 160 139 100 82 47 113 47
internal_count=992 872 712 595 473 295 122 178 117 160 139 100 82 47 113 47
is_linear=0
shrinkage=0.05


Tree=34
num_leaves=25
num_cat=0
split_feature=16 19 13 9 0 12 7 1 7 11 7 9 7 1 13 11 6 11 18 7 7 13 1 15
split_gain=3.34786 1.53823 1.28329 1.95924 2.59377 1.6637 1.64803 1.47788 1.17537 1.06481 1.03886 2.08309 0.877326 0.990143 1.5369 0.740063 0.723868 0.663114 0.658883 0.445004 1.12385 0.308454 0.263268 0.242537
threshold=739.00000000000011 21.634639053752135 0.54864191794494521 1.6103418401316563 62.500000000000007 0.66830320599640125 -655.29049682617176 79.959291643405464 -715.12030029296864 29.929443808632616 -737.23916625976551 1.7100412279972093 -656.84777832031239 68.471815443561013 0.51847626204833641 26.754551588645317 726.06952705383299 27.369751895973888 0.037485153879842407 -682.92562866210926 -673.72088623046864 0.556853945068564 107.44111883869 14067.000000000002
decision_type=2 2 2 2 2 2 2 2 2 2 2 2 2 2 2 2 2 2 2 2 2 2 2 2
left_child=1 -1 5 4 -4 7 -6 9 -9 -2 -7 17 18 21 -15 -13 -16 -12 -3 22 -21 23 -20 -14
right_child=2 12 3 -5 6 10 -8 8 -10 -11 11 15 13 14 16 -17 -18 -19 19 20 -22 -23 -24 -25
leaf_value=0.000784549875558388 -0.0011598226693914266 -7.468239651927528e-06 -0.0023816122327956074 -0.0021071037609342608 0.00098722356345973565 0.0012083520724447275 -0.0010192967361815331 -6.6500207018411247e-05 -0.0030334489772695845 0.0013222948269340255 0.00018833234769340704 9.0812319331505355e-05 0.0014117969386633449 -0.0023052805005372282 0.0007920795246245555 -0.00065643949785872601 -0.00061734035645733638 0.00085085006151154868 0.00077552184615263043 -0.00014956298267179379 0.000956810051282153 0.00031606715246595279 0.00082823392284074159 0.00032705000437058458
leaf_weight=118 20 36 27 20 37 54 36 26 24 27 71 23 29 25 24 28 28 69 147 26 24 25 28 20
leaf_count=118 20 36 27 20 37 54 36 26 24 27 71 23 29 25 24 28 28 69 147 26 24 25 28 20
internal_value=0.00218224 0.0048953 -0.000919714 -0.00537052 -0.00244755 0.000628471 0.00239398 -0.00489186 -0.0108782 0.00138004 0.00283558 0.00107274 0.00343363 0.000363997 -0.0035668 -0.00753425 0.0012476 0.00424697 0.00518958 0.00619725 0.00189621 0.00452092 0.00739577 0.00682281
internal_weight=992 530 462 120 100 342 73 97 50 47 245 191 412 151 77 51 52 140 261 225 50 74 175 49
internal_count=992 530 462 120 100 342 73 97 50 47 245 191 412 151 77 51 52 140 261 225 50 74 175 49
is_linear=0
shrinkage=0.05


Tree=35
num_leaves=16
num_cat=0
split_feature=20 18 9 20 18 14 8 8 6 6 2 8 16 10 6
split_gain=2.44358 1.39989 1.92954 1.60635 1.72706 1.44437 1.06994 1.02696 0.852242 0.698271 0.377415 0.316628 0.231226 0.276091 0.00652923
threshold=-626.74389648437489 0.41032851577693225 1.1664056175011772 -27800.15716552734 0.097055910839310644 0.40638994451323113 298.53958129882818 351.52386474609381 105.91295011964588 120.59741333510654 8.5000000000000018 286.22706604003912 948.50000000000011 1.9294950530429051 2013.1729436721632
decision_type=2 2 2 2 2 2 2 2 2 2 2 2 2 2 2
left_child=1 3 10 4 9 -5 -6 8 -7 -1 -3 -4 14 -14 -13
right_child=-2 2 11 5 6 7 -8 -9 -10 -11 -12 12 13 -15 -16
leaf_value=-0.00033788920451422919 0.0007453223817804667 0.00020577157833593155 0.00046862778574368214 0.0012909174421895306 -0.00029555775799591831 0.00058130476810572089 -0.0016216214981212382 -0.0009115594443930195 1.1696414359030287e-05 0.00089462404546199095 -0.00094089582945717804 0.0019905911086338757 0.00087482910727033664 0.001137142179858434 0.00066972582080843785
leaf_weight=33 112 20 33 62 25 94 26 23 313 24 20 84 28 54 20
leaf_count=33 112 20 33 62 25 94 26 23 313 24 20 84 28 54 20
internal_value=0.00299145 0.00207776 0.00515245 0.000741543 -0.00476411 0.00196098 -0.0114481 0.000918391 0.00151069 0.00113835 -0.00486284 0.00700593 0.00781838 0.00566382 0.00946206
internal_weight=971 859 259 600 108 492 51 430 407 57 40 219 186 82 104
internal_count=971 859 259 600 108 492 51 430 407 57 40 219 186 82 104
is_linear=0
shrinkage=0.05


Tree=36
num_leaves=16
num_cat=0
split_feature=19 9 0 1 10 18 19 11 7 6 18 19 13 0 11
split_gain=2.4939 1.2915 1.06524 2.52314 2.60123 1.32357 1.5033 2.38835 0.969986 0.354306 0.317868 0.306493 0.2475 0.101705 0.0852741
threshold=21.634639053752135 2.1606481846591779 73.500000000000014 79.959291643405464 1.9998370002879737 0.47618268065483593 7603.1800945766045 30.238355505920161 -736.93237304687489 717.36131200125772 0.60622168672019205 1949.9111126418732 0.51776105667095618 64.500000000000014 29.659734460123108
decision_type=2 2 2 2 2 2 2 2 2 2 2 2 2 2 2
left_child=-1 2 5 9 -5 6 8 -8 -2 -4 12 -6 -7 -12 -3
right_child=1 14 3 4 11 10 7 -9 -10 -11 13 -13 -14 -15 -16
leaf_value=0.00070805626269144226 0.00078636616004869883 0.0015163965253288071 0.00010980045988956897 -0.0097745027841746289 -0.00090483687149515838 0.00072342375089855194 -1.7617000257076028e-05 -0.0021770072924925574 0.00024411949606498542 0.0014847734727867275 0.00082910278223782352 0.00042853826291368183 0.0024000874968845391 4.8550867317801333e-05 0.0011862291219615732
leaf_weight=114 46 42 29 20 20 37 168 29 275 23 21 23 65 20 39
leaf_count=114 46 42 29 20 20 37 168 29 275 23 21 23 65 20 39
internal_value=0.00299145 0.00205927 0.00142379 -0.00299739 -0.00974643 0.00220088 0.00101332 -0.00240994 0.00312987 0.00508637 0.00646401 -0.00266821 0.00798237 0.00255474 0.00807645
internal_weight=971 857 776 115 63 661 518 197 321 52 143 43 102 41 81
internal_count=971 857 776 115 63 661 518 197 321 52 143 43 102 41 81
is_linear=0
shrinkage=0.05


Tree=37
num_leaves=13
num_cat=0
split_feature=20 18 9 20 12 14 8 20 0 0 18 17
split_gain=2.48026 1.46611 1.11842 1.0952 1.69765 1.47786 1.01386 0.935577 0.870331 0.820962 0.302824 0.230395
threshold=-626.74389648437489 0.46155262555722332 1.1664056175011772 -27800.15716552734 0.66830320599640125 0.40638994451323113 351.52386474609381 -31118.838439941403 71.500000000000014 64.500000000000014 0.729247906092644 3074.5349983806695
decision_type=2 2 2 2 2 2 2 2 2 2 2 2
left_child=1 3 -3 4 -1 -5 8 9 -7 -6 11 -4
right_child=-2 2 10 5 7 6 -8 -9 -10 -11 -12 -13
leaf_value=-0.0015396595613896866 0.00067265344955687041 -0.00043614947032347872 0.0018954197481538559 0.0011797529517890545 -0.0011002598957691634 0.00041289125761748906 -0.00087818744697661577 -0.0004015765940157802 -0.00011017699287311491 0.00030002723361494024 0.00023610677933123036 0.00019004473373812259
leaf_weight=26 112 31 111 62 23 333 23 20 133 45 27 25
leaf_count=26 112 31 111 62 23 333 23 20 133 45 27 25
internal_value=0.00293997 0.00201956 0.0058475 0.000894602 -0.00354952 0.00182363 0.000889389 -0.000170261 0.00140528 0.00256975 0.00751073 0.00848641
internal_weight=971 859 194 665 114 551 489 88 466 68 163 136
internal_count=971 859 194 665 114 551 489 88 466 68 163 136
is_linear=0
shrinkage=0.05


Tree=38
num_leaves=16
num_cat=0
split_feature=19 18 15 12 13 15 9 8 0 10 8 10 2 18 16
split_gain=2.72256 1.34133 1.19147 1.53068 1.68052 1.01158 0.99412 0.825788 1.10217 2.4054 0.936891 0.556892 0.435822 0.236504 0.0978396
threshold=21.634639053752135 0.46155262555722332 95647.500000000015 0.66128988295393543 0.5504454723935257 123439.00000000001 1.1664056175011772 278.87208557128912 71.500000000000014 1.9056556391224519 271.92787170410162 1.8230963278400563 49.000000000000007 0.74072893774436477 948.50000000000011
decision_type=2 2 2 2 2 2 2 2 2 2 2 2 2 2 2
left_child=-1 2 7 -4 5 -5 -3 10 11 -10 -2 -9 13 14 -8
right_child=1 6 3 4 -6 -7 12 8 9 -11 -12 -13 -14 -15 -16
leaf_value=0.00063902077707902463 0.00045689755275454651 -0.00041434199680730655 -0.001934883538740322 -0.00018297265311895475 -0.0032363467149642677 0.00029176895276906756 0.0018187622577609933 0.00030616782495024699 0.00085090765963183291 -0.00051481131954173097 -0.0027829983718931583 0.00080182441851625618 4.0965848524881162e-05 0.0001906064491900278 0.0009707605363926538
leaf_weight=114 22 31 21 34 30 56 79 152 43 104 26 174 20 21 44
leaf_count=114 22 31 21 34 30 56 79 152 43 104 26 174 20 21 44
internal_value=0.00268253 0.00170925 0.000626794 -0.00343728 -0.00120733 0.00216426 0.00535623 0.00173671 0.00237793 -0.00118967 -0.00446985 0.00400184 0.00691651 0.00787647 0.00873274
internal_weight=971 857 662 141 120 90 195 521 473 147 48 326 164 144 123
internal_count=971 857 662 141 120 90 195 521 473 147 48 326 164 144 123
is_linear=0
shrinkage=0.05


Tree=39
num_leaves=19
num_cat=0
split_feature=19 20 12 13 9 6 1 14 13 1 17 7 10 6 9 0 6 12
split_gain=2.607 1.53824 2.82617 1.00615 0.986816 0.988762 1.05859 1.30342 0.717602 0.605738 0.561781 0.406963 0.618595 0.403083 0.0863311 0.0826613 0.035182 0.00371703
threshold=21.634639053752135 -27800.15716552734 0.66830320599640125 0.54523875557281054 1.8870992791198657 1119.2264020114492 57.252780766957052 0.6274956712273797 0.60437595308211145 106.8636975412805 3968.3199965718209 -665.39282226562489 2.1801532335190443 1623.794130946708 1.250076804914128 68.500000000000014 1674.2008870554694 0.70684659957053808
decision_type=2 2 2 2 2 2 2 2 2 2 2 2 2 2 2 2 2 2
left_child=-1 2 -2 10 5 6 14 -8 -5 17 -4 12 -7 -11 -3 -12 -13 -6
right_child=1 4 3 8 9 11 7 -9 -10 13 15 16 -14 -15 -16 -17 -18 -19
leaf_value=0.00060706973822507451 -0.0018662845843039442 0.00067369416368281759 -0.00019447608060465233 -0.00085069863490895852 0.0010949244489061741 -8.9026890249361708e-05 4.3152291171992682e-05 -0.003123178728533365 0.00028915249388970733 0.0010541757648503687 0.0017076274321541002 0.0015319373693942579 0.00044320055195118521 -3.8295592629809631e-05 0.0020726428763986862 0.00027718049787142125 0.00035037151126336534 0.0011795568368230878
leaf_weight=114 30 32 26 20 64 26 364 26 22 20 20 54 34 24 24 26 25 20
leaf_count=114 30 32 26 20 64 26 364 26 22 20 20 54 34 24 24 26 25 20
internal_value=0.00283699 0.00188426 -0.00281055 0.000744961 0.00283971 0.00195693 0.000795786 -0.000115355 -0.00534442 0.0068306 0.00436893 0.00564342 0.00241265 0.00192744 0.00721925 0.00770065 0.00802781 0.00933413
internal_weight=971 857 144 114 713 585 446 390 42 128 72 139 60 44 56 46 79 84
internal_count=971 857 144 114 713 585 446 390 42 128 72 139 60 44 56 46 79 84
is_linear=0
shrinkage=0.05


Tree=40
num_leaves=14
num_cat=0
split_feature=19 10 12 0 19 9 15 18 18 0 15 15 9
split_gain=3.374 1.48067 1.61458 2.11952 1.89651 0.966568 1.09044 0.937931 1.9115 1.05358 0.785156 0.46335 0.0891498
threshold=21.634639053752135 0.4011524282545369 0.6804035206394129 63.500000000000007 4715.4918141151229 2.1806721967308462 21287.500000000004 0.41032851577693225 0.38602510755214026 58.500000000000007 4174.5000000000009 7491.5000000000009 2.2256960976482656
decision_type=2 2 2 2 2 2 2 2 2 2 2 2 2
left_child=-1 2 -2 4 -4 6 10 8 -8 -9 -3 -12 -7
right_child=1 5 3 -5 -6 12 7 9 -10 -11 11 -13 -14
leaf_value=0.00057671625131381916 -0.0090740279605210014 -0.00010177139186560703 0.00038140469393934474 0.0012642493451213259 -0.0019203358699924199 0.0017305759880671475 1.9225396936384315e-05 -0.00047258983793906209 -0.0011441941613545071 0.00074420442831799191 0.00090221958669286714 0.00036750678853349065 0.001079293974634373
leaf_weight=136 23 35 21 35 23 35 265 21 42 107 45 187 36
leaf_count=136 23 35 21 35 23 35 265 21 42 107 45 187 36
internal_value=0.00262585 0.00147983 -0.00416259 -0.000695322 -0.00804989 0.00223128 0.00165931 0.000103425 -0.00138391 0.00370804 0.00417447 0.00523481 0.00780591
internal_weight=1011 875 102 79 44 773 702 435 307 128 267 232 71
internal_count=1011 875 102 79 44 773 702 435 307 128 267 232 71
is_linear=0
shrinkage=0.05


Tree=41
num_leaves=19
num_cat=0
split_feature=19 10 16 8 11 6 18 6 10 7 10 10 15 23 11 11 9 12
split_gain=3.1931 1.31197 1.03085 1.01709 1.40908 1.99069 0.777113 0.815006 0.713908 0.702997 0.621507 1.1824 0.644115 0.551662 0.438713 0.695039 0.351904 0.235641
threshold=21.634639053752135 0.31857163626740514 1031.0000000000002 298.39784240722662 30.341899720281134 341.5372919504743 0.41032851577693225 96.082581949214514 3.0507127338609652 -636.09033203124989 2.0341228526000865 1.8887911670522308 21710.500000000004 1.0000000180025095e-35 27.529432901413127 26.308543119079335 1.5980706056060121 0.68795959698240172
decision_type=2 2 2 2 2 2 2 2 2 2 2 2 2 2 2 2 2 2
left_child=-1 3 10 -2 -5 -6 7 8 -4 16 11 12 -3 -9 15 -12 -8 -16
right_child=1 2 6 4 5 -7 9 13 -10 -11 14 -13 -14 -15 17 -17 -18 -19
leaf_value=0.00054788043874812729 -0.0013486398601388195 0.00047983084918500827 0.0015492523017182677 0.001594856465734369 0.00040986929163417589 -0.0086183018549201556 0.0015743043912888222 -0.00059390190154255955 -3.9593274053712136e-05 -0.00058127282121176892 0.00064856324624154723 -0.00021532398403396698 -7.0284486230419487e-05 0.0017876836159957422 0.0010672107207554602 -4.5526967707835316e-05 0.00060339850251958269 0.00049416807310906602
leaf_weight=136 24 119 27 28 21 25 36 157 25 21 34 24 53 20 122 56 43 40
leaf_count=136 24 119 27 28 21 25 36 157 25 21 34 24 53 20 122 56 43 40
internal_value=0.00282366 0.00170838 0.00239995 -0.00372069 -0.00074224 -0.00618221 0.00025828 -0.0013313 0.00412668 0.00394605 0.00396117 0.0018103 0.00328298 -0.00296443 0.00561285 0.0027192 0.00613148 0.00718692
internal_weight=1011 875 777 98 74 46 329 229 52 100 448 196 172 177 252 90 79 162
internal_count=1011 875 777 98 74 46 329 229 52 100 448 196 172 177 252 90 79 162
is_linear=0
shrinkage=0.05


Tree=42
num_leaves=12
num_cat=0
split_feature=19 9 17 0 8 1 1 1 12 2 15
split_gain=3.23786 0.931835 0.936816 1.81608 1.20191 0.689731 0.796111 0.879641 0.18781 0.105179 0.0826613
threshold=21.634639053752135 2.1606481846591779 3639.567643812094 64.500000000000014 298.53958129882818 55.24764608568271 58.110636466497958 68.471815443561013 0.70684659957053808 23.500000000000004 23815.000000000004
decision_type=2 2 2 2 2 2 2 2 2 2 2
left_child=-1 2 5 -4 -5 10 -7 -8 9 -3 -2
right_child=1 8 3 4 -6 6 7 -9 -10 -11 -12
leaf_value=0.00052048641681072267 0.001748873352329676 0.001495866222678549 -0.0018568172797543124 0.00085134403968833343 -0.00049169012068900645 -0.0010735604940021756 0.00058627424175609379 4.9625312806657123e-05 0.00074191135316486957 0.00098897510429161398 0.0017892763198685512
leaf_weight=136 26 40 26 36 34 38 139 476 20 20 20
leaf_count=136 26 40 26 36 34 38 139 476 20 20 20
internal_value=0.00277421 0.00165124 0.00112564 -0.00348595 0.00064194 0.00176656 0.00133976 0.0017802 0.006804 0.00823627 0.00770065
internal_weight=1011 875 795 96 70 699 653 615 80 60 46
internal_count=1011 875 795 96 70 699 653 615 80 60 46
is_linear=0
shrinkage=0.05


end of trees

feature_importances:
hu_mean=84
Age=66
glcm_homogeneity=64
Base_Percent=58
hu_std=52
lung_vol_ml=50
hu_skew=50
glcm_energy=50
glcm_contrast=47
FVC_Week_Interaction=47
Age_Week_Interaction=44
hu_kurt=41
LungVol_FVC_Ratio=41
LungVol_Week_Interaction=38
glcm_correlation=30
Percent_Week_Interaction=27
HU_Week_Interaction=27
Relative_Weeks=15
Smk_Cur=3
Weeks_squared=1
Sex=1

parameters:
[boosting: gbdt]
[objective: quantile]
[metric: quantile]
[tree_learner: serial]
[device_type: cpu]
[data_sample_strategy: bagging]
[data: ]
[valid: ]
[num_iterations: 500]
[learning_rate: 0.05]
[num_leaves: 31]
[num_threads: 0]
[seed: 0]
[deterministic: 0]
[force_col_wise: 0]
[force_row_wise: 0]
[histogram_pool_size: -1]
[max_depth: 6]
[min_data_in_leaf: 20]
[min_sum_hessian_in_leaf: 0.001]
[bagging_fraction: 0.8]
[pos_bagging_fraction: 1]
[neg_bagging_fraction: 1]
[bagging_freq: 5]
[bagging_seed: 3]
[bagging_by_query: 0]
[feature_fraction: 0.9]
[feature_fraction_bynode: 1]
[feature_fraction_seed: 2]
[extra_trees: 0]
[extra_seed: 6]
[early_stopping_round: 0]
[early_stopping_min_delta: 0]
[first_metric_only: 0]
[max_delta_step: 0]
[lambda_l1: 0.1]
[lambda_l2: 0.1]
[linear_lambda: 0]
[min_gain_to_split: 0]
[drop_rate: 0.1]
[max_drop: 50]
[skip_drop: 0.5]
[xgboost_dart_mode: 0]
[uniform_drop: 0]
[drop_seed: 4]
[top_rate: 0.2]
[other_rate: 0.1]
[min_data_per_group: 100]
[max_cat_threshold: 32]
[cat_l2: 10]
[cat_smooth: 10]
[max_cat_to_onehot: 4]
[top_k: 20]
[monotone_constraints: ]
[monotone_constraints_method: basic]
[monotone_penalty: 0]
[feature_contri: ]
[forcedsplits_filename: ]
[refit_decay_rate: 0.9]
[cegb_tradeoff: 1]
[cegb_penalty_split: 0]
[cegb_penalty_feature_lazy: ]
[cegb_penalty_feature_coupled: ]
[path_smooth: 0]
[interaction_constraints: ]
[verbosity: -1]
[saved_feature_importance_type: 0]
[use_quantized_grad: 0]
[num_grad_quant_bins: 4]
[quant_train_renew_leaf: 0]
[stochastic_rounding: 1]
[linear_tree: 0]
[max_bin: 255]
[max_bin_by_feature: ]
[min_data_in_bin: 3]
[bin_construct_sample_cnt: 200000]
[data_random_seed: 1]
[is_enable_sparse: 1]
[enable_bundle: 1]
[use_missing: 1]
[zero_as_missing: 0]
[feature_pre_filter: 1]
[pre_partition: 0]
[two_round: 0]
[header: 0]
[label_column: ]
[weight_column: ]
[group_column: ]
[ignore_column: ]
[categorical_feature: ]
[forcedbins_filename: ]
[precise_float_parser: 0]
[parser_config_file: ]
[objective_seed: 5]
[num_class: 1]
[is_unbalance: 0]
[scale_pos_weight: 1]
[sigmoid: 1]
[boost_from_average: 1]
[reg_sqrt: 0]
[alpha: 0.2]
[fair_c: 1]
[poisson_max_delta_step: 0.7]
[tweedie_variance_power: 1.5]
[lambdarank_truncation_level: 30]
[lambdarank_norm: 1]
[label_gain: ]
[lambdarank_position_bias_regularization: 0]
[eval_at: ]
[multi_error_top_k: 1]
[auc_mu_weights: ]
[num_machines: 1]
[local_listen_port: 12400]
[time_out: 120]
[machine_list_filename: ]
[machines: ]
[gpu_platform_id: -1]
[gpu_device_id: -1]
[gpu_use_dp: 0]
[num_gpu: 1]

end of parameters

pandas_categorical:[]
