tree
version=v4
num_class=1
num_tree_per_iteration=1
label_index=0
max_feature_idx=23
objective=quantile
feature_names=Age Base_Percent Relative_Weeks Weeks_squared Weeks_cubed Week_Decay lung_vol_ml hu_mean hu_std hu_skew hu_kurt glcm_contrast glcm_homogeneity glcm_energy glcm_correlation FVC_Week_Interaction Age_Week_Interaction Percent_Week_Interaction LungVol_FVC_Ratio LungVol_Week_Interaction HU_Week_Interaction Sex Smk_Ex Smk_Cur
feature_infos=[49:88] [43.352279059400402:143.381982888777] [0:63] [0:3969] [0:250047] [0:0.7022611329001035] [0:5592.286722227258] [-1503.8018798828125:-471.44827270507812] [0:1133.221435546875] [-0.66847141651245146:2.5510769576620098] [-1.4331525728230787:7.128640392331091] [0:45.714773921808323] [0:0.79884451835753678] [0:0.7289271707447087] [0:0.68814825198550156] [0:287565] [0:5456] [0:8190.8963048203805] [0:1.6181385186947683] [0:206914.60872240853] [-89571.253173828125:0] [0:1] [0:1] [0:1]
tree_sizes=1756 1889 1882 1886 2043 1953 1962 1970 1971 1516 1712 1688 1868 1789 1695 1610 1541 1627 1625 1788 920 1527 1364 1447 924 1366 1185 1620 1886 1020 1450 1622 1511 1628 1533 1182 1179 1353 1352

Tree=0
num_leaves=20
num_cat=0
split_feature=19 15 18 9 13 18 1 6 11 8 13 6 11 15 7 11 0 11 19
split_gain=36.9658 11.1124 6.80651 5.42904 5.63534 3.4017 3.21978 2.8766 3.19581 4.39254 3.01663 2.58806 2.16108 1.29792 1.27256 1.03596 1.07437 0.159306 0.14798
threshold=1.0000000180025095e-35 41749.500000000007 0.47831166046886253 2.1570455934393657 0.51677621977064181 0.74072893774436477 54.63374684658006 70.739728813934406 25.365345945187883 291.25894165039068 0.48171016118168813 1086.0538782863623 30.986976608027366 128132.00000000001 -650.82492065429676 27.88523844303521 67.500000000000014 31.214956927108503 6463.7088835754412
decision_type=2 2 2 2 2 2 2 2 2 2 2 2 2 2 2 2 2 2 2
left_child=-1 2 7 4 15 14 -6 12 9 -9 -10 -8 -2 -5 18 16 -3 -17 -4
right_child=1 3 5 13 6 -7 11 8 10 -11 -12 -13 -14 -15 -16 17 -18 -19 -20
leaf_value=0.98827449977397919 0.98769700080156331 0.98541750013828278 0.99055002033710482 0.98906386494636533 0.9906811058521271 0.98692901432514191 0.98466663658618925 0.98589810431003566 0.98817123770713811 0.9895677894353867 0.9870125949382782 0.98796568512916561 0.99015101492404933 0.98753769397735591 0.98832539021968846 0.98454338163137434 0.98721088469028473 0.985338282585144 0.9897914916276932
leaf_weight=129 30 28 21 26 20 21 128 25 43 25 231 43 23 21 39 64 28 25 29
leaf_count=129 30 28 21 26 20 21 128 25 43 25 231 43 23 21 39 64 28 25 29
internal_value=0.987637 0.983928 0.98893 0.977556 0.975325 0.999874 0.981012 0.985748 0.98397 0.995542 0.981838 0.978774 0.996509 0.99339 1.00416 0.967878 0.973486 0.964425 1.00951
internal_weight=999 870 487 383 336 110 191 377 324 50 274 171 53 47 89 145 56 89 50
internal_count=999 870 487 383 336 110 191 377 324 50 274 171 53 47 89 145 56 89 50
is_linear=0
shrinkage=1


Tree=1
num_leaves=20
num_cat=0
split_feature=19 15 12 1 10 10 19 0 9 14 7 12 14 7 13 12 15 2 8
split_gain=36.0831 9.63565 5.48761 4.50692 3.22449 3.72244 3.50599 3.20592 2.96729 3.69671 2.55158 2.08986 1.98445 1.9355 1.34381 0.635905 0.446489 0.317119 0.287753
threshold=1.0000000180025095e-35 41749.500000000007 0.67844668888710857 54.63374684658006 2.8180301727826564 0.99694977190471101 6686.7603654738277 69.500000000000014 2.0381052551870504 0.57099775048491408 -718.61373901367176 0.66085809337553403 0.48018504619588981 -661.71432495117176 0.52583367584573137 0.68795959698240172 126353.00000000001 6.5000000000000009 332.37312316894537
decision_type=2 2 2 2 2 2 2 2 2 2 2 2 2 2 2 2 2 2 2
left_child=-1 3 10 17 5 7 11 -5 9 13 16 -6 -7 -4 18 -8 -3 -2 -12
right_child=1 2 8 4 6 12 15 -9 -10 -11 14 -13 -14 -15 -16 -17 -18 -19 -20
leaf_value=0.00058627501130104065 0.0021850851178169236 6.0640349984170119e-05 -0.0010135032236576081 -0.00068288609385490644 0.00067803591489791763 0.00022118836641311647 0.0013369411975145324 0.0019106285274028802 0.0011309620738029491 0.00094940394163131603 -0.0041311252489686012 -0.00020231612026691548 -0.00065607279539108281 -0.0043334643542766562 -0.0014034713804721823 0.0017137661576271058 -0.00051880836486816189 0.0016568389534950241 -0.0018782467395067198
leaf_weight=129 20 20 103 50 26 28 20 47 35 39 74 80 173 44 21 23 21 20 26
leaf_count=129 20 20 103 50 26 28 20 47 35 39 74 80 173 44 21 23 21 20 26
internal_value=0.000270243 -0.00338467 -0.00931872 0.00127284 -0.000156565 -0.00317008 0.00583501 0.00484037 -0.00416101 -0.00668995 -0.0163171 0.000895382 -0.00706116 -0.0103331 -0.0199835 0.0178654 -0.0053528 0.0173317 -0.0224276
internal_weight=999 870 383 487 447 298 149 97 221 186 162 106 201 147 121 43 41 40 100
internal_count=999 870 383 487 447 298 149 97 221 186 162 106 201 147 121 43 41 40 100
is_linear=0
shrinkage=0.05


Tree=2
num_leaves=20
num_cat=0
split_feature=19 15 18 12 23 1 10 7 6 6 11 8 11 13 13 14 13 11 15
split_gain=35.3559 9.42453 6.48189 5.03612 3.45952 2.91718 3.01395 2.85141 2.83219 2.62967 2.86536 4.39254 2.16108 1.89653 1.24778 0.487137 0.371824 0.281391 0.266602
threshold=1.0000000180025095e-35 42426.000000000007 0.48768401147425461 0.67844668888710857 1.0000000180025095e-35 60.097170571180861 4.0857087000241705 -718.61373901367176 2013.1729436721632 70.739728813934406 25.365345945187883 291.25894165039068 30.986976608027366 0.48171016118168813 0.52583367584573137 0.52606514148862871 0.48412673247772053 26.491538816553994 126353.00000000001
decision_type=2 2 2 2 2 2 2 2 2 2 2 2 2 2 2 2 2 2 2
left_child=-1 2 9 7 5 -5 -7 18 15 12 11 -11 -2 -12 16 -4 -9 -17 -3
right_child=1 3 8 4 -6 6 -8 14 -10 10 13 -13 -14 -15 -16 17 -18 -19 -20
leaf_value=0.0005569612607359886 7.0454627275462475e-05 5.7608332484959671e-05 0.0041069215498864666 0.001397931065410374 0.0012034443393349637 -0.0020498716644942769 0.00019144238531589865 -0.0018331659417599401 1.4378502964970674e-05 -0.0016371563747525188 0.0003958149552345247 0.0017657052800059303 0.0023790802098810683 -0.00052704810723662454 -0.001333297811448575 0.0013833907283842539 -0.0038875076137483092 0.0012890646010637276 -0.00049286794662475322
leaf_weight=129 30 20 25 26 21 132 38 21 36 25 44 25 23 242 21 20 79 21 21
leaf_count=129 30 20 25 26 21 132 38 21 36 25 44 25 23 242 21 20 79 21 21
internal_value=0.000520468 -0.00309735 0.0014661 -0.00902137 -0.00400737 -0.00609383 -0.008495 -0.0157002 0.0126836 -0.00146492 -0.00310919 0.00788423 0.00885122 -0.00505068 -0.0195706 0.0188351 -0.0219281 0.0150852 -0.00413625
internal_weight=999 870 491 379 217 196 170 162 102 389 336 50 53 286 121 66 100 41 41
internal_count=999 870 491 379 217 196 170 162 102 389 336 50 53 286 121 66 100 41 41
is_linear=0
shrinkage=0.05


Tree=3
num_leaves=20
num_cat=0
split_feature=19 18 6 16 7 9 13 19 18 18 12 21 15 7 12 6 18 13 7
split_gain=34.4929 9.18519 8.93713 6.20959 3.44616 4.37694 3.75188 3.34153 2.99187 3.08457 2.52786 2.3673 1.47541 1.35986 1.2419 0.874151 1.2629 0.840736 0.304799
threshold=1.0000000180025095e-35 0.48768401147425461 2013.1729436721632 1918.5000000000002 -656.50134277343739 1.2550611221436794 0.52777322476611699 28700.284273385885 0.041201906130848641 0.32401603747180635 0.69616956569562893 1.0000000180025095e-35 13571.000000000002 -724.10372924804676 0.69078580258273947 588.56406756920899 0.040545633350110195 0.52777322476611699 -650.31149291992176
decision_type=2 2 2 2 2 2 2 2 2 2 2 2 2 2 2 2 2 2 2
left_child=-1 3 11 4 8 6 -6 -4 14 -10 13 -3 -7 -5 -2 16 -12 -15 -13
right_child=1 2 7 10 5 12 -8 -9 9 -11 15 18 -14 17 -16 -17 -18 -19 -20
leaf_value=0.00052911319769918808 0.00062274694796651266 0.00060706999823451069 0.00015947365947067971 -0.0005508932794444255 -0.002750567116029562 -0.00020247056726366842 0.00053449989426881115 -0.0020691090029664296 -0.00057109236363321885 0.00028893923303112689 8.0162965878843861e-05 0.0034663795514963515 -0.0016402883794158719 -0.0041846767498180228 0.0013111245557665798 0.000429409994743768 -0.0039133636588230712 -0.0015477704895660305 0.0013858205554075549
leaf_weight=129 41 23 34 32 37 24 70 31 140 116 20 42 55 77 29 23 21 21 34
leaf_count=129 41 23 34 32 37 24 70 31 140 116 20 42 55 77 29 23 21 21 34
internal_value=0.000820739 -0.00275256 0.00789153 -0.00523297 -0.00233353 -0.00776464 -0.00112045 -0.00645161 0.000751303 -0.0017376 -0.0128542 0.0173562 -0.0166877 -0.0168716 0.00991441 -0.00460218 -0.00900243 -0.0198267 0.0216163
internal_weight=999 870 164 706 512 186 107 65 326 256 194 99 79 130 70 64 41 98 76
internal_count=999 870 164 706 512 186 107 65 326 256 194 99 79 130 70 64 41 98 76
is_linear=0
shrinkage=0.05


Tree=4
num_leaves=22
num_cat=0
split_feature=19 18 6 16 6 14 19 12 14 10 12 12 8 1 8 1 1 12 15 8 17
split_gain=34.4929 8.84851 5.57434 5.52736 3.49348 3.14309 3.31405 3.07189 2.81414 2.30395 3.06719 2.24353 2.19036 1.33336 1.06702 0.874083 0.951978 0.569528 0.167342 0.0597078 0.0486688
threshold=1.0000000180025095e-35 0.45523950968617699 2013.1729436721632 1918.5000000000002 70.739728813934406 0.51206600407610092 31420.561255391291 0.67939499619637111 0.5115515827170577 3.6275536959144161 0.67442232168188543 0.69616956569562893 314.91461181640631 90.514957280440214 301.99308776855474 79.475313433188717 85.120515702106616 0.6973161820741044 34209.000000000007 324.20565795898443 476.44078992950585
decision_type=2 2 2 2 2 2 2 2 2 2 2 2 2 2 2 2 2 2 2 2 2
left_child=-1 3 7 4 12 6 -4 8 -3 10 -6 15 -2 -11 -13 19 -17 18 -9 -5 -14
right_child=1 2 5 11 9 -7 -8 17 -10 13 -12 14 20 -15 -16 16 -18 -19 -20 -21 -22
leaf_value=0.00050265753781422728 -0.000583849210371265 0.0027858533854084101 0.00097894156826660032 -0.0040375284716766329 -0.0013939218301139812 -0.0030652127383067277 -0.00064750900869723358 0.0034022310270508727 -0.0012415542014478727 -0.00018977271873038272 -0.00031172837353312115 0.0004079394950065818 0.0012438405283866473 0.00073582646586931868 -0.0018050538535695467 -0.0012650001563737135 -0.0023696335947513527 0.001045062308437189 0.0015781722650583835 -0.0040098884365428189 0.00088906998542137019
leaf_weight=129 22 21 24 44 104 20 21 29 36 44 225 25 20 44 38 21 38 33 20 20 21
leaf_count=129 22 21 24 44 104 20 21 29 36 44 225 25 20 44 38 21 38 33 20 20 21
internal_value=0.000820739 -0.00275256 0.00634493 -0.00554722 -0.00269735 -0.00568356 0.00155211 0.0120058 0.00297723 -0.00436346 -0.00628988 -0.0128694 0.00824089 0.00278093 -0.00507132 -0.0168156 -0.0121827 0.0182095 0.0217923 -0.0209828 0.0150852
internal_weight=999 870 204 666 480 65 45 139 57 417 329 186 63 88 63 123 59 82 49 64 41
internal_count=999 870 204 666 480 65 45 139 57 417 329 186 63 88 63 123 59 82 49 64 41
is_linear=0
shrinkage=0.05


Tree=5
num_leaves=21
num_cat=0
split_feature=15 18 7 9 13 18 11 1 9 10 0 9 2 0 15 19 7 1 9 17
split_gain=33.144 6.58712 4.84632 4.65465 5.47246 3.977 3.74452 3.6686 3.91441 3.94668 3.04243 2.44357 2.31776 2.25582 2.23833 1.54479 1.30419 0.488005 0.333221 0.190972
threshold=2070.5000000000005 0.43070530043995131 -661.71432495117176 1.2534591801393298 0.52777322476611699 0.041201906130848641 25.995745227881333 66.877608114048272 2.0381052551870504 0.93691303508593149 69.500000000000014 2.1570455934393657 37.500000000000007 64.500000000000014 13571.000000000002 21702.851625822052 -670.90139770507801 62.436932106446456 1.387573048269845 1015.2806786901982
decision_type=2 2 2 2 2 2 2 2 2 2 2 2 2 2 2 2 2 2 2 2
left_child=-1 2 5 4 17 12 -7 15 9 -9 -6 -8 13 -2 -5 18 -11 -4 -3 -16
right_child=1 7 3 14 10 6 11 8 -10 16 -12 -13 -14 -15 19 -17 -18 -19 -20 -21
leaf_value=0.00047752466092351731 -0.00034011828321567908 0.0017164597050127351 -0.0017390372091806523 -0.00034325628985698022 -0.00076919521648972651 0.0018439920402730349 -0.0012017501485550254 0.0025222996664813289 0.0010185241118280675 -0.00049492152051918423 0.0011773851692560124 0.00029059043509675753 -0.00046534267291659662 0.0013015249597972734 -0.0014518124609822437 0.00035406675282144141 -0.0018446991669454711 -0.0061665023388136125 0.0047835869176520501 -0.0039950267204041543
leaf_weight=122 21 20 22 22 57 26 247 24 33 52 40 40 25 59 33 21 44 23 23 51
leaf_count=122 21 20 22 22 57 26 247 24 33 52 40 40 25 59 33 21 44 23 23 51
internal_value=0.000517361 -0.00285358 -0.00532202 -0.0108626 -0.00489092 -0.00202105 -0.00485468 0.0046983 0.000457218 -0.00370525 0.00175077 -0.00651341 0.00637488 0.0105493 -0.018803 0.0147426 -0.00827263 -0.0192905 0.0201856 -0.0225327
internal_weight=1005 883 666 248 142 418 313 217 153 120 97 287 105 80 106 64 96 45 43 84
internal_count=1005 883 666 248 142 418 313 217 153 120 97 287 105 80 106 64 96 45 43 84
is_linear=0
shrinkage=0.05


Tree=6
num_leaves=21
num_cat=0
split_feature=15 20 18 11 23 18 18 8 19 14 0 1 1 19 14 11 7 8 14 12
split_gain=32.3399 6.01664 4.41646 3.72854 4.53851 4.17148 3.33994 3.31342 3.21619 2.92919 2.60542 2.11303 2.78038 2.02588 1.8565 1.79417 1.45736 0.857809 0.632588 0.427958
threshold=2070.5000000000005 -10127.306671142576 0.43070530043995131 27.832617060932861 1.0000000180025095e-35 0.34050895702778328 0.031725673455512096 278.15986633300787 3095.4945033416752 0.48018504619588981 56.500000000000007 66.577864141166415 88.598696923925417 38432.306328458792 0.40675338704814817 37.337796376604736 -653.92071533203114 279.72860717773443 0.54135714074368291 0.67747463053921353
decision_type=2 2 2 2 2 2 2 2 2 2 2 2 2 2 2 2 2 2 2 2
left_child=-1 3 6 5 8 9 16 -4 19 -2 -8 -9 -13 -7 -12 -10 -3 -15 -11 -5
right_child=1 2 7 4 -6 13 10 11 15 18 14 12 -14 17 -16 -17 -18 -19 -20 -21
leaf_value=0.00045364842787734008 0.00022537834646765842 0.0015282920230215271 -0.0013106984370882951 -0.00030537723218208856 0.00092276021653631699 0.0015256133428088237 0.0003948195705693991 0.0045444075717694489 -0.0029274848517836824 -0.0031100728283765646 0.00056639328806000477 1.0639628069405994e-05 0.0013915176884866211 -0.0011629104246482335 -0.00054085568707711311 -0.00054313753195413543 9.8810123493331399e-07 0.0011048155970050655 -0.0024570746870640316 0.00019090289925652315
leaf_weight=122 29 28 22 22 21 33 26 37 134 20 26 48 29 25 259 21 25 29 28 21
leaf_count=122 29 28 22 22 21 33 26 37 134 20 26 48 29 25 259 21 25 29 28 21
internal_value=0.000815839 -0.00251387 0.00108978 -0.00723049 -0.0115016 -0.00149299 -0.00177149 0.00878031 -0.0138566 -0.00998703 -0.00376085 0.0122261 0.007393 0.00597015 -0.00515609 -0.0172147 0.00979284 0 -0.0175676 -0.00162413
internal_weight=1005 883 500 383 219 164 364 136 198 77 311 114 77 87 285 155 53 54 48 43
internal_count=1005 883 500 383 219 164 364 136 198 77 311 114 77 87 285 155 53 54 48 43
is_linear=0
shrinkage=0.05


Tree=7
num_leaves=21
num_cat=0
split_feature=19 20 18 12 8 12 14 10 18 12 13 1 1 9 8 7 11 1 1 6
split_gain=31.4512 6.95482 5.13136 4.44343 3.49042 3.23255 3.21875 3.35698 3.19934 2.44434 2.06045 1.85942 2.06299 1.79793 1.6495 1.40749 1.25394 1.24663 1.15195 0.0690982
threshold=1.0000000180025095e-35 -9104.3609008789044 0.43070530043995131 0.67939499619637111 278.15986633300787 0.64858954523658074 0.5766179879945319 1.9726228240750159 0.043664607213785282 0.70734380970761168 0.51773760893020071 66.577864141166415 88.954840017333467 1.9018666267464044 330.06207275390631 -690.76928710937489 27.269567740688579 67.182657736922266 91.33580968493176 43.454943756718627
decision_type=2 2 2 2 2 2 2 2 2 2 2 2 2 2 2 2 2 2 2 2
left_child=19 3 5 13 -4 -3 7 18 10 -9 -7 -6 -13 14 16 -10 -2 -8 -5 -1
right_child=1 2 4 6 11 8 17 9 15 -11 -12 12 -14 -15 -16 -17 -18 -19 -20 -21
leaf_value=0.00043096600648347421 -0.0022038391133006375 0.0017557887896545888 -0.00085778014363765422 -0.0025674900315831224 0.0043827491114573347 -0.0013892334705112197 0.0015565501931285475 -0.00064542889991544563 -0.00013776630837295523 0.0010880459201220549 0.00058005722711947929 0.00013511647878737266 0.0013219418040622878 -0.00041568212784058313 -0.00037323296696047949 -0.0010452223905263792 -0.0030876997362465188 0.00015438012910608256 -8.1042409834905516e-05 0.00043096600648347421
leaf_weight=20 21 21 21 64 36 20 25 87 81 24 83 45 25 34 39 134 77 20 20 108
leaf_count=20 21 21 21 64 36 20 25 87 81 24 83 45 25 34 39 134 77 20 20 108
internal_value=0.00101482 -0.00236005 0.00181292 -0.00710289 0.0103855 -0.00138602 -0.00268638 -0.00548437 -0.0026564 0.000180018 0.00455868 0.0140905 0.00920114 -0.0132671 -0.0158279 -0.00613668 -0.019317 0.00931264 -0.0130202 0.0241608
internal_weight=1005 877 466 411 127 339 240 195 318 111 103 106 70 171 137 215 98 45 84 128
internal_count=1005 877 466 411 127 339 240 195 318 111 103 106 70 171 137 215 98 45 84 128
is_linear=0
shrinkage=0.05


Tree=8
num_leaves=21
num_cat=0
split_feature=15 20 18 12 12 13 13 8 8 7 0 11 9 8 22 16 12 7 14 11
split_gain=32.0741 5.33062 4.52397 4.52119 3.20171 2.68024 2.60248 2.529 2.39502 2.34294 3.45279 3.10533 2.11969 1.86486 1.75001 1.59306 1.21882 1.1964 1.13473 0.562962
threshold=2070.5000000000005 -9104.3609008789044 0.43070530043995131 0.64858954523658074 0.67939499619637111 0.5504454723935257 0.46488266285765528 279.72860717773443 278.15986633300787 -656.50134277343739 68.500000000000014 25.525894197383536 1.5158491200303394 330.06207275390631 1.0000000180025095e-35 226.00000000000003 0.65892230300203292 -718.61373901367176 0.50312098040189202 28.521221108383909
decision_type=2 2 2 2 2 2 2 2 2 2 2 2 2 2 2 2 2 2 2 2
left_child=-1 4 3 -3 6 7 -2 -6 -4 11 -11 -5 -9 17 -7 -10 -15 -8 -17 -16
right_child=1 2 8 9 5 14 13 12 15 10 -12 -13 -14 16 19 18 -18 -19 -20 -21
leaf_value=0.00040941770615929854 0.00025639184442806661 0.0017125601383810086 -0.00081489113645576985 0.0017436169299085648 -0.001385702807234099 0.00040748604321808046 -0.00050364768344990374 0.0019126306292174934 0.00024104219855691225 -0.0012796841431063439 0.00010310032185182339 -0.00016553044418387842 0.00011205558124798843 0.00011424769415027126 -0.00082431647611719847 0.0013898171016200557 -0.0025930426392363343 -0.0032120666747233379 0.0011743195527469581 -0.0045199611753219794
leaf_weight=122 27 25 21 25 38 23 27 32 23 80 55 156 94 21 27 33 22 82 46 26
leaf_count=122 27 25 21 25 38 23 27 32 23 80 55 156 94 21 27 33 22 82 46 26
internal_value=0.000915332 -0.00240063 0.00128205 -0.00167106 -0.0064901 -0.00268638 -0.0115578 0.000883608 0.00950447 -0.00330592 -0.00829016 0.000386527 0.00432197 -0.0141026 -0.0104468 0.0126836 -0.00510441 -0.0175985 0.0160556 -0.0154426
internal_weight=1005 883 464 341 419 240 179 164 123 316 135 181 126 152 76 102 43 109 79 53
internal_count=1005 883 464 341 419 240 179 164 123 316 135 181 126 152 76 102 43 109 79 53
is_linear=0
shrinkage=0.05


Tree=9
num_leaves=16
num_cat=0
split_feature=15 18 6 9 19 0 0 8 20 6 9 8 1 1 2
split_gain=32.2069 5.43715 4.87265 4.29762 5.25079 3.35221 2.84232 3.36264 2.81345 2.62538 2.34855 2.19372 2.84237 0.842071 0.423808
threshold=2070.5000000000005 0.47831166046886253 2013.1729436721632 2.1570455934393657 880.18730029296864 74.500000000000014 72.500000000000014 308.91897583007818 -19850.060302734371 672.01411433410681 1.619657714061159 302.66862487792974 66.877608114048272 93.047092764913813 25.500000000000004
decision_type=2 2 2 2 2 2 2 2 2 2 2 2 2 2 2
left_child=-1 3 11 4 6 8 7 -2 -6 -7 -4 14 -13 -5 -3
right_child=1 2 10 13 5 9 -8 -9 -10 -11 -12 12 -14 -15 -16
leaf_value=0.00038894682085133248 -0.0008803826951925553 0.0026324086450423725 -0.0019227136037644839 0.00012742772139011927 -0.0024640773581007 -0.0015439615495371985 -0.00099819752976940124 0.0009957876925798415 -0.00044172581256079482 0.0022407807862663749 0.00042559082033946649 0.0029675798000678684 -0.00036624113952638541 0.0013897213505515928 0.0010810604647208733
leaf_weight=122 38 37 26 36 158 30 24 69 295 26 34 22 29 39 20
leaf_count=122 38 37 26 36 158 30 24 69 295 26 34 22 29 39 20
internal_value=0.000865586 -0.00245725 0.00562165 -0.00436303 -0.00569442 -0.0079945 0.00320366 0.00672269 -0.00942397 0.00347594 -0.00574043 0.0119796 0.00430528 0.0069241 0.0187391
internal_weight=1005 883 168 715 640 509 131 107 453 56 60 108 51 75 57
internal_count=1005 883 168 715 640 509 131 107 453 56 60 108 51 75 57
is_linear=0
shrinkage=0.05


Tree=10
num_leaves=18
num_cat=0
split_feature=19 9 15 12 8 13 10 18 11 1 7 8 8 13 1 22 7
split_gain=30.7801 6.92735 5.86801 4.52613 2.81276 2.5012 2.16271 2.01896 2.45194 1.75479 1.73968 1.38061 1.25205 1.24608 0.896206 0.482793 0.0699183
threshold=1.0000000180025095e-35 2.1570455934393657 27823.500000000004 0.67939499619637111 279.72860717773443 0.61805952341537318 1.0903978069664817 0.43070530043995131 30.45574448854131 66.877608114048272 -656.50134277343739 287.90353393554693 275.49391174316412 0.52583367584573137 93.047092764913813 1.0000000180025095e-35 -784.15298461914051
decision_type=2 2 2 2 2 2 2 2 2 2 2 2 2 2 2 2 2
left_child=16 2 4 10 12 6 -5 8 -6 -9 11 -4 -2 -12 -3 -16 -1
right_child=1 14 3 5 7 -7 -8 9 -10 -11 13 -13 -14 -15 15 -17 -18
leaf_value=0.00081205255814383872 -0.00013250737969098815 0.00031429737345411161 0.00024582582062287751 0.00071967901874513964 -0.00017681963292300875 -0.0039730386807548951 -0.00069003674965828488 0.0028429501902510592 0.00094599830795085165 0.00052964827190444825 -0.0033831336500425553 -0.0019737083159434678 -0.0018937194344866627 -0.0010927820908223252 0.00092333578342938545 0.0016113351117558905 0.00036949947980876587
leaf_weight=20 28 38 20 69 146 20 143 33 67 55 44 93 26 24 28 25 111
leaf_count=20 28 38 20 69 146 20 143 33 67 55 44 93 26 24 28 25 111
internal_value=0.00161095 -0.00182749 -0.00337847 -0.00743161 0.00132357 -0.00277897 -0.00115512 0.00322152 0.000563116 0.00959137 -0.0133628 -0.00946065 -0.00914972 -0.0197504 0.0111965 0.0154426 0.02418
internal_weight=990 859 768 413 355 232 212 301 213 88 181 113 54 68 91 53 131
internal_count=990 859 768 413 355 232 212 301 213 88 181 113 54 68 91 53 131
is_linear=0
shrinkage=0.05


Tree=11
num_leaves=18
num_cat=0
split_feature=19 9 20 13 7 11 14 0 13 12 7 7 0 0 8 0 7
split_gain=29.8249 6.49983 5.90182 4.03223 4.91992 3.48814 3.25041 2.51285 2.15208 1.90193 1.50694 2.19411 1.08863 0.864956 0.789962 0.118491 0.0699183
threshold=1.0000000180025095e-35 2.1570455934393657 -19850.060302734371 0.52583367584573137 -650.82492065429676 25.365345945187883 0.63938655625367191 70.500000000000014 0.54464931961575735 0.67939499619637111 -665.24911499023426 -692.68814086914051 63.500000000000007 69.500000000000014 304.51434326171881 68.500000000000014 -784.15298461914051
decision_type=2 2 2 2 2 2 2 2 2 2 2 2 2 2 2 2 2
left_child=16 2 5 4 7 -2 8 -4 -5 -6 11 -7 -3 -12 15 -14 -1
right_child=1 12 3 6 9 10 -8 -9 -10 -11 13 -13 14 -15 -16 -17 -18
leaf_value=0.0007714499302366451 0.00053794936246583103 0.00016013309134366716 0.0001616008298161692 0.0010000941977581779 -0.0024831645210262989 -0.0025742281298553327 0.0015815777181274028 -0.0013288222095189678 -6.2540343952277596e-05 -0.00022905052939232174 -0.00520511914858276 1.7190686993745487e-05 0.0010288939134510983 -0.0030119644705308927 0.00029789096272471731 0.0020571846245826032 0.00035102450581832594
leaf_weight=20 36 21 176 75 52 71 23 50 143 38 47 37 24 20 21 25 111
leaf_count=20 36 21 176 75 52 71 23 50 143 38 47 37 24 20 21 25 111
internal_value=0.00196445 -0.00142009 -0.0029228 -0.000215401 -0.00393863 -0.0100426 0.00464538 0 0.00272811 -0.013818 -0.012964 -0.00920444 0.0111965 -0.018927 0.014194 0.0177189 0.02418
internal_weight=990 859 768 557 316 211 241 226 218 90 175 108 91 67 70 49 131
internal_count=990 859 768 557 316 211 241 226 218 90 175 108 91 67 70 49 131
is_linear=0
shrinkage=0.05


Tree=12
num_leaves=20
num_cat=0
split_feature=19 9 20 12 14 0 13 10 1 12 8 0 8 6 8 0 8 0 6
split_gain=29.6897 6.43986 5.40141 3.34742 2.75693 3.5097 2.51963 3.64269 3.1957 2.16759 2.08552 2.06077 1.70477 1.50743 1.15756 1.08863 0.789962 0.118491 0.0699183
threshold=1.0000000180025095e-35 2.1570455934393657 -9903.8870239257794 0.67747463053921353 0.5766179879945319 64.500000000000014 0.52583367584573137 1.9726228240750159 65.929329087056814 0.6804035206394129 330.06207275390631 74.500000000000014 311.66912841796881 866.42241918098796 291.46818542480474 63.500000000000007 304.51434326171881 68.500000000000014 31.097576575373463
decision_type=2 2 2 2 2 2 2 2 2 2 2 2 2 2 2 2 2 2 2
left_child=18 2 3 10 5 -5 7 9 13 -4 14 -10 -9 -8 -2 -3 17 -17 -1
right_child=1 15 6 4 -6 -7 8 12 11 -11 -12 -13 -14 -15 -16 16 -18 -19 -20
leaf_value=0.00073287743372481566 -0.0019472805752206918 0.00015212643677648408 -0.0011090706976445042 -0.0018450540603030835 0.0006249298815515004 -7.243868647520135e-05 0.00065366741919985487 -9.7157008242027007e-05 -0.00037128447894767551 -5.2467667026878662e-05 -0.00099821414608788363 0.0014765637877381832 0.00070803778555486585 0.0038367545890467926 -0.0029369598377407382 0.00097744921777854501 0.00028299641458848224 0.0019543253933534733 0.00033347328052740766
leaf_weight=20 24 21 63 52 37 115 37 75 99 46 35 23 65 28 69 24 21 25 111
leaf_count=20 24 21 63 52 37 115 37 75 99 46 35 23 65 28 69 24 21 25 111
internal_value=0.00201495 -0.00136189 -0.0028577 -0.00766335 -0.00365017 -0.00640335 0.000791103 -0.00248896 0.00518439 -0.00934922 -0.0140125 0.00036855 0.00281941 0.0141321 -0.0179377 0.0111965 0.014194 0.0177189 0.02418
internal_weight=990 859 768 332 204 167 436 249 187 109 128 122 140 65 93 91 70 49 131
internal_count=990 859 768 332 204 167 436 249 187 109 128 122 140 65 93 91 70 49 131
is_linear=0
shrinkage=0.05


Tree=13
num_leaves=19
num_cat=0
split_feature=19 9 20 13 7 18 11 6 1 12 7 7 7 0 8 0 12 6
split_gain=29.6897 5.88997 5.46338 4.07839 4.28508 4.01294 2.8918 2.716 2.66876 2.47696 2.33083 2.02523 1.13064 0.972019 0.655066 0.17135 0.0884566 0.0699183
threshold=1.0000000180025095e-35 2.1570455934393657 -23007.956268310543 0.52583367584573137 -650.82492065429676 0.34050895702778328 25.843618193429162 108.35178076744081 67.558816661110157 0.67939499619637111 -676.67745971679676 -665.24911499023426 -692.68814086914051 63.500000000000007 304.51434326171881 66.500000000000014 0.69078580258273947 31.097576575373463
decision_type=2 2 2 2 2 2 2 2 2 2 2 2 2 2 2 2 2 2
left_child=17 2 6 4 10 7 -2 -5 -7 -6 -4 12 -8 -3 16 -13 -15 -1
right_child=1 13 3 5 9 8 11 -9 -10 -11 -12 15 -14 14 -16 -17 -18 -19
leaf_value=0.0006962335620385729 0.00023778563074388639 0.00014452011493765738 -0.00022879178090006726 0.00032988219626453597 -0.0024144480167214489 0.0036641927702508572 -0.0025321575875549701 -0.00094376089605598958 0.00066615916652561506 -0.00014333931088582054 0.00027113768168155475 -0.00427216334191467 -0.00060301446371489875 0.0012591003100641679 0.00026884659385905676 -0.0029476432351232765 0.0015340326721094478 0.00031679961650104009
leaf_weight=20 37 21 157 79 57 34 60 69 72 42 79 30 32 22 21 20 27 111
leaf_count=20 37 21 157 79 57 34 60 69 72 42 79 30 32 22 21 20 27 111
internal_value=0.00201495 -0.00136189 -0.00279261 -0.000458326 -0.00408833 0.00430933 -0.0104411 -0.000979068 0.0117342 -0.0128153 -0.000402372 -0.0136875 -0.00917481 0.0106476 0.0134807 -0.0218563 0.0167006 0.02418
internal_weight=990 859 768 589 335 254 179 148 106 99 236 142 92 91 70 50 49 131
internal_count=990 859 768 589 335 254 179 148 106 99 236 142 92 91 70 50 49 131
is_linear=0
shrinkage=0.05


Tree=14
num_leaves=18
num_cat=0
split_feature=19 9 20 13 11 1 0 11 6 13 8 7 0 17 18 16 6
split_gain=28.619 5.4696 4.83648 3.19462 3.03229 2.90357 2.91238 2.88917 3.67104 2.22949 1.79684 1.78208 1.56242 1.34777 1.86577 0.252844 0.0699183
threshold=1.0000000180025095e-35 2.0381052551870504 -19850.060302734371 0.52949346666000219 25.365345945187883 65.929329087056814 75.500000000000014 30.732911648572415 417.81385003705196 0.56803167274080069 304.51434326171881 -676.67745971679676 64.500000000000014 4361.6904315187285 0.040545633350110195 1178.5000000000002 31.097576575373463
decision_type=2 2 2 2 2 2 2 2 2 2 2 2 2 2 2 2 2
left_child=16 2 4 7 -2 9 -7 8 -4 -5 12 -9 -3 14 -6 -14 -1
right_child=1 10 3 5 13 6 -8 11 -10 -11 -12 -13 15 -15 -16 -17 -18
leaf_value=0.00066142188393664711 0.00046791611872777086 0.000137294109190772 -0.0015724710226288797 0.0033768869096875379 -0.00019198396669299901 -0.00033022073814708013 0.0013694276400250005 -0.00063879269654214537 -8.7530420457010433e-05 0.00022415783269937319 -0.00038811104903505034 0.00044276986267844932 0.0011781041554185939 -0.0008874772232603024 -0.0027917831178630339 0.0011828915804170004 0.00030095963567599031
leaf_weight=20 36 21 59 39 26 123 27 20 202 32 33 36 36 31 111 27 111
leaf_count=20 36 21 59 39 26 123 27 20 202 32 33 36 36 31 111 27 111
internal_value=0.00241895 -0.000896287 -0.00248619 0 -0.00903969 0.0046133 0.000632911 -0.00321665 -0.00543853 0.0129395 0.00913749 0.007041 0.0130202 -0.0118679 -0.0140044 0.0169572 0.02418
internal_weight=990 859 742 538 204 221 150 317 261 71 117 56 84 168 137 63 131
internal_count=990 859 742 538 204 221 150 317 261 71 117 56 84 168 137 63 131
is_linear=0
shrinkage=0.05


Tree=15
num_leaves=17
num_cat=0
split_feature=15 20 23 7 1 11 7 1 9 12 12 0 11 17 0 1
split_gain=30.3004 5.03723 5.20273 3.12329 3.81543 3.35609 3.75337 3.23584 3.08331 2.39699 2.37991 3.78949 2.01587 1.67134 1.14154 0.798951
threshold=2070.5000000000005 -13751.088867187498 1.0000000180025095e-35 -656.50134277343739 65.929329087056814 24.907562965242864 -669.19012451171864 80.461933179007161 2.0012969951970212 0.6804035206394129 0.70361606760169548 69.500000000000014 25.365345945187883 2065.7084111776835 65.500000000000014 70.698023629130759
decision_type=2 2 2 2 2 2 2 2 2 2 2 2 2 2 2 2
left_child=-1 2 8 5 9 -3 7 -7 12 14 11 -6 15 -14 -5 -2
right_child=1 3 -4 4 10 6 -8 -9 -10 -11 -12 -13 13 -15 -16 -17
leaf_value=0.0002859116538921902 0.00054006216017329911 0.0021708808521886227 0.0011097072836874972 6.8293490616222471e-05 -0.0009629573818692339 -0.00092934137781501287 0.001624358753081029 0.00023718639294106891 0.00035699815212498766 0.0013325262493508933 -0.0023886768479684378 0.0010824597757731259 -0.0012981530129006465 -0.0023660691663825342 -0.00055141255955163955 -0.0012152373683587292
leaf_weight=126 20 32 26 21 68 94 30 172 38 38 20 33 56 163 24 22
leaf_count=126 20 32 26 21 68 94 30 172 38 38 20 33 56 163 24 22
internal_value=0.00205472 -0.00130673 -0.00621347 0.00168201 -0.00316022 0.00470893 0.00302263 0.00110861 -0.00809094 0.00505415 -0.00883567 -0.00563798 -0.0100345 -0.011958 -0.00266075 0
internal_weight=983 857 325 532 204 328 296 266 299 83 121 101 261 219 45 42
internal_count=983 857 325 532 204 328 296 266 299 83 121 101 261 219 45 42
is_linear=0
shrinkage=0.05


Tree=16
num_leaves=16
num_cat=0
split_feature=15 9 17 23 13 12 18 14 9 11 9 12 13 12 19
split_gain=30.1661 4.62483 4.56476 3.92776 2.93499 4.25883 3.53824 3.08567 2.4508 2.06326 1.82783 1.39478 3.43191 1.47129 0.666819
threshold=2070.5000000000005 2.1570455934393657 1718.1518813584232 1.0000000180025095e-35 0.52457381692588201 0.72110075093523796 0.47831166046886253 0.47476364673458632 1.417599335661397 29.138058959025312 2.2268753703191138 0.69379936168127698 0.54464931961575735 0.68643307497847694 23417.877424804694
decision_type=2 2 2 2 2 2 2 2 2 2 2 2 2 2 2
left_child=-1 2 4 11 7 6 -6 9 -9 -2 14 13 -13 -4 -3
right_child=1 10 3 -5 5 -7 -8 8 -10 -11 -12 12 -14 -15 -16
leaf_value=0.00027161607119757791 0.00091167239490709821 0.0012072063814733969 -0.0016231648464974492 0.00089807428993282092 9.5339148225426226e-05 -0.0016665846770894971 0.0024531769036003348 -0.0013851727765965439 -6.3964243030950615e-05 -2.6636195118975861e-05 1.5609376198233439e-05 0.0005027634287174676 -0.0026923238151844056 -0.0018902080960763014 0.00062295166720234281
leaf_weight=126 29 32 131 21 144 34 43 77 135 42 35 33 58 22 21
leaf_count=126 29 32 131 21 144 34 43 77 135 42 35 33 58 22 21
internal_value=0.00210558 -0.0012484 -0.00249642 -0.00780837 0.000287641 0.0046133 0.00758952 -0.00307312 -0.00610561 0.00590717 0.00959137 -0.00960672 -0.00461032 -0.0125408 0.0154426
internal_weight=983 857 769 265 504 221 187 283 212 71 88 244 91 153 53
internal_count=983 857 769 265 504 221 187 283 212 71 88 244 91 153 53
is_linear=0
shrinkage=0.05


Tree=17
num_leaves=17
num_cat=0
split_feature=15 9 17 23 13 18 7 18 9 18 0 18 1 6 18 19
split_gain=29.7649 4.47626 4.25654 3.78519 2.84666 3.58447 3.16753 2.51075 1.82783 1.58558 1.98301 1.81097 1.57932 1.56942 1.26699 0.666819
threshold=2070.5000000000005 2.1570455934393657 1718.1518813584232 1.0000000180025095e-35 0.52583367584573137 0.34050895702778328 -650.82492065429676 0.039279131742600136 2.2268753703191138 0.040545633350110195 68.500000000000014 0.48768401147425461 78.919583719766607 108.35178076744081 0.36173525403612833 23417.877424804694
decision_type=2 2 2 2 2 2 2 2 2 2 2 2 2 2 2 2
left_child=-1 2 4 9 6 13 7 -2 15 10 -4 -11 -7 -6 -8 -3
right_child=1 8 3 -5 5 12 14 -9 -10 11 -12 -13 -14 -15 -16 -17
leaf_value=0.00025803526763770181 0.0013331218354627695 0.0011468460623997258 -0.0021043023417496422 0.0008531705754361796 0.00024665138514826378 0.0013970178968464198 -0.0024136736303040892 -3.7844124369629252e-05 1.4828907388320102e-05 -0.0022191259509907689 0.00066971278980360038 -4.4341530836661264e-05 0.0017365060650600063 -0.00094287422211921388 -0.00060240901570900456 0.00059180408384222345
leaf_weight=126 23 32 25 21 62 65 20 185 35 155 23 41 26 60 63 21
leaf_count=126 23 32 25 21 62 65 20 185 35 155 23 41 26 60 63 21
internal_value=0.00225816 -0.00107339 -0.00230139 -0.00743116 0.000386828 0.00478649 -0.0028169 0.000456511 0.00959137 -0.00919705 -0.000935551 -0.0111933 0.0122942 -0.000778051 -0.011071 0.0154426
internal_weight=983 857 769 265 504 213 291 208 88 244 48 196 91 122 83 53
internal_count=983 857 769 265 504 213 291 208 88 244 48 196 91 122 83 53
is_linear=0
shrinkage=0.05


Tree=18
num_leaves=17
num_cat=0
split_feature=17 9 17 23 18 6 18 0 1 14 9 18 0 12 19 6
split_gain=29.0044 4.45336 3.1417 3.50784 2.49384 3.26123 2.03414 2.57543 2.06678 1.99041 1.82783 1.28223 1.98301 1.55731 0.666819 0.314132
threshold=69.221304916481827 2.1570455934393657 1718.1518813584232 1.0000000180025095e-35 0.47831166046886253 1426.9795484924318 0.038480909448781013 67.500000000000014 89.73379930907366 0.51206600407610092 2.2268753703191138 0.040545633350110195 68.500000000000014 0.65892230300203292 23417.877424804694 1158.8506824220804
decision_type=2 2 2 2 2 2 2 2 2 2 2 2 2 2 2 2
left_child=-1 2 4 11 6 15 7 -2 -8 -7 14 12 -4 -13 -3 -6
right_child=1 10 3 -5 5 9 8 -9 -10 -11 -12 13 -14 -15 -16 -17
leaf_value=0.00024513350425581785 -0.00042080382044257236 0.0010895037592797364 -0.0019990872246621605 0.00081051204666436898 0.00075786906309991417 0.00094709299855706979 -0.00048305885167985177 0.00098183606632087374 0.0001224497442897876 -0.00052930947265398263 1.4087462018902431e-05 -0.0034986323027232317 0.00063622715031341759 -0.001714151901891814 0.00056221387965011413 0.0030264310105144136
leaf_weight=127 40 32 25 21 25 26 223 31 106 32 35 23 23 173 21 20
leaf_count=127 40 32 25 21 25 26 223 31 106 32 35 23 23 173 21 20
internal_value=0.00225816 -0.00104544 -0.00227184 -0.00667673 3.97535e-05 0.00698351 -0.00173707 0.00590717 -0.00340322 -0.000774527 0.00959137 -0.00837771 -0.000935551 -0.0101734 0.0154426 0.0170732
internal_weight=983 856 768 265 503 103 400 71 329 58 88 244 48 196 53 45
internal_count=983 856 768 265 503 103 400 71 329 58 88 244 48 196 53 45
is_linear=0
shrinkage=0.05


Tree=19
num_leaves=19
num_cat=0
split_feature=15 18 11 7 14 18 10 13 7 0 11 1 12 8 12 14 0 17
split_gain=29.2343 3.94268 3.21059 4.5574 3.17326 3.60624 3.05932 2.659 2.16796 2.10316 1.99646 1.5381 1.27978 1.1868 1.17096 0.963158 0.818324 0.682824
threshold=2070.5000000000005 0.47831166046886253 25.365345945187883 -653.92071533203114 0.48891860738423948 0.53306704167793817 1.8770004180252535 0.52457381692588201 -1423.583557128906 71.500000000000014 32.655549968613691 100.02361345195546 0.6804035206394129 292.28465270996099 0.70361606760169548 0.44717881727283376 66.500000000000014 808.85138917258644
decision_type=2 2 2 2 2 2 2 2 2 2 2 2 2 2 2 2 2 2
left_child=-1 2 3 13 15 16 7 12 -9 10 -8 -11 -4 -2 17 -3 -6 -7
right_child=1 4 6 -5 5 14 9 8 -10 11 -12 -13 -14 -15 -16 -17 -18 -19
leaf_value=0.00023287682904302721 0.00057334826712851787 0.00032524191053889817 -0.0018727411530865242 -0.00058230129098516827 0.00020309947417607166 0.00016789641681149716 -3.7803316856876993e-07 -0.0028034386730915214 -1.2823418830582023e-05 -0.0016582431233009205 0.00057375387137317271 0.00064723646161496395 -0.0013841864747993927 0.0021982938818276509 -0.0018250414550307543 0.0028740349787968523 0.0028157246679988979 -0.00078497976407674317
leaf_weight=126 36 25 80 38 20 29 231 22 109 74 25 20 24 25 24 27 25 23
leaf_count=126 36 25 80 38 20 29 231 22 109 74 25 20 24 25 24 27 25 23
internal_value=0.0024616 -0.000840042 -0.0025508 0.00575177 0.00589255 0.0014038 -0.00396513 -0.00837941 -0.00358505 -0.000985433 0.00134713 -0.00738576 -0.0143612 0.014239 -0.00519054 0.0162188 0.0126386 -0.000863724
internal_weight=983 857 684 99 173 121 585 235 131 350 256 94 104 61 76 52 45 52
internal_count=983 857 684 99 173 121 585 235 131 350 256 94 104 61 76 52 45 52
is_linear=0
shrinkage=0.05


Tree=20
num_leaves=9
num_cat=0
split_feature=16 1 7 9 7 8 13 6
split_gain=27.7618 3.62235 2.56359 4.05809 2.92605 3.29246 2.35849 1.13996
threshold=61.500000000000007 53.957868940578706 -1423.583557128906 0.72466090182142351 -650.82492065429676 300.73497009277349 0.52777322476611699 916.4598140913015
decision_type=2 2 2 2 2 2 2 2
left_child=-1 7 -3 -4 5 -5 -6 -2
right_child=1 2 3 4 6 -7 -8 -9
leaf_value=0.00022123298759087475 0.0001595015959709234 -0.0018718343503042912 0.0013488422818420693 0.00060045531159086396 -0.0012977382830794638 -0.00033053520878537079 -7.2666220091444078e-05 0.0028833759099049505
leaf_weight=118 21 23 36 221 120 295 101 27
leaf_count=118 21 23 36 221 120 295 101 27
internal_value=0.0022295 -0.000941832 -0.00175229 -0.00125469 -0.00206214 0 -0.00687472 0.0123701
internal_weight=962 844 796 773 737 516 221 48
internal_count=962 844 796 773 737 516 221 48
is_linear=0
shrinkage=0.05


Tree=21
num_leaves=16
num_cat=0
split_feature=16 18 1 12 12 20 13 11 7 13 12 7 8 7 2
split_gain=26.8809 3.69716 3.62063 3.52309 3.66447 3.02968 2.61572 2.28745 2.14003 2.04583 4.07816 1.86952 1.12442 0.544641 0.244678
threshold=61.500000000000007 0.45523950968617699 66.877608114048272 0.65130991987471754 0.67747463053921353 -8819.6523132324201 0.48171016118168813 29.620795900612553 -682.92562866210926 0.61805952341537318 0.70709409253737021 -646.28900146484364 314.16950988769537 -637.31027221679676 13.500000000000002
decision_type=2 2 2 2 2 2 2 2 2 2 2 2 2 2 2
left_child=-1 3 13 5 6 -2 -5 -8 12 10 -6 -10 14 -3 -4
right_child=1 2 8 4 9 -7 7 -9 11 -11 -12 -13 -14 -15 -16
leaf_value=0.00021017133821132905 -2.0568529044723283e-05 0.0029996377743919723 0.0011714555625441769 0.00070712986840568712 -0.00019986078553696496 0.001542327927462417 -0.0021254125242604672 -0.00053867408069653848 -0.0025298501234907764 -0.0017146946820804532 0.00087148645648665868 9.0759299893550246e-06 -9.8096534990088638e-05 0.00038589677990673034 0.0007339452380855316
leaf_weight=118 36 37 22 29 293 31 87 65 22 25 85 35 31 26 20
leaf_count=118 36 37 22 29 293 31 87 65 22 25 85 35 31 26 20
internal_value=0.00259329 -0.000527189 0.00554117 -0.00233451 -0.00358671 0.00849478 -0.00949752 -0.0121302 0.000730208 -0.000917886 0 -0.00647986 0.00642955 0.0153724 0.0117577
internal_weight=962 844 193 651 584 67 181 152 130 403 378 57 73 63 42
internal_count=962 844 193 651 584 67 181 152 130 403 378 57 73 63 42
is_linear=0
shrinkage=0.05


Tree=22
num_leaves=14
num_cat=0
split_feature=16 1 20 12 18 12 1 1 8 12 6 14 6
split_gain=27.0059 3.43041 2.90193 2.45193 3.05368 3.17265 2.27029 1.72295 1.4437 1.28874 1.11331 0.894127 0.589428
threshold=61.500000000000007 53.957868940578706 -23007.956268310543 0.65130991987471754 0.45523950968617699 0.67442232168188543 66.577864141166415 93.047092764913813 349.60176086425787 0.68174856218777136 97.000960170058264 0.47062476177715623 916.4598140913015
decision_type=2 2 2 2 2 2 2 2 2 2 2 2 2
left_child=-1 12 7 10 5 -5 -6 8 9 -3 -4 -9 -2
right_child=1 2 3 4 6 -7 -8 11 -10 -11 -12 -13 -14
leaf_value=0.0001996627713007626 0.00013223167717704153 -0.0019233090368767055 0.0013785937361266655 -0.0011410230592184128 0.0033643817141027045 -1.3293045732765131e-05 0.0002747862699258974 0.00096861747704236889 -0.0028941768952300858 -8.6433352308062935e-05 0.00011054641736937266 -0.00050020100697127927 0.0027199122754143715
leaf_weight=118 21 58 24 108 23 323 102 22 20 62 31 23 27
leaf_count=118 21 58 24 108 23 323 102 22 20 62 31 23 27
internal_value=0.00254132 -0.000586423 -0.00137546 0.000278187 -0.000710304 -0.00271399 0.00615508 -0.00686116 -0.00960029 -0.00745212 0.0103448 0.00155211 0.0123701
internal_weight=962 844 796 611 556 431 125 185 140 120 55 45 48
internal_count=962 844 796 611 556 431 125 185 140 120 55 45 48
is_linear=0
shrinkage=0.05


Tree=23
num_leaves=15
num_cat=0
split_feature=16 1 20 12 18 12 8 8 7 0 6 22 10 6
split_gain=27.6351 3.04967 2.92296 2.57201 2.28559 3.17265 3.13356 1.64808 1.44083 1.2757 1.11331 1.0943 1.01634 0.883345
threshold=61.500000000000007 53.957868940578706 -23007.956268310543 0.65130991987471754 0.45523950968617699 0.67442232168188543 283.13279724121099 300.73497009277349 -670.90139770507801 68.500000000000014 97.000960170058264 1.0000000180025095e-35 1.4924230526458746 916.4598140913015
decision_type=2 2 2 2 2 2 2 2 2 2 2 2 2 2
left_child=-1 13 7 10 5 -5 -6 8 9 -3 -4 -9 -13 -2
right_child=1 2 3 4 6 -7 -8 11 -10 -11 -12 12 -14 -15
leaf_value=0.00018967963273572308 0.00012562009331819058 -0.00014385496190179594 0.0013096640493203333 -0.0010839719062574944 -0.00015092308813107193 -1.2628393446129094e-05 0.0009198332702728796 -0.00076635436030574879 -0.002203192533505577 0.0010787733473464291 0.00010501909650090235 -0.0030713339047371449 -0.00077082262392582377 0.0025839166616436482
leaf_weight=118 21 30 24 108 25 323 100 33 31 21 31 20 50 27
leaf_count=118 21 30 24 108 25 323 100 33 31 21 31 20 50 27
internal_value=0.00228147 -0.000882597 -0.00162668 3.27279e-05 -0.00098004 -0.00271399 0.00495604 -0.00713128 -0.00176614 0.00332681 0.0103448 -0.0113482 -0.0149073 0.0113306
internal_weight=962 844 796 611 556 431 125 185 82 51 55 103 70 48
internal_count=962 844 796 611 556 431 125 185 82 51 55 103 70 48
is_linear=0
shrinkage=0.05


Tree=24
num_leaves=9
num_cat=0
split_feature=16 1 7 9 7 9 0 6
split_gain=27.2567 2.96102 2.66404 3.89818 2.78897 3.0896 2.15018 0.883345
threshold=61.500000000000007 53.957868940578706 -1423.583557128906 0.72466090182142351 -650.82492065429676 1.3469088581355881 70.500000000000014 916.4598140913015
decision_type=2 2 2 2 2 2 2 2
left_child=-1 7 -3 -4 5 -5 -6 -2
right_child=1 2 3 4 6 -7 -8 -9
leaf_value=0.00018019565109893555 0.00011933908865228161 -0.0018330687830495187 0.0012334173029866836 0.0019530443704265988 -0.0011140284529482431 -3.7113426191104362e-05 3.8533789085093421e-05 0.002454720828561463
leaf_weight=118 21 23 36 26 144 490 77 27
leaf_count=118 21 23 36 26 144 490 77 27
internal_value=0.00243738 -0.000704893 -0.00143826 -0.000931315 -0.00172297 0.000280953 -0.00642243 0.0113306
internal_weight=962 844 796 773 737 516 221 48
internal_count=962 844 796 773 737 516 221 48
is_linear=0
shrinkage=0.05


Tree=25
num_leaves=14
num_cat=0
split_feature=15 18 17 14 1 12 14 12 18 6 2 1 1
split_gain=29.2464 2.69609 3.13724 3.11858 2.97971 2.80541 2.71252 2.37418 3.33007 1.95965 1.67372 1.13269 0.544356
threshold=2070.5000000000005 0.47831166046886253 3099.7662559399464 0.48891860738423948 120.63012470470052 0.64329168312403062 0.5766179879945319 0.69616956569562893 0.34050895702778328 1242.1311053153197 9.5000000000000018 79.327417902749715 88.598696923925417
decision_type=2 2 2 2 2 2 2 2 2 2 2 2 2
left_child=-1 4 3 12 5 10 11 9 -9 -7 -2 -5 -3
right_child=1 2 -4 6 -6 7 -8 8 -10 -11 -12 -13 -14
leaf_value=0.00017118586854398822 0.0019295118021993463 0.0037456725652905976 -0.00063641915173025536 0.00020712332876216544 0.00092065722682520279 -0.00040423280044914471 0.00089985498892085347 -0.00048587539792562808 0.0010376609040785912 -0.0016019758600815004 -1.0594428066074136e-05 -0.0011820645944733367 0.00069482611291257215
leaf_weight=128 23 20 24 52 22 362 36 145 68 52 28 21 25
leaf_count=128 23 20 24 52 22 362 36 145 68 52 28 21 25
internal_value=0.00223139 -0.00101925 0.00446378 0.00710578 -0.00242108 -0.00301578 0.00247479 -0.00393877 0.000328484 -0.00614586 0.00821918 -0.00300958 0.0181818
internal_weight=1006 878 178 154 700 678 109 627 213 414 51 73 45
internal_count=1006 878 178 154 700 678 109 627 213 414 51 73 45
is_linear=0
shrinkage=0.05


Tree=26
num_leaves=12
num_cat=0
split_feature=15 12 12 12 12 16 1 8 0 19 19
split_gain=29.1165 2.53456 4.06175 3.03089 3.39957 2.9481 2.83651 2.0443 1.77796 1.34472 0.260239
threshold=2070.5000000000005 0.71777774401505956 0.70709409253737021 0.7032702128804299 0.69616956569562893 2764.5000000000005 90.00304276331002 292.28465270996099 67.500000000000014 3996.6717584913636 5427.7238919439087
decision_type=2 2 2 2 2 2 2 2 2 2 2
left_child=-1 2 3 4 5 -2 10 -4 -6 -9 -3
right_child=1 6 7 -5 8 -7 -8 9 -10 -11 -12
leaf_value=0.00016262657511678658 -2.5164479412254082e-05 -0.0019091599058861986 -4.0814676850187137e-06 -0.0022463876742913891 -3.5733765188972201e-05 -0.0017102010387748225 0.0011207222232611947 0.00048196865381583968 0.0013865562600678255 0.0015656915544539575 -0.0020648793786059217
leaf_weight=128 497 22 29 37 44 90 20 24 60 34 21
leaf_count=128 497 22 29 37 44 90 20 24 60 34 21
internal_value=0.00228109 -0.000962305 -0.000208563 -0.00143524 -0.000680075 -0.00216317 -0.0106181 0.00998852 0.00763689 0.0154045 -0.0178654
internal_weight=1006 878 815 728 691 587 63 87 104 58 43
internal_count=1006 878 815 728 691 587 63 87 104 58 43
is_linear=0
shrinkage=0.05


Tree=27
num_leaves=17
num_cat=0
split_feature=15 13 13 13 10 13 6 6 7 7 21 8 0 16 18 15
split_gain=29.1165 2.58054 2.59922 4.25595 3.0957 2.80448 2.35373 4.31807 1.99896 1.89079 2.37325 1.6532 1.54461 1.13055 0.704116 0.487027
threshold=2070.5000000000005 0.61805952341537318 0.52583367584573137 0.54464931961575735 0.78196767239408127 0.52202241069679445 672.01411433410681 380.45124478945053 -637.31027221679676 -647.69213867187489 1.0000000180025095e-35 285.66618347167974 69.500000000000014 481.50000000000006 0.48768401147425461 64302.000000000007
decision_type=2 2 2 2 2 2 2 2 2 2 2 2 2 2 2 2
left_child=-1 2 5 6 12 9 7 -4 -6 10 -2 -11 -5 -7 -8 -15
right_child=1 -3 3 4 8 13 14 -9 -10 11 -12 -13 -14 15 -16 -17
leaf_value=0.00015449524636094726 -0.00071329059820700877 -0.0014522106881794785 0.000817570981683724 2.4035169821357005e-05 -0.001885434366063754 -0.0005249110893429332 0.0010437019010592575 -0.00086750313263060934 0.00021880962036096297 -0.0037540802542150088 0.00012642804322975931 -0.0002411227361622803 0.0010323492887088642 -0.0016093728698784449 0.0031830523721989275 -0.0014402517136983817
leaf_weight=128 50 31 38 33 95 20 39 21 38 32 332 51 26 22 28 22
leaf_count=128 50 31 38 33 95 20 39 21 38 32 332 51 26 22 28 22
internal_value=0.00228109 -0.000962305 -0.000436784 0.00312795 -0.00153566 -0.0025893 0.0102696 0.00287648 -0.00578512 -0.00122554 0.000248626 -0.00806258 0.00795262 -0.0124025 0.0166915 -0.0168934
internal_weight=1006 878 847 318 192 529 126 59 133 465 382 83 59 64 67 44
internal_count=1006 878 847 318 192 529 126 59 133 465 382 83 59 64 67 44
is_linear=0
shrinkage=0.05


Tree=28
num_leaves=20
num_cat=0
split_feature=15 18 6 18 0 16 16 1 18 1 20 18 19 15 7 14 13 7 13
split_gain=28.4715 2.46937 2.99167 2.38954 3.52151 2.51933 2.68906 2.25115 2.60513 2.41036 2.07205 1.91089 1.83148 1.72282 1.5911 1.46909 1.23863 0.843456 0.48181
threshold=2070.5000000000005 0.48768401147425461 1439.6879499816898 0.041051751019308802 64.500000000000014 358.50000000000006 309.00000000000006 89.73379930907366 0.21529133415507354 97.21777163520882 -7819.7182006835928 0.017115838809302186 2526.4535464553842 52691.000000000007 -653.92071533203114 0.49896787052322727 0.54587893020040468 -687.58804321289051 0.52583367584573137
decision_type=2 2 2 2 2 2 2 2 2 2 2 2 2 2 2 2 2 2 2
left_child=-1 3 16 4 10 6 12 8 -7 -9 -2 14 -5 15 -6 -4 18 -13 -3
right_child=1 2 13 5 11 7 -8 9 -10 -11 -12 17 -14 -15 -16 -17 -18 -19 -20
leaf_value=0.00014677048404290185 0.00039581486297943783 0.00096951931240595317 0.00095325134256399888 -0.00020502432679734563 0.00036596979179740201 -0.0014996261626476549 0.00096147771343887967 0.00043740988794897795 -0.00035748456285961128 -0.00032711066067421247 -0.0011572466850146678 0.00059367244104098222 0.00083804703357368839 -0.00060966137233461339 -0.00086896035350941261 -5.684045663292281e-05 0.0004663933161874856 0.0018279730338985002 0.0030238997535889794
leaf_weight=128 26 23 21 58 20 116 20 64 161 91 24 44 34 38 23 38 20 33 24
leaf_count=128 26 23 21 58 20 116 20 64 161 91 24 44 34 38 23 38 20 33 24
internal_value=0.00252957 -0.000677599 0.00484461 -0.00195351 0.003204 -0.00357471 0.00307761 -0.00531127 -0.00801155 -0.000451322 -0.00788423 0.00786844 -0.000488599 -0.000720906 -0.000464037 0.00456853 0.0129657 0.0125811 0.0174098
internal_weight=1006 878 164 714 170 544 112 432 277 155 50 120 92 97 43 59 67 77 47
internal_count=1006 878 164 714 170 544 112 432 277 155 50 120 92 97 43 59 67 77 47
is_linear=0
shrinkage=0.05


Tree=29
num_leaves=10
num_cat=0
split_feature=15 1 12 1 17 11 18 15 19
split_gain=28.4715 2.30049 2.24886 2.40203 1.9364 2.46813 1.7949 1.28893 0.74946
threshold=2070.5000000000005 54.241108801893056 0.64329168312403062 119.64697114291751 826.5102046095077 28.387266258989381 0.43070530043995131 24795.000000000004 9566.5869245112935
decision_type=2 2 2 2 2 2 2 2 2
left_child=-1 8 7 4 6 -6 -4 -3 -2
right_child=1 2 3 -5 5 -7 -8 -9 -10
leaf_value=0.00013943195984075785 9.9658558427195842e-05 0.0014049157893353649 -0.00013755449743355075 0.00050726801196952223 -8.2188246890207991e-05 -0.00099948411604194594 0.00059749082277637535 4.4788018435570899e-05 0.0017883122908117612
leaf_weight=128 32 25 242 28 212 194 93 32 20
leaf_count=128 32 25 242 28 212 194 93 32 20
internal_value=0.00252957 -0.000677599 -0.00132551 -0.00204135 -0.00259074 -0.00491258 0.000208893 0.00823117 0.00950096
internal_weight=1006 878 826 769 741 406 335 57 52
internal_count=1006 878 826 769 741 406 335 57 52
is_linear=0
shrinkage=0.05


Tree=30
num_leaves=15
num_cat=0
split_feature=15 1 7 11 20 7 11 7 6 1 1 18 20 20
split_gain=28.2663 2.29125 2.56865 3.01264 3.49772 2.66808 2.47328 2.45408 4.3729 2.35844 2.00147 1.92776 0.926077 0.705194
threshold=1623.0000000000002 53.957868940578706 -721.11871337890614 26.563535834738648 -12922.976959228514 -1423.583557128906 31.214956927108503 -670.90139770507801 1273.0722822761536 91.055232908342575 78.750205636245568 0.038480909448781013 -27806.110046386715 -5089.9499816894522
decision_type=2 2 2 2 2 2 2 2 2 2 2 2 2 2
left_child=-1 13 5 7 12 -3 10 8 -4 -9 -7 -6 -5 -2
right_child=1 2 3 4 11 6 -8 9 -10 -11 -12 -13 -14 -15
leaf_value=0.00013246036184871857 0.00083162773224506605 -0.0010411905321956795 0.0013181845992080944 -0.0035599108067016719 0.0008651013507383732 0.00083109913875767947 0.00088022537483731797 0.00021932268750198827 -0.0015359730338939893 -0.0015035008168730103 2.1233252657637536e-05 -0.00031184667031296243 -0.0011445014550475307 0.0004245090237314009
leaf_weight=122 27 22 57 56 39 27 23 79 21 35 159 220 91 20
leaf_count=122 27 22 57 56 39 27 23 79 21 35 159 220 91 20
internal_value=0.00239956 -0.000736217 -0.00135086 -0.00308477 -0.0055282 0.00311553 0.00487805 0.00205622 0.00889885 -0.00258545 0.00292853 -0.00200695 -0.0116927 0.00997877
internal_weight=998 876 829 598 406 231 209 192 78 114 186 259 147 47
internal_count=998 876 829 598 406 231 209 192 78 114 186 259 147 47
is_linear=0
shrinkage=0.05


Tree=31
num_leaves=17
num_cat=0
split_feature=15 3 11 10 17 8 13 17 9 12 22 20 18 9 10 13
split_gain=28.3919 2.29825 2.77277 2.28019 2.4312 2.35422 2.25077 1.8471 1.79187 1.67067 1.57847 1.51564 1.32634 2.08196 0.918771 0.414514
threshold=1623.0000000000002 1980.5000000000002 25.871325505804602 3.7309476236122827 353.61987157926325 290.24873352050787 0.49278960171274838 215.51979444854823 0.76857944021830404 0.71777774401505956 1.0000000180025095e-35 -19504.759399414059 0.39172330230771751 2.0012969951970212 4.3601873392675357 0.51628350737441397
decision_type=2 2 2 2 2 2 2 2 2 2 2 2 2 2 2 2
left_child=-1 3 -3 4 5 -2 -4 -7 10 -10 -6 -5 13 -13 -14 -8
right_child=1 2 6 11 8 7 15 -9 9 -11 -12 12 14 -15 -16 -17
leaf_value=0.00012583734375628541 -0.00026057689094495241 0.00043943900176711127 2.9369421198741086e-05 0.00080295641823926187 0.0018015551945539555 0.00015825491268953442 -0.0032638163362585073 0.00095592577883127925 -0.00024142287249745431 -0.0017947805677097862 -1.586971352144917e-05 0.00052557543588089845 0.00021908871652361885 -0.00047425841234898793 0.00072357657098717223 -0.001529461055371434
leaf_weight=122 37 25 20 32 20 50 23 49 424 21 22 27 20 46 21 39
leaf_count=122 37 25 20 32 20 50 23 49 424 21 22 27 20 46 21 39
internal_value=0.00234946 -0.000793288 -0.0076564 0.000156027 -0.00115551 0.00473916 -0.0121194 0.00877901 -0.00281256 -0.00375197 0.00700713 0.00578371 0.00302366 -0.000957592 0.010219 -0.0168277
internal_weight=998 876 107 769 623 136 82 99 487 445 42 146 114 73 41 62
internal_count=998 876 107 769 623 136 82 99 487 445 42 146 114 73 41 62
is_linear=0
shrinkage=0.05


Tree=32
num_leaves=16
num_cat=0
split_feature=15 9 6 16 12 13 13 7 7 14 11 8 7 11 9
split_gain=29.024 2.2337 2.42592 2.31701 2.16108 3.39842 3.06606 2.97107 1.43838 1.94134 3.16039 1.79888 1.27099 1.22026 0.538754
threshold=1623.0000000000002 2.1806721967308462 962.25624587241839 1685.0000000000002 0.67939499619637111 0.48124508745866873 0.54464931961575735 -704.37164306640614 -533.77493286132801 0.6021693526592643 24.907562965242864 280.90959167480474 -777.30184936523426 29.620795900612553 1.3386321492092985
decision_type=2 2 2 2 2 2 2 2 2 2 2 2 2 2 2
left_child=-1 3 12 8 5 -5 7 -6 9 10 -2 -11 -3 -7 -8
right_child=1 2 -4 4 6 13 14 -9 -10 11 -12 -13 -14 -15 -16
leaf_value=0.00011954547656847226 0.00092094358839096011 0.00051834523959247707 0.00082643552455480837 0.00050604238751126023 -0.000207835356402733 -0.0023495236448745852 -0.00018632386367843369 0.00098632469290524947 0.00078321774113056524 -0.0016639069209788916 -3.0310346432949056e-05 6.7115315890237115e-05 -0.00041000187170026628 -0.0012584374254300979 -0.0028022632386488725
leaf_weight=122 46 22 30 22 34 53 28 53 21 26 421 24 26 39 31
leaf_count=122 46 22 30 22 34 53 28 53 21 26 421 24 26 39 31
internal_value=0.00209899 -0.00107864 0.00697823 -0.0018732 -0.00574779 -0.0109115 -0.00167693 0.00424799 0 -0.000522143 0.000470991 -0.00988024 0 -0.0151466 -0.0104907
internal_weight=998 876 78 798 260 114 146 87 538 517 467 50 48 92 59
internal_count=998 876 78 798 260 114 146 87 538 517 467 50 48 92 59
is_linear=0
shrinkage=0.05


Tree=33
num_leaves=17
num_cat=0
split_feature=17 3 11 10 13 14 13 9 0 18 13 1 19 22 20 13
split_gain=27.7435 2.22294 2.77277 1.56162 2.24907 3.84772 3.59074 3.78025 3.12571 1.76886 1.55346 1.29076 1.69499 1.05013 0.867541 0.565125
threshold=58.297330941038901 1980.5000000000002 25.871325505804602 3.5736649902234388 0.52583367584573137 0.40675338704814817 0.54464931961575735 1.5317466805253102 70.500000000000014 0.48768401147425461 0.49278960171274838 78.750205636245568 2526.4535464553842 1.0000000180025095e-35 -4668.4143066406241 0.51628350737441397
decision_type=2 2 2 2 2 2 2 2 2 2 2 2 2 2 2 2
left_child=-1 3 -3 4 5 -2 9 -8 -7 -6 -4 -5 14 -14 -13 -12
right_child=1 2 10 11 6 8 7 -9 -10 -11 15 12 13 -15 -16 -17
leaf_value=0.00011356820274004976 0.00099142192514335985 0.00039253738955016273 -5.4109976628469175e-06 0.0011713952282022821 0.0006007998054461533 -0.00021163261654714993 0.00026910400559205795 -0.0021961557700888369 -0.0018400185848713863 0.0034404443084851688 -0.0030339919167868992 7.5848425191038517e-06 1.3300342758659767e-05 0.00068891325975946056 -0.00052742158514728081 -0.0014169747114093857
leaf_weight=122 20 25 20 22 64 228 140 49 78 23 23 25 40 59 21 39
leaf_count=122 20 25 20 22 64 228 140 49 78 23 23 25 40 59 21 39
internal_value=0.00219918 -0.000907431 -0.0076564 2.60044e-05 -0.00115429 -0.00397117 0.00215502 -0.00169223 -0.00537406 0.0105626 -0.0121194 0.0043088 0.00254997 0.00625631 -0.00531453 -0.0160225
internal_weight=998 876 107 769 602 326 276 189 306 87 82 167 145 99 46 62
internal_count=998 876 107 769 602 326 276 189 306 87 82 167 145 99 46 62
is_linear=0
shrinkage=0.05


Tree=34
num_leaves=16
num_cat=0
split_feature=15 11 6 12 2 15 18 6 10 15 16 18 13 13 16
split_gain=28.3919 1.955 3.10159 2.87147 2.66581 2.01699 1.79204 2.9948 1.80254 2.14932 2.10612 1.36893 1.05183 0.933485 0.404046
threshold=1623.0000000000002 25.365345945187883 1531.6877859115598 0.69078580258273947 44.500000000000007 191905.00000000003 0.57264884312732767 2142.5674933109299 3.367717688225329 69897.000000000015 346.50000000000006 0.04001929543293492 0.53281813699281055 0.53463247923490986 3569.5000000000005
decision_type=2 2 2 2 2 2 2 2 2 2 2 2 2 2 2
left_child=-1 2 3 -2 6 12 8 -8 10 -10 -3 -5 14 -13 -6
right_child=1 4 -4 11 5 -7 7 -9 9 -11 -12 13 -14 -15 -16
leaf_value=0.00010788979260304977 -0.00024456407127435579 0.00018072203678555778 -0.0013883833846083356 -0.00012153035458570272 -0.0025650504889282444 0.00010687049440128994 0.0020839313232202785 -2.0325236003315705e-05 -1.7008707010879309e-05 0.00062044139588723348 -0.00049279028560595968 0.00039026933604938699 -0.0030422086027234955 0.0032563430394226935 -0.00063735368523369922
leaf_weight=122 37 102 24 20 21 24 31 38 102 36 323 37 20 41 20
leaf_count=122 37 102 24 20 21 24 31 38 102 36 323 37 20 41 20
internal_value=0.00234946 -0.000793288 0.00421119 0.00717987 -0.00191047 -0.0102233 -0.000783104 0.00680174 -0.00172261 0.0032223 -0.00334039 0.0116718 -0.0150573 0.0146607 -0.010219
internal_weight=998 876 159 135 717 85 632 69 563 138 425 98 61 78 41
internal_count=998 876 159 135 717 85 632 69 563 138 425 98 61 78 41
is_linear=0
shrinkage=0.05


Tree=35
num_leaves=12
num_cat=0
split_feature=15 12 12 1 6 0 12 14 1 14 1
split_gain=23.0917 2.67634 3.0915 1.99233 5.25495 2.62897 2.56796 1.88972 1.21592 1.20613 1.22058
threshold=2383.0000000000005 0.7136524017216892 0.70994766849045121 66.877608114048272 905.05094891582746 70.500000000000014 0.65568152970287019 0.4752548404233346 59.09353072040475 0.55631859538071693 81.093254303345816
decision_type=2 2 2 2 2 2 2 2 2 2 2
left_child=-1 2 3 4 5 -2 -5 -8 -6 10 -3
right_child=1 9 -4 6 8 -7 7 -9 -10 -11 -12
leaf_value=0.00010249530297289922 0.00019111183671853272 -0.0019200692168549695 0.0011972105510229952 0.00063544843972929707 0.00072156555195516123 -0.00084108861290268513 0.00011325369771171823 -0.00056512301131337044 0.0021457005639178186 2.6670288344976534e-05 -0.00045242384570195473
leaf_weight=117 94 20 38 38 57 45 178 288 46 25 32
leaf_count=117 94 20 38 38 57 45 178 288 46 25 32
internal_value=0.00367549 0.00083614 0.00171534 0.000998526 0.00472945 -0.0015816 -0.000783575 -0.00181292 0.0132881 -0.0080415 -0.01238
internal_weight=978 861 784 746 242 139 504 466 103 77 52
internal_count=978 861 784 746 242 139 504 466 103 77 52
is_linear=0
shrinkage=0.05


Tree=36
num_leaves=12
num_cat=0
split_feature=15 12 12 7 15 8 0 1 8 9 6
split_gain=21.4551 2.30031 3.12024 1.66654 2.35567 3.25717 2.28732 1.23407 1.20517 0.915745 0.284153
threshold=2383.0000000000005 0.7136524017216892 0.70994766849045121 -749.91079711914051 13852.000000000002 280.90959167480474 73.500000000000014 77.539850409500318 299.99995422363287 1.3469088581355881 93.929996073689395
decision_type=2 2 2 2 2 2 2 2 2 2 2
left_child=10 2 3 8 5 -5 -6 -3 -2 -9 -1
right_child=1 7 -4 4 6 -7 -8 9 -10 -11 -12
leaf_value=9.7370537824253988e-05 0.00098108226413362587 -0.0015210090751104301 0.0011373500234718476 -0.0010991828700870176 -4.6104168728411394e-06 0.00084358622666176055 -0.00089003502590380152 0.00012526918299156088 6.4694255420033595e-05 -0.0016399327863878127 9.7370537824253988e-05
leaf_weight=20 38 34 38 27 464 126 67 21 24 22 97
leaf_count=20 38 34 38 27 464 126 67 21 24 22 97
internal_value=0.00357325 0.00083614 0.00165158 0.000931511 0.000211957 0.00568256 -0.00135568 -0.007393 0.00877617 -0.00162413 0.023655
internal_weight=978 861 784 746 684 153 531 77 62 43 117
internal_count=978 861 784 746 684 153 531 77 62 43 117
is_linear=0
shrinkage=0.05


Tree=37
num_leaves=14
num_cat=0
split_feature=15 12 12 11 11 15 14 9 12 7 1 9 6
split_gain=21.3458 2.33304 3.0915 1.71002 4.23343 3.53007 2.14484 1.78092 1.84675 1.79996 1.23407 0.915745 0.284153
threshold=2383.0000000000005 0.7136524017216892 0.70994766849045121 26.598342347963921 27.369751895973888 13852.000000000002 0.51281284796382098 1.3522702936655562 0.69379936168127698 -670.90139770507801 77.539850409500318 1.3469088581355881 93.929996073689395
decision_type=2 2 2 2 2 2 2 2 2 2 2 2 2
left_child=12 2 3 7 6 -6 -5 8 -2 -9 -3 -12 -1
right_child=1 10 -4 4 5 -7 -8 9 -10 -11 11 -13 -14
leaf_value=9.2502010933043224e-05 8.1649762196314707e-05 -0.0014449586213549082 0.0010804825222982539 -0.00041387097943569319 0.00067131496542397482 -0.0001240126027470645 -0.003645112495574543 0.00031008448992165264 0.0020340846240590182 -0.0008510585277493488 0.00011900572384198061 -0.0015579361470684202 9.2502010933043224e-05
leaf_weight=20 44 34 38 25 109 370 29 76 52 41 21 22 97
leaf_count=20 44 34 38 25 109 370 29 76 52 41 21 22 97
internal_value=0.00362437 0.000894205 0.00171534 0.000998526 -0.000506472 0.000981006 -0.0137708 0.00478649 0.00983351 0.00059778 -0.007393 -0.00162413 0.023655
internal_weight=978 861 784 746 533 479 54 213 96 117 77 43 117
internal_count=978 861 784 746 533 479 54 213 96 117 77 43 117
is_linear=0
shrinkage=0.05


Tree=38
num_leaves=14
num_cat=0
split_feature=15 12 12 18 6 0 0 7 15 14 10 11 6
split_gain=21.4551 2.67634 3.0915 1.66108 2.72543 2.86999 2.25882 3.06874 1.80732 1.20613 0.779409 0.772139 0.284153
threshold=2383.0000000000005 0.7136524017216892 0.70994766849045121 0.041051751019308802 536.3387067025709 68.500000000000014 69.500000000000014 -653.27853393554676 13852.000000000002 0.55631859538071693 2.4326016588331334 38.754864070850964 93.929996073689395
decision_type=2 2 2 2 2 2 2 2 2 2 2 2 2
left_child=12 2 3 6 5 -5 7 -2 -6 11 -8 -3 -1
right_child=1 9 -4 4 8 -7 10 -9 -10 -11 -12 -13 -14
leaf_value=8.7876910386391893e-05 0.00051338589358261577 -0.0015789077756899418 0.0010264583961833386 4.6875133737431246e-05 0.00073591393507380087 -0.0012500920775287139 0.0017398024220879106 -0.0026533455708659393 2.2174493542956308e-05 9.4892680499991669e-05 0.00028699155889928276 -0.00018873759573647121 8.7876910386391893e-05
leaf_weight=20 54 29 38 100 93 82 26 21 350 25 20 23 97
leaf_count=20 54 29 38 100 93 82 26 21 350 25 20 23 97
internal_value=0.00357325 0.00083614 0.00171534 0.000998526 -3.19949e-05 -0.00518946 0.00635838 0.000932091 0.00207628 -0.0080415 0.0150759 -0.01238 0.023655
internal_weight=978 861 784 746 625 182 121 75 443 77 46 52 117
internal_count=978 861 784 746 625 182 121 75 443 77 46 52 117
is_linear=0
shrinkage=0.05


end of trees

feature_importances:
glcm_homogeneity=59
Base_Percent=51
hu_mean=50
LungVol_FVC_Ratio=48
glcm_energy=43
lung_vol_ml=39
FVC_Week_Interaction=39
Age=37
hu_std=37
hu_skew=35
glcm_contrast=35
LungVol_Week_Interaction=27
glcm_correlation=26
HU_Week_Interaction=18
hu_kurt=16
Age_Week_Interaction=16
Percent_Week_Interaction=14
Relative_Weeks=6
Smk_Cur=6
Smk_Ex=5
Weeks_squared=2
Sex=2

parameters:
[boosting: gbdt]
[objective: quantile]
[metric: quantile]
[tree_learner: serial]
[device_type: cpu]
[data_sample_strategy: bagging]
[data: ]
[valid: ]
[num_iterations: 500]
[learning_rate: 0.05]
[num_leaves: 31]
[num_threads: 0]
[seed: 0]
[deterministic: 0]
[force_col_wise: 0]
[force_row_wise: 0]
[histogram_pool_size: -1]
[max_depth: 6]
[min_data_in_leaf: 20]
[min_sum_hessian_in_leaf: 0.001]
[bagging_fraction: 0.8]
[pos_bagging_fraction: 1]
[neg_bagging_fraction: 1]
[bagging_freq: 5]
[bagging_seed: 3]
[bagging_by_query: 0]
[feature_fraction: 0.9]
[feature_fraction_bynode: 1]
[feature_fraction_seed: 2]
[extra_trees: 0]
[extra_seed: 6]
[early_stopping_round: 0]
[early_stopping_min_delta: 0]
[first_metric_only: 0]
[max_delta_step: 0]
[lambda_l1: 0.1]
[lambda_l2: 0.1]
[linear_lambda: 0]
[min_gain_to_split: 0]
[drop_rate: 0.1]
[max_drop: 50]
[skip_drop: 0.5]
[xgboost_dart_mode: 0]
[uniform_drop: 0]
[drop_seed: 4]
[top_rate: 0.2]
[other_rate: 0.1]
[min_data_per_group: 100]
[max_cat_threshold: 32]
[cat_l2: 10]
[cat_smooth: 10]
[max_cat_to_onehot: 4]
[top_k: 20]
[monotone_constraints: ]
[monotone_constraints_method: basic]
[monotone_penalty: 0]
[feature_contri: ]
[forcedsplits_filename: ]
[refit_decay_rate: 0.9]
[cegb_tradeoff: 1]
[cegb_penalty_split: 0]
[cegb_penalty_feature_lazy: ]
[cegb_penalty_feature_coupled: ]
[path_smooth: 0]
[interaction_constraints: ]
[verbosity: -1]
[saved_feature_importance_type: 0]
[use_quantized_grad: 0]
[num_grad_quant_bins: 4]
[quant_train_renew_leaf: 0]
[stochastic_rounding: 1]
[linear_tree: 0]
[max_bin: 255]
[max_bin_by_feature: ]
[min_data_in_bin: 3]
[bin_construct_sample_cnt: 200000]
[data_random_seed: 1]
[is_enable_sparse: 1]
[enable_bundle: 1]
[use_missing: 1]
[zero_as_missing: 0]
[feature_pre_filter: 1]
[pre_partition: 0]
[two_round: 0]
[header: 0]
[label_column: ]
[weight_column: ]
[group_column: ]
[ignore_column: ]
[categorical_feature: ]
[forcedbins_filename: ]
[precise_float_parser: 0]
[parser_config_file: ]
[objective_seed: 5]
[num_class: 1]
[is_unbalance: 0]
[scale_pos_weight: 1]
[sigmoid: 1]
[boost_from_average: 1]
[reg_sqrt: 0]
[alpha: 0.5]
[fair_c: 1]
[poisson_max_delta_step: 0.7]
[tweedie_variance_power: 1.5]
[lambdarank_truncation_level: 30]
[lambdarank_norm: 1]
[label_gain: ]
[lambdarank_position_bias_regularization: 0]
[eval_at: ]
[multi_error_top_k: 1]
[auc_mu_weights: ]
[num_machines: 1]
[local_listen_port: 12400]
[time_out: 120]
[machine_list_filename: ]
[machines: ]
[gpu_platform_id: -1]
[gpu_device_id: -1]
[gpu_use_dp: 0]
[num_gpu: 1]

end of parameters

pandas_categorical:[]
