tree
version=v4
num_class=1
num_tree_per_iteration=1
label_index=0
max_feature_idx=23
objective=quantile
feature_names=Age Base_Percent Relative_Weeks Weeks_squared Weeks_cubed Week_Decay lung_vol_ml hu_mean hu_std hu_skew hu_kurt glcm_contrast glcm_homogeneity glcm_energy glcm_correlation FVC_Week_Interaction Age_Week_Interaction Percent_Week_Interaction LungVol_FVC_Ratio LungVol_Week_Interaction HU_Week_Interaction Sex Smk_Ex Smk_Cur
feature_infos=[49:87] [43.352279059400402:153.01291248206601] [0:63] [0:3969] [0:250047] [0:0.7022611329001035] [0:5592.286722227258] [-1667.889892578125:-471.44827270507812] [0:1133.221435546875] [-0.66847141651245146:2.5510769576620098] [-1.4545910235226864:7.128640392331091] [0:45.714773921808323] [0:0.96754178542295155] [0:0.95945834483821657] [0:0.68814825198550156] [0:358344] [0:4819] [0:8568.723098995697] [0:1.6181385186947683] [0:206914.60872240853] [-95069.723876953125:0] [0:1] [0:1] [0:1]
tree_sizes=1915 1791 1794 1785 1615 1614 1623 1355 2031 1346 1621 1947 1952 2036 1613 1271 1705 1190 1803 1963 1437 1630 1691 1358 1351 1703 1621 1619 1973 1711 1707 1968 1792 1784 1787 2044 1784 1774 1780 1618 1707 1442 1975

Tree=0
num_leaves=22
num_cat=0
split_feature=15 18 18 16 9 0 0 16 18 12 8 0 6 6 18 6 13 10 8 15 11
split_gain=35.52 7.87181 6.78685 6.20054 4.46064 3.2519 3.05663 2.56226 2.48564 3.34185 1.56264 2.37401 1.41909 1.37935 1.28952 2.09619 1.61917 0.949629 0.783587 0.704938 0.364411
threshold=1615.0000000000002 0.46155262555722332 0.52756893477166644 1084.0000000000002 1.387573048269845 57.500000000000007 60.500000000000007 614.00000000000011 0.020672602989489589 0.71382713052496882 295.65740966796881 68.500000000000014 811.64965239358469 2013.1729436721632 0.041090433748752576 784.95204424983444 0.5654547339019228 2.1098913700608715 284.96220397949224 77648.500000000015 29.620795900612553
decision_type=2 2 2 2 2 2 2 2 2 2 2 2 2 2 2 2 2 2 2 2 2
left_child=-1 3 19 5 7 17 -6 -4 20 -10 11 18 -13 -8 16 -16 -12 -2 -5 -3 -7
right_child=1 2 4 10 6 8 13 -9 9 -11 14 12 -14 -15 15 -17 -18 -19 -20 -21 -22
leaf_value=0.98299404680728908 0.98271665573120115 0.98529120981693263 0.98194257169961929 0.97778117954730992 0.981464684009552 0.98222874104976654 0.98495692908763888 0.97926950007677083 0.98183487206697462 0.9800107061862946 0.98243086338043217 0.98371284008026127 0.97952176779508593 0.98219753205776217 0.97830976545810699 0.98012556433677678 0.97914554476737981 0.98256586492061615 0.98161897361278538 0.98430391848087306 0.98393101394176485
leaf_weight=123 23 34 26 28 20 25 35 30 266 41 27 22 20 23 85 54 25 22 25 20 20
leaf_count=123 23 34 26 28 20 25 35 30 266 41 27 22 20 23 85 54 25 22 25 20 20
internal_value=0.981903 0.978345 0.987389 0.975848 0.981391 0.979908 0.989077 0.970602 0.978279 0.976661 0.970233 0.97558 0.984356 0.994922 0.967604 0.965061 0.974517 0.99252 0.96854 1.00234 0.989194
internal_weight=994 871 188 683 134 397 78 56 352 307 286 95 42 58 191 139 52 45 53 54 45
internal_count=994 871 188 683 134 397 78 56 352 307 286 95 42 58 191 139 52 45 53 54 45
is_linear=0
shrinkage=1


Tree=1
num_leaves=19
num_cat=0
split_feature=15 17 9 1 12 16 6 8 11 12 13 13 6 14 1 12 6 15
split_gain=35.2359 7.74433 5.52715 6.01536 3.06835 3.29192 2.60467 3.27929 3.06108 2.02238 2.00908 4.08798 1.77467 1.69933 1.55463 1.34199 0.246605 0.00109014
threshold=1615.0000000000002 1709.4964452441748 1.9018666267464044 54.350506985265703 0.67444295433913515 391.00000000000006 1255.0478435120312 278.15986633300787 28.121763273952979 0.69727260748447295 0.54864191794494521 0.52779398675601519 661.75779733467209 0.4375675407847846 106.8636975412805 0.68546195895956163 93.242021072387686 112071.00000000001
decision_type=2 2 2 2 2 2 2 2 2 2 2 2 2 2 2 2 2 2
left_child=-1 2 3 -2 5 -5 10 -8 -9 -6 11 13 -4 -3 -14 -13 -12 -18
right_child=1 6 12 4 9 -7 7 8 -10 -11 16 15 14 -15 -16 -17 17 -19
leaf_value=0.00085029765963554613 0.0021667854487895989 -0.00065650582313537826 0.00024416528642177694 -5.9714093804358329e-05 0.00053808834403753223 -0.0018583858013153098 -0.0026929426193237323 0.00079658247530460253 -0.001843018941581251 -0.00038701683282852398 -0.0016836696863174461 -0.0018906385451555264 0.0017083414644002927 -0.0027319452911615362 0.00086887005716562444 0.001037642955780027 -0.006368910595774652 -0.0054810025170445448
leaf_weight=123 35 23 27 59 130 91 20 37 24 155 20 20 39 87 20 40 24 20
leaf_count=123 35 23 27 59 130 91 20 37 24 155 20 20 39 87 20 40 24 20
internal_value=-9.55638e-05 -0.00363908 -8.09207e-05 -0.00222293 -0.0038382 -0.00962692 -0.00990162 -0.00209618 0.00360065 -0.000771659 -0.0125801 -0.00967078 0.0115563 -0.0153951 0.0164129 0.000748752 -0.0202028 -0.0225624
internal_weight=994 871 556 470 435 150 315 81 61 285 234 170 86 110 59 60 64 44
internal_count=994 871 556 470 435 150 315 81 61 285 234 170 86 110 59 60 64 44
is_linear=0
shrinkage=0.05


Tree=2
num_leaves=19
num_cat=0
split_feature=15 18 18 15 14 23 15 14 12 1 7 7 12 8 9 21 11 15
split_gain=35.0943 7.57501 6.78685 5.37128 4.13157 3.81295 2.97593 2.38009 2.49854 2.20353 2.14946 2.93926 1.86389 3.28938 1.80571 1.80503 1.30069 0.704938
threshold=1615.0000000000002 0.46155262555722332 0.52756893477166644 29413.000000000004 0.49400857621742944 1.0000000180025095e-35 12397.000000000002 0.44691269072715561 0.66198301829275474 79.327417902749715 -657.40975952148426 -704.76074218749989 0.67828628445697403 280.40544128417974 1.1891574346231735 1.0000000180025095e-35 29.785884607382293 77648.500000000015
decision_type=2 2 2 2 2 2 2 2 2 2 2 2 2 2 2 2 2 2
left_child=-1 3 17 7 -4 10 -6 8 -2 -8 11 -5 15 -14 -12 -9 -10 -3
right_child=1 2 4 5 6 -7 9 12 16 -11 14 -13 13 -15 -16 -17 -18 -19
leaf_value=0.00080778277665377043 0.0017776282094419033 0.0030205561881884949 0.0015296494606882316 -0.0014190659280866409 0.0014303665626794082 0.00090670269727706758 -0.00053484025597572149 7.1939274668697539e-05 0.00053214952535927398 -0.0022739882841706304 -0.0020046973638236545 0.00014843367040157096 -0.0017946981992572554 0.00013828226178884406 -0.0042000586204230805 -0.0013604259043931922 -0.00082573932036757451 0.0020548466257751031
leaf_weight=123 20 34 36 154 23 23 45 31 20 30 59 64 22 134 75 60 21 20
leaf_count=123 20 34 36 154 23 23 45 31 20 30 59 64 22 134 75 60 21 20
internal_value=-4.52671e-05 -0.00358168 0.00528974 -0.00603133 -0.000708427 -0.0100507 -0.00606524 -0.00111977 0.00769231 -0.0109188 -0.0113462 -0.00823017 -0.00331849 0 -0.0163684 -0.0090011 0.000486618 0.0202403
internal_weight=994 871 188 683 134 375 98 308 61 75 352 218 247 156 134 91 41 54
internal_count=994 871 188 683 134 375 98 308 61 75 352 218 247 156 134 91 41 54
is_linear=0
shrinkage=0.05


Tree=3
num_leaves=19
num_cat=0
split_feature=15 17 18 14 6 6 9 11 18 12 18 9 6 10 6 2 6 16
split_gain=34.532 7.66904 4.91111 4.46241 3.33024 3.21636 2.36753 2.2797 2.46204 2.02318 2.62228 2.00657 2.56526 2.68311 2.44167 1.2296 0.263971 0.137143
threshold=1615.0000000000002 1709.4964452441748 0.46155262555722332 0.50981888233600292 1788.8501096191408 998.98851249694815 2.1606481846591779 28.922407864886374 0.042886686643309552 0.69379936168127698 0.34050895702778328 2.1606481846591779 108.35178076744081 3.0829379974311202 281.98844765956909 31.500000000000004 1983.5170813102566 3013.0000000000005
decision_type=2 2 2 2 2 2 2 2 2 2 2 2 2 2 2 2 2 2
left_child=-1 2 11 16 5 -5 7 9 -9 15 -11 12 13 -2 -14 -3 -4 -10
right_child=1 6 3 4 -6 -7 -8 8 17 10 -12 -13 14 -15 -16 -17 -18 -19
leaf_value=0.00076739363782108447 0.00066584643060341457 -0.00026704641799442933 0.0038276726384181559 -0.0010426953388378069 -0.0020387691088020856 0.0022365529946051566 0.00054098289087414211 -0.00055272723557427963 -0.0023773531262762885 -0.0038131376467179542 0.00022627994506619898 0.0005680468736216415 -0.0014921281667426235 -0.00089689132128842059 -0.00029101968035101234 -0.0019056788960471749 0.0011845301686786104 -0.005870356203941632
leaf_weight=123 76 32 32 20 24 31 27 27 42 40 56 28 72 38 215 67 20 24
leaf_count=123 76 32 32 20 24 31 27 27 42 40 56 28 72 38 215 67 20 24
internal_value=0.000145861 -0.00335208 0.000170833 0.00881196 0.000932091 0.00821918 -0.00958426 -0.0109163 -0.0174006 -0.00779088 -0.00254943 -0.00237707 -0.00329095 0.00302366 -0.00581679 -0.0128153 0.0200576 -0.0226172
internal_weight=994 871 556 127 75 51 315 288 93 195 96 429 401 114 287 99 52 66
internal_count=994 871 556 127 75 51 315 288 93 195 96 429 401 114 287 99 52 66
is_linear=0
shrinkage=0.05


Tree=4
num_leaves=17
num_cat=0
split_feature=15 17 18 18 14 9 11 10 9 6 10 6 9 6 6 18
split_gain=33.9746 7.45382 4.70941 4.17339 3.524 2.26215 2.29891 2.70994 1.93411 2.36715 2.68311 2.235 1.82945 2.39658 1.81392 0.857115
threshold=1615.0000000000002 1709.4964452441748 0.46155262555722332 0.52756893477166644 0.50981888233600292 2.1606481846591779 25.288821965276146 1.0893805892172848 2.1606481846591779 108.35178076744081 3.0829379974311202 281.98844765956909 1.4229219007349483 1361.7560010546001 1788.8501096191408 0.053742595787815574
decision_type=2 2 2 2 2 2 2 2 2 2 2 2 2 2 2 2
left_child=-1 2 8 -4 -5 6 7 -3 9 10 -2 -11 15 -14 -6 -8
right_child=1 5 3 4 14 -7 12 -9 -10 11 -12 -13 13 -15 -16 -17
leaf_value=0.00072902395593003053 0.00063255410907324394 0.0013298808639845838 0.0028005471446132303 0.0016004716220358373 0.00035345181357581139 0.00051393374633043609 -0.00036355445933994313 -0.0012473583368386638 0.00053964452994055838 -0.0014175217584054935 -0.000852046755223998 -0.00027646869633345952 -0.0021461521272501008 0.00022585392836248498 -0.0019368306533619818 -0.0034522283855348392
leaf_weight=123 76 23 31 35 37 27 23 32 28 72 38 215 117 25 24 68
leaf_count=123 76 23 31 35 37 27 23 32 28 72 38 215 117 25 24 68
internal_value=0.000347048 -0.00312249 0.000350656 0.00881196 0.00359001 -0.0092669 -0.0105692 -0.00127042 -0.00214402 -0.00304164 0.00302366 -0.00546848 -0.0127413 -0.0091133 -0.00360065 -0.0183315
internal_weight=994 871 556 127 96 315 288 55 429 401 114 287 233 142 61 91
internal_count=994 871 556 127 96 315 288 55 429 401 114 287 233 142 61 91
is_linear=0
shrinkage=0.05


Tree=5
num_leaves=17
num_cat=0
split_feature=19 18 18 9 16 10 17 10 10 10 16 7 7 1 0 19
split_gain=33.8711 7.92098 5.7332 4.6588 4.63012 4.67908 3.39499 2.85972 2.38456 3.2445 1.92273 1.84195 6.5522 2.02361 0.686723 0.567784
threshold=21.634639053752135 0.46155262555722332 0.52756893477166644 1.387573048269845 639.50000000000011 5.4728060782359407 1888.4254536461724 0.18595861270335476 0.9423287281375089 2.0341228526000865 614.00000000000011 -660.49163818359364 -704.76074218749989 82.614878239635317 71.500000000000014 36660.404180259713
decision_type=2 2 2 2 2 2 2 2 2 2 2 2 2 2 2 2
left_child=-1 4 15 10 7 11 14 -2 -9 -10 -4 12 -6 -13 -5 -3
right_child=1 2 3 6 5 -7 -8 8 9 -11 -12 13 -14 -15 -16 -17
leaf_value=0.00069257275813353059 -0.00156849042472057 0.0026372143712753929 -5.7085256941732945e-05 0.0014867097146527399 -0.0015758725850526234 0.0016306038353058939 -0.00042512525845773145 0.0013501987884137812 -0.00069343558175198334 0.00022474250429821985 -0.0027286082234467047 -0.0023838476703158837 0.00047562097989930498 -0.0044385149220238116 0.0030262315477207315 0.0020075528138224054
leaf_weight=131 25 37 22 31 139 22 25 29 90 157 29 112 69 37 22 20
leaf_count=131 25 37 22 31 139 22 25 29 90 157 29 112 69 37 22 20
internal_value=0.00087253 -0.00270754 0.00642128 0.000542215 -0.00521247 -0.00888948 0.00825864 -0.000564596 0.00088736 -0.000687981 -0.0111546 -0.0102772 -0.00718405 -0.014554 0.0154426 0.0196147
internal_weight=997 866 186 129 680 379 78 301 276 247 51 357 208 149 53 57
internal_count=997 866 186 129 680 379 78 301 276 247 51 357 208 149 53 57
is_linear=0
shrinkage=0.05


Tree=6
num_leaves=17
num_cat=0
split_feature=15 17 23 18 7 12 0 12 9 11 6 12 14 20 15 18
split_gain=32.3112 7.31362 7.63528 5.49672 4.45014 3.61882 2.79067 3.28862 2.17469 1.73074 1.25832 1.23941 1.74453 0.973384 0.798266 0.129764
threshold=1615.0000000000002 2134.7985865383289 1.0000000180025095e-35 0.46155262555722332 -650.82492065429676 0.64516863092169374 57.500000000000007 0.67444295433913515 2.1606481846591779 28.743370421487889 694.16223648551102 0.67633086538044795 0.47240385644241606 -9079.9476623535138 91484.000000000015 0.55009953726773564
decision_type=2 2 2 2 2 2 2 2 2 2 2 2 2 2 2 2
left_child=-1 3 8 5 13 -2 10 -8 11 -6 -7 14 -13 -5 -3 -15
right_child=1 2 -4 4 9 6 7 -9 -10 -11 -12 12 -14 15 -16 -17
leaf_value=0.00065794412022685553 0.0020558302059617783 -0.0016812552378041746 0.0014702743301706067 0.0015411830209196955 0.0006609622076411165 0.00056521880274162386 -0.001173542858900556 -0.00021296241832037823 0.0016042913751423916 -0.00096445579752176826 -6.3946046724128189e-05 -0.0025787550566394482 -0.0010679183576553619 0.0029018084227236843 -0.0036029679418070337 0.0013823155226011464
leaf_weight=125 25 20 23 25 30 30 114 287 21 23 21 39 107 24 53 30
leaf_count=125 25 20 23 25 30 30 114 287 21 23 21 39 107 24 53 30
internal_value=0.0011734 -0.00223025 -0.00919802 0.00077163 0.00980318 -0.00171872 -0.00275382 -0.00416355 -0.0118492 -0.00131827 0.00821918 -0.0133272 -0.0105749 0.0173198 -0.0187415 0.0211645
internal_weight=997 872 263 609 132 477 452 401 240 53 51 219 146 79 73 54
internal_count=997 872 263 609 132 477 452 401 240 53 51 219 146 79 73 54
is_linear=0
shrinkage=0.05


Tree=7
num_leaves=14
num_cat=0
split_feature=19 9 1 16 18 19 18 7 6 0 10 10 17
split_gain=32.3142 6.95548 5.93284 4.26534 2.65964 2.80038 1.94014 3.45396 2.39662 1.62 1.60213 3.4235 1.09958
threshold=21.634639053752135 1.9018666267464044 54.350506985265703 638.50000000000011 0.39172330230771751 12520.534018313494 0.32401603747180635 -644.41839599609364 484.05868486404427 70.500000000000014 3.148567508127079 2.1801532335190443 1647.0932462314559
decision_type=2 2 2 2 2 2 2 2 2 2 2 2 2
left_child=-1 2 -2 10 5 9 8 -8 -5 -3 11 -4 -6
right_child=1 4 3 6 12 -7 7 -9 -10 -11 -12 -13 -14
leaf_value=0.00062504691421551024 0.002067818605032096 0.00085423132705517721 -0.00029324338990659453 -0.001469595538821933 0.0016009975878017836 -0.0014197451547557196 5.3115911903969805e-05 -0.0025079382766522943 -0.0043576658564091408 -0.00011337073945881793 -0.0016123144983689942 0.00055479977072157849 0.00081087927849118337
leaf_weight=131 37 35 191 165 39 24 114 58 48 24 25 84 22
leaf_count=131 37 35 191 165 39 24 114 58 48 24 25 84 22
internal_value=0.00142413 -0.00207251 -0.00407838 -0.00513794 0.00794587 0.00204573 -0.00862114 -0.00461941 -0.0118254 0.00795262 -0.000649783 0.000436205 0.0158756
internal_weight=997 866 722 685 144 83 385 172 213 59 300 275 61
internal_count=997 866 722 685 144 83 385 172 213 59 300 275 61
is_linear=0
shrinkage=0.05


Tree=8
num_leaves=22
num_cat=0
split_feature=19 18 18 14 7 0 8 20 8 6 19 0 11 15 0 17 7 11 19 13 9
split_gain=31.896 6.58011 4.30844 4.39795 3.74229 3.98103 5.32018 3.3047 3.19322 2.27345 2.16866 2.16118 1.90139 1.67938 1.83321 1.64784 1.18137 1.05178 0.986332 0.963612 0.133986
threshold=21.634639053752135 0.46155262555722332 0.52756893477166644 0.49400857621742944 -660.49163818359364 69.500000000000014 295.65740966796881 -3790.962280273437 1051.385437011719 1788.8501096191408 41639.847737277574 71.500000000000014 31.214956927108503 97318.000000000015 61.500000000000007 800.27882998528833 -724.16949462890614 29.039724585970514 2310.2403462906368 0.51973425320739619 1.3341563960977341
decision_type=2 2 2 2 2 2 2 2 2 2 2 2 2 2 2 2 2 2 2 2 2
left_child=-1 4 19 12 5 8 16 13 10 15 -2 -8 -4 14 -6 -5 -7 18 -9 -3 -15
right_child=1 2 3 9 7 6 11 17 -10 -11 -12 -13 -14 20 -16 -17 -18 -19 -20 -21 -22
leaf_value=0.00059379456850473529 0.00043569094867824124 0.0010973455710868941 0.0045492897840983424 0.0010246054845785002 0.00016757563140989696 -0.00033945626669386054 0.00013843612581476705 -0.00011630741064121708 -0.0017911288921678981 -0.0017712677155628132 -0.0015487925216229438 -0.0020023552638258973 0.00023134903898875959 -0.005322143382473896 -0.0023105220575827703 -0.00089010157553997551 0.0038787969566184688 -0.00062433153729903881 0.0011182373078028607 0.0035830506533821166 -0.0057921514916233763
leaf_weight=131 196 23 22 23 28 20 28 24 29 38 23 98 21 20 120 25 20 31 21 34 22
leaf_count=131 196 23 22 23 28 20 28 24 29 38 23 98 21 20 120 25 20 31 21 34 22
internal_value=0.00157457 -0.00189932 0.00642128 0.00131681 -0.00418321 -0.00119536 -0.00719446 -0.00881248 0.00280129 -0.00516841 0.00488361 -0.0122522 0.0143852 -0.0123356 -0.00975692 0.00197505 0.00860349 0 0.00487805 0.0178634 -0.0212589
internal_weight=997 866 186 129 680 414 166 266 248 86 219 126 43 190 148 48 40 76 45 57 42
internal_count=997 866 186 129 680 414 166 266 248 86 219 126 43 190 148 48 40 76 45 57 42
is_linear=0
shrinkage=0.05


Tree=9
num_leaves=14
num_cat=0
split_feature=15 18 6 16 6 9 16 9 0 13 10 16 17
split_gain=31.634 6.2359 3.92827 3.74092 3.4691 3.559 2.9133 2.75096 2.51582 2.28949 1.14548 1.06673 1.03723
threshold=1615.0000000000002 0.46155262555722332 2013.1729436721632 1004.5000000000001 26.298715209960942 2.1606481846591779 1928.5000000000002 1.3111410785589444 64.500000000000014 0.60765652360309574 5.6721420032739411 3600.0000000000005 1786.7363555512918
decision_type=2 2 2 2 2 2 2 2 2 2 2 2 2
left_child=-1 4 7 -4 -2 6 9 -3 -9 -6 -7 -8 -10
right_child=1 2 3 -5 5 10 11 8 12 -11 -12 -13 -14
leaf_value=0.00056410484007949908 0.001250063498542381 -0.00022679417349121824 0.00068889480072521498 -0.0018028600110080535 -0.0001861058527520776 -2.151149230227023e-05 -0.0026785808757342211 -1.8257623942030678e-06 0.0028761351265449101 -0.0022621958549233936 0.001646564971691017 -0.00094178856501144772 0.0015739874636637565
leaf_weight=125 29 29 35 20 403 24 120 22 48 41 26 45 30
leaf_count=125 29 29 35 20 403 24 120 22 48 41 26 45 30
internal_value=0.00142413 -0.00194358 0.00621945 -0.00490018 -0.00413457 -0.00488545 -0.00594319 0.0109992 0.0149351 -0.00381671 0.00788423 -0.0116293 0.0191421
internal_weight=997 872 184 55 688 659 609 129 100 444 50 165 78
internal_count=997 872 184 55 688 659 609 129 100 444 50 165 78
is_linear=0
shrinkage=0.05


Tree=10
num_leaves=17
num_cat=0
split_feature=15 18 18 20 23 9 19 21 15 12 13 12 12 9 7 20
split_gain=30.1782 5.74696 4.7124 4.06333 4.30544 3.18156 2.76206 2.66845 2.42474 2.06937 1.66921 1.34232 2.65173 1.14961 0.820042 0.721947
threshold=1615.0000000000002 0.46155262555722332 0.5940660075082721 -3698.4213256835933 1.0000000180025095e-35 1.387573048269845 984.39497630310075 1.0000000180025095e-35 70495.500000000015 0.74779641322552892 0.53372261427738066 0.66000155447300457 0.67444295433913515 1.7201042218839129 -650.30728149414051 -9079.9476623535138
decision_type=2 2 2 2 2 2 2 2 2 2 2 2 2 2 2 2
left_child=-1 3 7 4 6 -4 10 -3 -6 -8 -2 -5 -13 -14 15 -9
right_child=1 2 5 11 8 -7 9 14 -10 -11 -12 12 13 -15 -16 -17
leaf_value=0.0005358995980755233 0.0012696647049122156 -0.00060362041510629853 -0.0017204028141637906 0.0016925127214804658 -3.910077053627115e-05 0.0012062518879310897 -0.000947428977591383 0.0015346778199803847 0.0014468123775798064 -0.0031374594776757917 -0.00029637470577269513 -0.0010432920271337355 0.00081222463184749409 -9.981450098663914e-05 0.00035582931759149119 0.0020421798383490788
leaf_weight=122 27 21 37 21 20 36 392 31 20 25 41 30 76 24 28 33
leaf_count=122 27 21 37 21 20 36 392 31 20 25 41 30 76 24 28 33
internal_value=0.00167158 -0.00161814 0.00615261 -0.00376424 -0.00584651 -0.00369357 -0.00715316 0.0125553 0.00985037 -0.00867897 0.00212922 0.00344143 0.00149885 0.00544456 0.0162324 0.0194228
internal_weight=984 862 186 676 525 73 485 113 40 417 68 151 130 100 92 64
internal_count=984 862 186 676 525 73 485 113 40 417 68 151 130 100 92 64
is_linear=0
shrinkage=0.05


Tree=11
num_leaves=21
num_cat=0
split_feature=15 7 1 12 20 12 12 16 1 12 1 13 7 8 11 1 1 16 11 7
split_gain=30.1782 4.54399 5.327 3.98324 3.81397 3.64559 4.03853 3.36295 3.24296 3.14691 3.12919 2.848 2.43334 2.24471 2.18538 2.16523 1.33948 1.31134 0.861818 0.230681
threshold=1615.0000000000002 -660.49163818359364 89.320321614240825 0.71785047661009427 -3698.4213256835933 0.67850997614319708 0.66198301829275474 522.50000000000011 77.833565990780571 0.67444295433913515 91.203454518026874 0.52779398675601519 -718.61373901367176 283.49481201171881 28.743370421487889 65.802906555410814 77.088600378406611 614.00000000000011 27.445970532520214 -674.97503662109364
decision_type=2 2 2 2 2 2 2 2 2 2 2 2 2 2 2 2 2 2 2 2
left_child=-1 3 4 5 9 6 7 -2 19 11 17 -3 -8 -10 -11 -6 -17 -5 -4 -7
right_child=1 2 18 10 15 8 12 -9 13 14 -12 -13 -14 -15 -16 16 -18 -19 -20 -21
leaf_value=0.00050910461817174624 0.0014465875948137697 -0.003139958902994522 -0.003950733671787862 -0.00068493348034438242 0.0017000143067017028 0.0023474975091015149 6.7281402712482402e-05 -6.011639506364741e-05 -0.0016250955537351565 0.00013368212251673727 0.00031845596753071195 -0.0005187298722851869 -0.0023372510017085624 0.00055583161903673963 -0.0012574233402107143 -0.0010383571926998931 0.00061016947205962124 -0.0027090634159182394 -0.00097787686187103822 0.0012197733158839708
leaf_weight=122 27 49 40 24 28 35 39 39 24 101 26 28 71 177 28 20 26 33 26 21
leaf_count=122 27 49 40 24 28 35 39 39 24 101 26 28 71 177 28 20 26 33 26 21
internal_value=0.00167158 -0.00161814 -0.00605316 0.00134664 -0.00301678 0.00327869 -0.00224304 0.00748865 0.00707896 -0.00652596 -0.00866426 -0.0145266 -0.00812897 0.00407757 -0.00170411 0.00668016 0 -0.0152364 -0.0188351 0.0177362
internal_weight=984 862 346 516 280 433 176 66 257 206 83 77 110 201 129 74 46 57 66 56
internal_count=984 862 346 516 280 433 176 66 257 206 83 77 110 201 129 74 46 57 66 56
is_linear=0
shrinkage=0.05


Tree=12
num_leaves=21
num_cat=0
split_feature=15 7 1 14 0 20 8 20 8 0 14 13 8 0 6 7 0 7 0 13
split_gain=29.7847 4.31084 5.04162 3.30422 3.29702 3.81333 3.45848 2.93325 2.80419 2.28979 4.28506 4.28506 1.96691 1.95717 2.39504 1.7346 1.41756 1.3093 1.18947 0.794812
threshold=1615.0000000000002 -660.49163818359364 67.780167398999211 0.53800462288720607 68.500000000000014 -27004.404327392574 301.99308776855474 -18014.532592773434 311.15977478027349 69.500000000000014 0.53384336041474845 0.52779398675601519 308.05574035644537 66.500000000000014 964.74747842788713 -706.54229736328114 61.500000000000007 -694.56613159179676 64.500000000000014 0.52874530031377087
decision_type=2 2 2 2 2 2 2 2 2 2 2 2 2 2 2 2 2 2 2 2
left_child=-1 3 7 4 5 18 15 -3 -8 12 -11 -12 19 16 -15 -6 -9 -7 -2 -4
right_child=1 2 9 -5 6 17 8 13 -10 10 11 -13 -14 14 -16 -17 -18 -19 -20 -21
leaf_value=0.00048364938726315758 -0.0013772368195126368 -0.0013896695605454146 -0.003510521543986761 0.0014808214535313475 -5.4116095884293447e-05 0.00036128056577855173 -0.0027984762290194755 0.00094517394761996503 -0.000422294959347147 -0.0034062654622941725 -0.0016128327507127283 0.0018441949338203535 -0.00043360678427015187 0.00053303788743808698 0.0022404346013544241 0.0010138196963720204 -0.00070105607650159394 0.0011256428741665493 0.00035545770526227154 -0.0018371467996405101
leaf_weight=122 38 36 53 38 64 126 33 31 105 33 25 28 25 24 23 25 30 57 30 38
leaf_count=122 38 36 53 38 64 126 33 31 105 33 25 28 25 24 23 25 30 57 30 38
internal_value=0.001824 -0.00144415 -0.00576423 0.00144352 0.000303284 0.00426125 -0.00405108 0.00135323 -0.00901521 -0.010861 -0.00458769 0.00414313 -0.0154608 0.00550416 0.0131635 0.00359147 -0.000327332 0.0080284 -0.00580029 -0.0188804
internal_weight=984 862 346 516 478 251 227 144 138 202 86 53 116 108 47 89 61 183 68 91
internal_count=984 862 346 516 478 251 227 144 138 202 86 53 116 108 47 89 61 183 68 91
is_linear=0
shrinkage=0.05


Tree=13
num_leaves=22
num_cat=0
split_feature=15 7 1 18 12 8 9 0 15 13 12 6 13 9 1 13 15 19 15 0 0
split_gain=30.309 4.60861 4.32635 3.49726 3.39288 2.66271 2.72616 2.77129 2.38638 2.29633 2.02421 1.95375 1.90384 3.8148 1.81914 1.65145 1.43503 0.655127 0.572947 0.457902 0.0680384
threshold=5592.0000000000009 -660.49163818359364 67.360295695749826 0.46155262555722332 0.67444295433913515 1051.385437011719 1.5648539668197754 71.500000000000014 1615.0000000000002 0.5478935473077361 0.6980864931065045 1024.2007076568605 0.51628350737441397 1.125978276274805 79.327417902749715 0.51941806841874227 86287.500000000015 10282.021505455015 29996.000000000004 66.500000000000014 67.500000000000014
decision_type=2 2 2 2 2 2 2 2 2 2 2 2 2 2 2 2 2 2 2 2 2
left_child=8 3 4 5 18 6 11 -8 -1 16 19 -2 17 -14 -10 -15 20 -4 -3 -6 -5
right_child=1 2 12 9 10 -7 7 -9 14 -11 -12 -13 13 15 -16 -17 -18 -19 -20 -21 -22
leaf_value=0.00045946691789999772 0.0010371062836912804 -0.00031372225538589538 -0.0038759269086361074 0.0012285933170397669 0.00035075023602583748 -0.0020947596905060762 9.8319854022854705e-05 -0.0016121050675126593 0.00081527778203710488 -0.00055469441349060287 -0.0007863412486813049 -0.00010070099864255277 0.00040251590068415832 -6.2147128238643215e-05 1.3278415012546453e-05 -0.0026393894863209369 0.00026051589681166942 -0.0020085193291971282 -0.0029423560215599692 0.0020305665145829376 0.0014044868738748385
leaf_weight=122 69 20 20 27 25 28 169 96 29 22 27 32 33 25 20 95 20 29 20 30 26
leaf_count=122 69 20 20 27 25 28 169 96 29 22 27 32 33 25 20 95 20 29 20 30 26
internal_value=0.00202723 -0.00199237 -0.00661833 0.00106318 0.000778051 -0.00100228 0.000122917 -0.00252735 0.0211572 0.00967403 0.00663825 0.00712166 -0.0111084 -0.00829523 0.011609 -0.012448 0.0139535 -0.0197556 -0.0110973 0.0121597 0.0182674
internal_weight=984 813 324 489 122 394 366 265 171 95 82 101 202 153 49 120 73 49 40 55 53
internal_count=984 813 324 489 122 394 366 265 171 95 82 101 202 153 49 120 73 49 40 55 53
is_linear=0
shrinkage=0.05


Tree=14
num_leaves=17
num_cat=0
split_feature=15 18 18 20 23 19 9 15 21 1 0 13 0 11 15 1
split_gain=29.3939 4.51295 4.21406 3.79488 3.97075 3.21356 3.18156 2.42474 2.38235 1.82174 1.81411 1.7504 1.1305 1.31783 0.823935 0.260053
threshold=1615.0000000000002 0.46155262555722332 0.5940660075082721 -3790.962280273437 1.0000000180025095e-35 984.39497630310075 1.387573048269845 70495.500000000015 1.0000000180025095e-35 94.204557072402466 71.500000000000014 0.63031383053665069 63.500000000000007 26.639099314432837 59428.500000000007 76.838049577751164
decision_type=2 2 2 2 2 2 2 2 2 2 2 2 2 2 2 2
left_child=-1 3 8 4 5 10 -4 -6 -3 12 -2 -7 -5 -14 15 -10
right_child=1 2 6 9 7 11 -8 -9 14 -11 -12 -13 13 -15 -16 -17
leaf_value=0.00043649357200499788 0.0010376780402586827 -0.00038913675491317748 -0.001418021007242515 0.00079542315616445427 -7.2518633598855916e-05 -0.00084758802442527488 0.0010464704349290117 0.0013938381301835502 0.001171507224706908 -0.00071276059302133885 -0.00039892012401447353 -0.0026058444445554163 0.00088231031277867251 1.7036358485070236e-05 0.00054784994979121258 0.0011671636511877803
leaf_weight=122 41 21 37 27 20 394 36 20 31 31 25 21 29 68 34 27
leaf_count=122 41 21 37 27 20 394 36 20 31 31 25 21 29 68 34 27
internal_value=0.00197643 -0.00127015 0.00561526 -0.00317261 -0.00521973 -0.00648514 -0.00369357 0.00985037 0.0116711 0.00367505 0.00370651 -0.00811853 0.00640612 0.0038105 0.0151466 0.0188468
internal_weight=984 862 186 676 521 481 73 40 113 155 66 415 124 97 92 58
internal_count=984 862 186 676 521 481 73 40 113 155 66 415 124 97 92 58
is_linear=0
shrinkage=0.05


Tree=15
num_leaves=13
num_cat=0
split_feature=15 1 9 17 16 11 12 6 12 1 6 6
split_gain=29.9803 5.99956 4.63338 5.16305 3.08732 2.38194 1.96196 1.87848 1.71875 0.814385 0.790445 0.317119
threshold=1615.0000000000002 54.350506985265703 1.9018666267464044 3712.1097168798933 1928.5000000000002 25.288821965276146 0.67163044806878769 26.298715209960942 0.67444295433913515 92.759810451379067 1361.7560010546001 916.4598140913015
decision_type=2 2 2 2 2 2 2 2 2 2 2 2
left_child=-1 11 4 6 7 -6 -4 -3 -9 -8 -7 -2
right_child=1 2 3 -5 5 10 9 8 -10 -11 -12 -13
leaf_value=0.000414668893404746 0.00050401237579970057 0.0015298658731366711 -0.00019148931307006736 -0.0009616493133865645 0.00013738360265431738 -0.0022929319258634729 0.0010612795552996602 -0.00066584444228927071 -3.2460189262251139e-05 0.0006203041057373849 -0.0003780999074895153 0.0035232449922341091
leaf_weight=122 20 23 26 32 33 125 55 150 316 38 21 20
leaf_count=122 20 23 26 32 33 125 55 150 316 38 21 20
internal_value=0.00175313 -0.00153649 -0.00246612 0.00542687 -0.00425834 -0.00988275 0.0102435 -0.00218769 -0.00288565 0.0136412 -0.0126283 0.0173317
internal_weight=981 859 819 151 668 179 119 489 466 93 146 40
internal_count=981 859 819 151 668 179 119 489 466 93 146 40
is_linear=0
shrinkage=0.05


Tree=16
num_leaves=18
num_cat=0
split_feature=15 1 16 7 7 9 1 19 12 18 1 6 12 13 1 2 6
split_gain=29.5868 5.88852 4.23254 3.67231 3.44116 3.38723 2.74042 2.11756 1.86287 2.03587 1.70044 1.47367 1.2709 0.956576 0.912887 0.562962 0.317119
threshold=1615.0000000000002 54.350506985265703 1928.5000000000002 -682.92562866210926 -704.76074218749989 1.8870992791198657 67.780167398999211 8190.6719340830778 0.67850997614319708 0.046244865206873161 59.168161544296701 1070.6586722709474 0.68795959698240172 0.5254416199146773 90.507849116665767 7.5000000000000009 916.4598140913015
decision_type=2 2 2 2 2 2 2 2 2 2 2 2 2 2 2 2 2
left_child=-1 16 3 4 5 -3 10 -8 9 -4 -5 12 -10 -13 -11 -6 -2
right_child=1 2 8 6 15 -7 7 -9 11 14 -12 13 -14 -15 -16 -17 -18
leaf_value=0.00039393544873450592 0.00047881175700971727 -0.00045959068302111331 -9.525637790076813e-05 -0.00078501142276410363 0.0010652159292959429 0.00063569646062484615 -0.0002646667019142124 -0.0016496420661121281 0.00015795734419765396 -0.0029271445538519821 0.00050051923304157426 -0.0002850096779864475 -0.0021644982931397993 0.00044140753282765347 -0.00091927134117194284 0.0019521048538451325 0.0033470827426224092
leaf_weight=122 20 122 24 39 27 117 125 74 20 34 66 31 69 23 22 26 20
leaf_count=122 20 122 24 39 27 117 125 74 20 34 66 31 69 23 22 26 20
internal_value=0.00190602 -0.00136189 -0.00228299 -7.54907e-05 0.00391989 0.00133835 -0.00392963 -0.00738322 -0.00815778 -0.0142946 0.00256898 -0.00468204 -0.00864198 0.00175601 -0.0195187 0.0154426 0.0173317
internal_weight=981 859 819 596 292 239 304 199 223 80 105 143 89 54 56 53 40
internal_count=981 859 819 596 292 239 304 199 223 80 105 143 89 54 56 53 40
is_linear=0
shrinkage=0.05


Tree=17
num_leaves=12
num_cat=0
split_feature=15 1 7 7 17 9 15 23 1 0 6
split_gain=29.0663 4.99339 4.18524 3.75112 3.20908 3.95947 2.49192 2.8955 3.38361 1.15173 0.547637
threshold=1615.0000000000002 54.350506985265703 -682.92562866210926 -692.42062377929676 3712.1097168798933 1.9018666267464044 5592.0000000000009 1.0000000180025095e-35 78.533449670267274 65.500000000000014 916.4598140913015
decision_type=2 2 2 2 2 2 2 2 2 2 2
left_child=-1 10 3 4 5 -3 -4 8 -8 -6 -2
right_child=1 2 6 -5 9 -7 7 -9 -10 -11 -12
leaf_value=0.00037423867629777786 0.00045487116915923222 -0.00020544859528563443 0.00015932448239696918 0.0011849283175793702 -0.00017378972972009467 0.00060391163759360156 -0.0006084267259220677 0.00091423397872456296 -0.001799849870728637 -0.0010833695522993291 0.0031797286054912944
leaf_weight=122 20 195 28 34 26 119 220 28 131 38 20
leaf_count=122 20 195 28 34 26 119 220 28 131 38 20
internal_value=0.00210988 -0.00112909 -0.00197778 0.00156515 0.000119016 0.00221267 -0.00557603 -0.00664732 -0.00788949 -0.0100624 0.0160848
internal_weight=981 859 819 412 378 314 407 379 351 64 40
internal_count=981 859 819 412 378 314 407 379 351 64 40
is_linear=0
shrinkage=0.05


Tree=18
num_leaves=19
num_cat=0
split_feature=19 18 12 6 16 7 10 14 12 1 20 7 10 6 9 9 9 6
split_gain=27.9752 4.84114 4.18076 3.91417 2.68263 2.17522 2.01271 3.32591 1.93436 1.57951 1.84617 1.26528 1.25136 0.903663 0.891892 0.810134 0.246333 0.0685298
threshold=1.0000000180025095e-35 0.46155262555722332 0.66719270650073514 2013.1729436721632 1928.5000000000002 -663.06277465820301 1.0000000180025095e-35 0.40638994451323113 0.67444295433913515 81.093254303345816 -8918.5379028320294 -709.41030883789051 4.0087088310462091 1426.9795484924318 1.1551302770459773 1.5648539668197754 1.4515923400017321 53.775146760017599
decision_type=2 2 2 2 2 2 2 2 2 2 2 2 2 2 2 2 2 2
left_child=17 4 -3 9 6 11 -2 -8 -9 13 -11 12 -6 -4 -7 -13 -16 -1
right_child=1 2 3 -5 5 14 7 8 -10 10 -12 15 -14 -15 16 -17 -18 -19
leaf_value=0.00035552674248288675 -0.0017061252624336221 -0.0014308700990304014 0.0032503000254468731 -0.00070236369686068343 -0.001302754964906583 -0.0010211025615379677 0.0013412516560468602 -0.00060230569177812396 6.3748364367199892e-05 -0.00012244456179931752 0.00097333494011406512 0.00072211429171832597 2.0356749662120422e-05 0.00034362286679769929 -0.0031206083135927572 -0.00065736920151105447 -0.0050073844945506575 0.00035552674248288675
leaf_weight=20 39 32 59 38 47 23 29 136 268 24 26 20 23 21 22 28 20 106
leaf_count=20 39 32 59 38 47 23 29 136 268 24 26 20 23 21 22 28 20 106
internal_value=0.00216084 -0.0010759 0.00572214 0.00889352 -0.00315982 -0.00830147 -0.00115442 -0.000161625 -0.00134868 0.0130284 0.00588822 -0.00419136 -0.00848787 0.0174157 -0.0156682 0.00197505 -0.0200713 0.0241475
internal_weight=981 855 200 168 655 183 472 433 404 130 50 118 70 80 65 48 42 126
internal_count=981 855 200 168 655 183 472 433 404 130 50 118 70 80 65 48 42 126
is_linear=0
shrinkage=0.05


Tree=19
num_leaves=21
num_cat=0
split_feature=15 18 18 17 10 7 15 18 0 1 6 14 1 16 17 6 0 8 7 13
split_gain=28.0391 4.46642 3.32254 4.94066 2.66566 2.60784 2.99346 2.51657 4.66663 4.3369 2.81154 2.78691 1.78254 1.70008 1.38163 0.821565 0.759737 0.73807 0.608612 0.416688
threshold=1615.0000000000002 0.46155262555722332 0.52756893477166644 1888.4254536461724 1.4715720026824342 -660.49163818359364 14067.000000000002 0.042886686643309552 73.500000000000014 80.461933179007161 694.16223648551102 0.49314119391785799 67.780167398999211 2354.0000000000005 2949.8698485526716 1674.2008870554694 68.500000000000014 308.05574035644537 -597.14611816406239 0.51776105667095618
decision_type=2 2 2 2 2 2 2 2 2 2 2 2 2 2 2 2 2 2 2 2
left_child=-1 5 19 4 -4 7 16 8 14 10 -9 -11 13 -8 -2 -6 18 -14 -7 -3
right_child=1 2 3 -5 15 6 12 9 -10 11 -12 -13 17 -15 -16 -17 -18 -19 -20 -21
leaf_value=0.00033775040535874434 0.0014195619605928357 0.00051323091307183823 -0.00083505033052634354 -0.00099583301751447468 0.0027009488296416834 0.0001388681656824875 0.00015779844671321154 -0.0029456307178107877 -0.0014374520808535603 -0.00023839904726285222 -0.00059534039058905814 0.00091611678265218213 -0.0036090887563207108 -0.0023578908871005584 -8.7171387688531055e-05 0.00038020071861490925 0.00066522449228443865 -0.0017730167062331799 -0.0005924622902328758 0.0026847393716791013
leaf_weight=122 75 20 35 39 30 24 52 39 30 140 42 63 63 22 22 36 23 44 23 37
leaf_count=122 75 20 35 39 30 24 52 39 30 140 42 63 63 22 22 36 23 44 23 37
internal_value=0.00251758 -0.000663485 0.00593607 0.00174875 0.00761622 -0.00263555 -0.00665074 -0.000170275 0.00566483 -0.00279831 -0.0125771 0.00108321 -0.0100497 -0.00398111 0.0110196 0.0135401 0.00206847 -0.0141923 -0.0014862 0.0161121
internal_weight=981 859 197 140 101 662 251 411 127 284 81 203 181 74 97 66 70 107 47 57
internal_count=981 859 197 140 101 662 251 411 127 284 81 203 181 74 97 66 70 107 47 57
is_linear=0
shrinkage=0.05


Tree=20
num_leaves=15
num_cat=0
split_feature=15 10 1 11 17 7 11 17 6 12 13 19 10 6
split_gain=28.6662 3.0625 2.64126 2.9174 2.54506 1.97593 1.90634 1.90178 1.73082 1.40897 1.40145 0.448699 0.42745 0.355084
threshold=2045.5000000000002 3.901648040942352 54.350506985265703 24.519684459626472 812.10117254263378 -715.12030029296864 25.165418170369467 393.82593532311182 1788.8501096191408 0.73094406660281186 0.4743017052109107 2500.7461392564228 5.567955749323799 916.4598140913015
decision_type=2 2 2 2 2 2 2 2 2 2 2 2 2 2
left_child=-1 2 13 7 6 10 -5 -4 -6 -9 -3 -12 -13 -2
right_child=1 5 3 4 8 -7 -8 9 -10 -11 11 12 -14 -15
leaf_value=0.00032086288509080576 0.00043568899015369037 -0.00020496475845798725 -0.00022445542302776124 -0.0015916184677413293 -0.00092368396019355543 -0.0010262297852930257 1.3426945130146085e-05 0.0018388661887152548 -0.0023882960795522158 8.4576815369208361e-05 0.00047513446342076215 0.00049819842366609639 0.0013619434680400501 0.0027231797324623001
leaf_weight=119 20 24 20 21 301 21 235 33 32 23 20 42 21 20
leaf_count=119 20 24 20 21 301 21 235 33 32 23 20 42 21 20
internal_value=0.00199034 -0.00128436 -0.00258119 -0.00333784 -0.00453234 0.00581577 -0.000761421 0.00584757 -0.00741519 0.0106061 0.0085901 0.0116727 0.0137876 0.00985037
internal_weight=952 833 705 665 589 128 256 76 333 56 107 83 63 40
internal_count=952 833 705 665 589 128 256 76 333 56 107 83 63 40
is_linear=0
shrinkage=0.05


Tree=21
num_leaves=17
num_cat=0
split_feature=15 8 13 12 10 13 18 17 10 0 18 1 10 1 20 0
split_gain=27.3704 3.02525 3.02982 3.52104 4.26683 3.37255 3.18154 2.94471 2.52211 3.52104 1.90499 1.75703 2.11917 1.52346 1.50572 0.149202
threshold=2045.5000000000002 280.40544128417974 0.54864191794494521 0.67828628445697403 2.2336369062467534 0.51776105667095618 0.053742595787815574 1994.7194270610646 1.1064921009676725 68.500000000000014 0.57264884312732767 96.52326513787456 -0.11237240692287703 64.807881437313867 -4752.7248535156241 65.500000000000014
decision_type=2 2 2 2 2 2 2 2 2 2 2 2 2 2 2 2
left_child=-1 8 3 4 6 10 -3 -6 9 -2 -5 12 -4 -14 -7 -10
right_child=1 2 11 5 7 14 -8 -9 15 -11 -12 -13 13 -15 -16 -17
leaf_value=0.00030481974083626517 -0.0027591446658095098 0.00083496792218340499 -0.0023145201841315967 -0.00040954072182567693 0.00053660685954664005 0.00066890758437297975 -0.0014580054380761321 -0.00082527890101065653 -0.0014998215242152252 0.0012705473409140911 0.00050789174237025891 0.00068799315927980389 9.1549242826588495e-05 -0.001141421992600869 0.0013475898906701424 -0.002825341262538339
leaf_weight=119 39 26 25 78 88 121 114 41 20 24 25 23 45 94 49 21
leaf_count=119 39 26 25 78 88 121 114 41 20 24 25 23 45 94 49 21
internal_value=0.00209537 -0.00110431 2.74311e-05 0.00192769 -0.00211817 0.00593189 -0.00817273 0.00441518 -0.00907781 -0.00269414 -0.00116392 -0.00545163 -0.00728215 -0.00481668 0.0102587 -0.0187348
internal_weight=952 833 729 542 269 273 140 129 104 63 103 187 164 139 170 41
internal_count=952 833 729 542 269 273 140 129 104 63 103 187 164 139 170 41
is_linear=0
shrinkage=0.05


Tree=22
num_leaves=18
num_cat=0
split_feature=15 7 7 1 16 8 11 9 9 13 6 0 11 1 7 6 15
split_gain=26.9878 3.14975 3.63094 3.05445 2.4925 2.28639 3.26138 2.84599 2.79395 1.83146 1.81458 1.63223 1.6074 1.27584 1.01278 0.943385 0.122332
threshold=2045.5000000000002 -660.49163818359364 -668.89611816406239 89.320321614240825 1443.5000000000002 283.49481201171881 24.907562965242864 1.7326148522809028 1.9018666267464044 0.51706209146720283 1159.0731657480626 66.500000000000014 26.563535834738648 64.807881437313867 -704.76074218749989 111.20964260101319 42162.500000000007
decision_type=2 2 2 2 2 2 2 2 2 2 2 2 2 2 2 2 2
left_child=-1 2 5 4 10 7 14 -2 -8 -5 13 -12 -6 -3 -7 -14 -11
right_child=1 3 -4 9 12 6 8 -9 -10 16 11 -13 15 -15 -16 -17 -18
leaf_value=0.00028957875379445055 0.0012989292201404101 0.0003822918711977874 0.0011530062757932503 -6.4772589589540136e-05 0.00018049116589364256 8.8819827643793484e-05 -0.00032796812664076248 -0.0020738931785430959 0.00033993805399825939 -0.0018741882320078285 3.6071171805990286e-05 0.0015101141601768565 -0.0010900846168850509 -0.00075007203042564146 0.0028844944790461071 -0.0024006839006552928 -0.0054403114505267693
leaf_weight=119 20 49 24 20 26 21 252 29 124 20 25 21 21 83 26 52 20
leaf_count=119 20 49 24 20 26 21 252 29 124 20 25 21 21 83 26 52 20
internal_value=0.00225291 -0.000924259 0.0016025 -0.00465737 -0.0024179 0.000624868 0.0018199 -0.0095723 0.000252592 -0.0148918 0.00109489 0.00965293 -0.00877901 -0.00185466 0.0142251 -0.0125855 -0.0210723
internal_weight=952 833 496 337 277 472 423 49 376 60 178 46 99 132 47 73 40
internal_count=952 833 496 337 277 472 423 49 376 60 178 46 99 132 47 73 40
is_linear=0
shrinkage=0.05


Tree=23
num_leaves=14
num_cat=0
split_feature=15 7 1 12 12 19 1 8 8 0 8 8 15
split_gain=27.2425 3.45547 2.60326 2.8606 2.63463 3.24872 2.51598 2.32717 2.44452 2.64393 3.42434 1.97792 0.899674
threshold=2045.5000000000002 -660.49163818359364 94.684519297427912 0.6980864931065045 0.67444295433913515 11637.538269787505 65.802906555410814 281.65837097167974 1051.385437011719 65.500000000000014 301.99308776855474 309.67208862304693 21207.000000000004
decision_type=2 2 2 2 2 2 2 2 2 2 2 2 2
left_child=-1 7 3 4 5 -3 -6 -2 9 11 -11 -9 -5
right_child=1 2 -4 12 6 -7 -8 8 -10 10 -12 -13 -14
leaf_value=0.0002750998161047291 -0.0014046420455440856 -0.00020664899159943408 -0.0028277415395522006 -0.00011054472740074095 0.0015912393882616784 -0.002607837339598601 -1.7120295138589592e-05 2.2750191073331318e-05 -0.00085986003263747177 0.00062107218192664635 -0.00049924293154073322 0.0011798797372535447 -0.0029417163025587168
leaf_weight=119 33 80 32 26 33 32 97 56 32 140 149 86 37
leaf_count=119 33 80 32 26 33 32 97 56 32 140 149 86 37
internal_value=0.00214788 -0.00104429 -0.00495402 -0.00350705 -0.00101198 -0.00664585 0.00380477 0.0016025 0.00252645 0.00352586 0.000760982 0.0091133 -0.0129952
internal_weight=952 833 337 305 242 112 130 496 463 431 289 142 63
internal_count=952 833 337 305 242 112 130 496 463 431 289 142 63
is_linear=0
shrinkage=0.05


Tree=24
num_leaves=14
num_cat=0
split_feature=15 10 11 1 8 6 18 18 15 12 18 0 8
split_gain=27.3704 2.90884 2.69984 2.70622 2.99938 2.10399 1.63468 1.94741 2.19954 1.55793 1.35606 0.794971 0.547924
threshold=2045.5000000000002 3.901648040942352 24.519684459626472 57.252780766957052 273.23526000976568 1054.2416010715303 0.39172330230771751 0.041897027338321319 28970.500000000004 0.73094406660281186 0.39003892602168871 71.500000000000014 296.65525817871099
decision_type=2 2 2 2 2 2 2 2 2 2 2 2 2
left_child=-1 2 9 10 -5 -6 7 -3 -9 11 -4 -2 -8
right_child=1 6 3 4 5 -7 12 8 -10 -11 -12 -13 -14
leaf_value=0.0002613448252994921 0.00018435681651351456 0.0010416231953927825 -7.8594076288796003e-06 -0.0026072892768726737 -0.0006042567147346745 7.1241921672576819e-05 0.00022603047981117343 0.00019574749861183405 -0.00095047266332818356 -0.00014275320596143505 0.001511677418848595 0.0026247836034963556 0.0015973558562679679
leaf_weight=119 21 20 29 34 390 147 26 24 34 34 29 21 24
leaf_count=119 21 20 29 34 390 147 26 24 34 34 29 21 24
internal_value=0.00209537 -0.00110431 -0.00236846 -0.00344937 -0.00450009 -0.00357475 0.00581577 0.00121639 -0.00335628 0.0065046 0.00679862 0.0129454 0.0128743
internal_weight=952 833 705 629 571 537 128 78 58 76 58 42 50
internal_count=952 833 705 629 571 537 128 78 58 76 58 42 50
is_linear=0
shrinkage=0.05


Tree=25
num_leaves=18
num_cat=0
split_feature=15 17 18 10 12 18 10 9 1 8 20 0 0 22 17 1 6
split_gain=28.9418 3.57914 3.7687 2.56612 2.54243 2.26234 2.13432 2.67422 2.40024 1.96264 2.44756 1.71574 1.62829 1.49058 0.576126 0.480832 0.255334
threshold=1615.0000000000002 2562.2029122246408 0.46155262555722332 2.2773564713200503 0.64516863092169374 0.042886686643309552 1.0000000180025095e-35 1.125978276274805 78.169719207382315 298.39784240722662 -28688.456420898434 69.500000000000014 66.500000000000014 1.0000000180025095e-35 636.62782685723425 76.838049577751164 908.11081506786411
decision_type=2 2 2 2 2 2 2 2 2 2 2 2 2 2 2 2 2
left_child=-1 2 4 11 -2 -3 8 -8 -6 10 -7 14 -11 -13 -4 -5 -14
right_child=1 5 3 15 6 9 7 -9 -10 12 -12 13 16 -15 -16 -17 -18
leaf_value=0.00024827758403451751 0.0014439399140500687 0.00022557261429896337 0.00011400558156837438 0.0042593839641192404 -0.0023640419672999236 0.00032940771729550455 0.00073385022961195703 -0.00012591027638255702 0.00015192230330225988 -0.0010843852027437096 -0.0014189178554831984 -6.7200886930465778e-05 -0.0029809055223302518 0.0013156231982974721 -0.00019714209154439999 0.00064590561608511847 -0.002535584507759914
leaf_weight=126 22 37 26 22 28 39 58 387 21 37 39 20 31 24 25 36 20
leaf_count=126 22 37 26 22 28 39 58 387 21 37 39 20 31 24 25 36 20
internal_value=0.00254984 -0.000682261 0.00107607 0.00796865 -0.000959116 -0.00649926 -0.00171018 -0.000606605 -0.011609 -0.0090006 -0.003137 0.00283912 -0.0141317 0.0100907 -0.00332681 0.0162651 -0.0199609
internal_weight=998 872 669 153 516 203 494 445 49 166 78 95 88 44 51 58 51
internal_count=998 872 669 153 516 203 494 445 49 166 78 95 88 44 51 58 51
is_linear=0
shrinkage=0.05


Tree=26
num_leaves=17
num_cat=0
split_feature=15 17 18 10 10 9 14 1 18 11 0 1 8 17 13 1
split_gain=28.8127 3.06349 3.85055 2.56612 2.41698 4.09827 3.12574 2.40024 2.06662 1.75481 1.71574 1.05739 1.00592 0.576126 0.521502 0.480832
threshold=1615.0000000000002 2562.2029122246408 0.46155262555722332 2.2773564713200503 -1.0000000180025095e-35 0.87985111611798261 0.39782877217149309 78.169719207382315 0.042886686643309552 25.288821965276146 69.500000000000014 108.05132310736501 289.78292846679693 636.62782685723425 0.54587893020040468 76.838049577751164
decision_type=2 2 2 2 2 2 2 2 2 2 2 2 2 2 2 2
left_child=-1 2 4 10 7 -6 -7 -2 -3 -10 13 12 -11 -4 -12 -5
right_child=1 8 3 15 5 6 -8 -9 9 11 14 -13 -14 -15 -16 -17
leaf_value=0.00023586370483278941 -0.0022458398689349291 0.00021429398358401299 0.00010830530248995552 0.0040464147659132815 0.0011424088982241703 0.001095454398299539 -0.00011379840942413455 0.00014432618813714493 0.00044863613358497037 -0.00051466285608495752 0.00021464101930450676 -0.00014444205418622237 -0.0026075347222365933 -0.0001872849869671789 0.0012498420383826037 0.00061361033528086481
leaf_weight=126 28 37 26 22 20 27 420 21 24 23 22 28 91 25 22 36
leaf_count=126 28 37 26 22 20 27 420 21 24 23 22 28 91 25 22 36
internal_value=0.00259994 -0.000624928 0.00100135 0.00796865 -0.001056 4.28174e-05 -0.000939387 -0.011609 -0.00600689 -0.00839856 0.00283912 -0.0105208 -0.0126643 -0.00332681 0.0100907 0.0162651
internal_weight=998 872 669 153 516 467 447 49 203 166 95 142 114 51 44 58
internal_count=998 872 669 153 516 467 447 49 203 166 95 142 114 51 44 58
is_linear=0
shrinkage=0.05


Tree=27
num_leaves=17
num_cat=0
split_feature=15 16 18 11 11 19 10 6 12 8 6 17 20 0 20 12
split_gain=29.0712 2.71434 2.00033 1.99755 1.97039 2.11916 1.94884 1.88859 2.20363 2.26349 1.67143 1.168 3.44674 0.818447 0.661169 0.44802
threshold=1615.0000000000002 1443.5000000000002 0.46155262555722332 26.639099314432837 27.454725983558291 54391.028583068859 2.2773564713200503 26.298715209960942 0.74779641322552892 280.40544128417974 908.11081506786411 2992.1825967154186 -28688.456420898434 69.500000000000014 -5928.9062499999991 0.68192066762134307
decision_type=2 2 2 2 2 2 2 2 2 2 2 2 2 2 2 2
left_child=-1 2 7 11 -5 10 13 -2 9 -9 -6 -3 -13 15 -8 -4
right_child=1 3 6 4 5 -7 14 8 -10 -11 -12 12 -14 -15 -16 -17
leaf_value=0.00022407051959115188 0.0011700160055528653 0.00041292156882161146 0.00010289003736545788 -0.0025552981976326413 -0.00095525186969953055 -0.0023339142981199826 0.00051066053623902705 -0.0013982285090948122 -0.0016912554351392107 5.6609058297288356e-05 0.00067359896576949527 0.00029050552475148319 -0.0022464356644123886 0.0005100588114285709 0.0018870643685007127 -0.00035068548742963614
leaf_weight=126 20 39 20 36 110 28 20 53 20 342 42 35 20 37 29 21
leaf_count=126 20 39 20 36 110 28 20 53 20 342 42 35 20 37 29 21
internal_value=0.00249975 -0.000739594 0.00132539 -0.00449855 -0.00714947 -0.00496946 0.006845 -0.000275799 -0.0010118 -0.00017717 -0.00259698 0.00154091 -0.0030853 0.00185659 0.014664 -0.00291971
internal_weight=998 872 562 310 216 180 127 435 415 395 152 94 55 78 49 41
internal_count=998 872 562 310 216 180 127 435 415 395 152 94 55 78 49 41
is_linear=0
shrinkage=0.05


Tree=28
num_leaves=21
num_cat=0
split_feature=15 17 18 10 12 0 11 11 18 18 19 0 15 20 11 11 17 1 13 20
split_gain=28.6838 2.68568 2.87287 3.7673 2.17989 1.86529 1.81663 3.04857 2.68885 1.77396 1.51576 1.78756 0.999576 1.53975 1.49058 1.4509 0.677223 0.520625 0.448295 0.0852232
threshold=1615.0000000000002 2992.1825967154186 0.46155262555722332 2.2336369062467534 0.71382713052496882 69.500000000000014 26.580278789365668 27.176406532251075 0.39280726729207455 0.52756893477166644 4715.4918141151229 67.500000000000014 185417.50000000003 -28688.456420898434 27.454725983558291 25.288821965276146 636.62782685723425 69.221304916481827 0.54587893020040468 -5928.9062499999991
decision_type=2 2 2 2 2 2 2 2 2 2 2 2 2 2 2 2 2 2 2 2
left_child=-1 2 4 5 6 16 8 -8 -2 12 11 -6 13 15 -15 -3 -4 -5 -7 -19
right_child=1 9 3 17 10 18 7 -9 -10 -11 -12 -13 -14 14 -16 -17 -18 19 -20 -21
leaf_value=0.00021286699361159345 0.0011152521045025066 0.00060057204471750114 -1.0552766642962787e-05 0.0037800774442608544 0.00072555486752961531 0.00017840602776785232 -0.0033162076153206103 2.6564604887369116e-06 -0.00036102680463398766 -0.0023493930762431281 -0.0019603016088916292 -0.0012460022228113822 -0.0027464611044523998 -0.003271971812641944 -4.8169352770849329e-05 -0.00031363796974635539 -0.00033315121305815267 0.00034121753806222178 0.00097576362409347865 0.00059868994150885093
leaf_weight=126 79 21 22 22 21 22 39 309 36 21 32 29 20 24 20 60 27 23 24 21
leaf_count=126 79 21 22 22 21 22 39 309 36 21 32 29 20 24 20 60 27 23 24 21
internal_value=0.00265004 -0.000567595 0.000771845 0.00664184 -0.000953953 0.000210305 0.000367091 -0.00142201 0.00582103 -0.00629139 -0.00846529 -0.00289421 -0.00427292 -0.00255795 -0.0100907 0.00147965 -0.00651731 0.0158094 0.00748373 0.0123583
internal_weight=998 872 706 161 545 95 463 348 115 166 82 50 145 125 44 81 49 66 46 44
internal_count=998 872 706 161 545 95 463 348 115 166 82 50 145 125 44 81 49 66 46 44
is_linear=0
shrinkage=0.05


Tree=29
num_leaves=18
num_cat=0
split_feature=15 17 18 10 12 0 10 9 1 18 18 9 13 17 1 13 19
split_gain=28.1713 2.34633 2.44802 3.40952 2.04276 1.86529 1.78791 2.2567 1.94077 1.34035 1.17442 1.21924 1.40919 0.677223 0.666216 0.448295 0.0408994
threshold=1615.0000000000002 2992.1825967154186 0.46155262555722332 2.2336369062467534 0.64516863092169374 69.500000000000014 -0.11237240692287703 1.125978276274805 78.169719207382315 0.52756893477166644 0.39172330230771751 1.8835359381698316 0.54464931961575735 636.62782685723425 69.221304916481827 0.54587893020040468 16676.256637141731
decision_type=2 2 2 2 2 2 2 2 2 2 2 2 2 2 2 2 2
left_child=-1 2 4 5 -2 13 8 -8 -6 10 11 12 -3 -4 -5 -7 -16
right_child=1 9 3 14 6 15 7 -9 -10 -11 -12 -13 -14 -15 16 -17 -18
leaf_value=0.00020222364393101546 0.0011220930511799067 0.00015579623400294729 -1.0025128310814369e-05 0.0035910735720478095 -0.0025610570482049845 0.00016948572637945914 0.00073377686137031113 -0.00017771591361236683 -6.53292879132017e-05 -0.0022319234224309702 0.00038165044843227193 -0.0021598765794617614 -0.0014867669369160897 -0.00031649365240524755 0.00068838866294663743 0.00092697544288880551 0.00033210957445331535
leaf_weight=126 23 54 22 22 24 22 68 408 22 21 28 27 36 27 22 24 22
leaf_count=126 23 54 22 22 24 22 68 408 22 21 28 27 36 27 22 24 22
internal_value=0.00285042 -0.000338264 0.000913468 0.00633147 -0.000678775 0.000210305 -0.00133116 -0.000409578 -0.0107375 -0.00568934 -0.00392833 -0.00614859 -0.00327414 -0.00651731 0.015053 0.00748373 0.0112245
internal_weight=998 872 706 161 545 95 522 476 46 166 145 117 90 49 66 46 44
internal_count=998 872 706 161 545 95 522 476 46 166 145 117 90 49 66 46 44
is_linear=0
shrinkage=0.05


Tree=30
num_leaves=18
num_cat=0
split_feature=15 18 1 18 1 11 8 12 11 13 13 1 19 1 16 8 13
split_gain=26.7425 2.55395 4.05073 3.83781 3.16111 3.10045 2.53147 2.90199 2.24569 2.20768 1.67639 1.89445 1.69444 1.64189 1.42358 1.19818 1.12451
threshold=2045.5000000000002 0.30477481830656072 116.36225245457301 0.04975150846074914 117.69963857150901 28.743370421487889 274.14001464843756 0.71785047661009427 30.762651298439568 0.51706209146720283 0.5504454723935257 86.56778828688816 498.80712761280535 79.100580344303864 1978.0000000000002 271.92787170410162 0.54864191794494521
decision_type=2 2 2 2 2 2 2 2 2 2 2 2 2 2 2 2 2
left_child=-1 2 3 10 5 6 15 -8 13 14 11 -2 -12 -7 -5 -3 -11
right_child=1 4 -4 9 -6 8 7 -9 -10 16 12 -13 -14 -15 -16 -17 -18
leaf_value=0.00019211246173446718 0.00050117265416419756 0.00015266136505693307 0.0010727274460322956 0.00024688836209667834 -0.0011483009183679532 -1.8916109762090462e-05 0.00073117847350283598 -0.00091355574543372509 0.00068013983085962184 -0.0023190472222988645 3.3728966255169857e-05 -0.00098566281602752159 -0.0027032725988606733 -0.0032599930018349047 -0.0016341383012348195 -0.0023945842196897494 -0.0011796680357049061
leaf_weight=122 98 22 39 42 28 33 254 31 32 53 41 25 47 31 22 20 52
leaf_count=122 98 22 39 42 28 33 254 31 32 53 41 25 47 31 22 20 52
internal_value=0.00261566 -0.000453971 -0.00326891 -0.00485399 0.0021503 0.00323801 0.00556405 0.00726061 -0.00463059 -0.0104672 -0.000331596 0.00341186 -0.00561862 -0.0100624 -0.00304212 -0.00581948 -0.0149382
internal_weight=992 870 419 380 451 423 327 285 96 169 211 123 88 64 64 42 105
internal_count=992 870 419 380 451 423 327 285 96 169 211 123 88 64 64 42 105
is_linear=0
shrinkage=0.05


Tree=31
num_leaves=21
num_cat=0
split_feature=15 12 16 13 8 11 9 9 14 9 12 14 18 13 13 3 1 7 3 7
split_gain=26.2536 2.93087 4.06379 2.7391 2.72781 4.06957 2.55207 1.95226 1.9352 1.73076 1.83426 2.54966 1.61874 1.33239 1.32693 1.28825 0.952376 0.632247 0.624984 0.521502
threshold=2045.5000000000002 0.67444295433913515 429.50000000000006 0.5504454723935257 280.40544128417974 25.288821965276146 1.9679438973351442 1.5586253810833404 0.47668782712281638 1.6103418401316563 0.74779641322552892 0.505370457306758 0.39172330230771751 0.52779398675601519 0.51380770035200529 182.50000000000003 93.480734902229571 -704.76074218749989 20.500000000000004 -1495.0139160156248
decision_type=2 2 2 2 2 2 2 2 2 2 2 2 2 2 2 2 2 2 2 2
left_child=-1 2 14 4 7 17 -7 15 12 10 11 -5 -4 16 18 -3 -10 -6 -2 -12
right_child=1 3 8 9 5 6 -8 -9 13 -11 19 -13 -14 -15 -16 -17 -18 -19 -20 -21
leaf_value=0.00018250683864774465 0.00028001518350332657 -0.0011695456634397722 -0.00060785728513101662 0.00088241082898530556 0.00049723130636966097 0.00012221054527095654 0.00083101749423092341 -0.0015354346644049278 -0.0017578115583383016 -0.0038356276774830669 -0.00030891816217998026 -2.747853017197044e-05 0.00081527819119359135 -7.4427063561663403e-05 -0.00015097636978362862 0.00019031020018127622 -0.00069187444290683695 0.0028066464738048416 0.00097602358394369712 -0.0025566546739598881
leaf_weight=122 20 20 34 24 20 226 67 27 77 26 22 105 21 28 29 21 33 27 21 22
leaf_count=122 20 20 34 24 20 226 67 27 77 26 22 105 21 28 29 21 33 27 21 22
internal_value=0.00281726 -0.000224112 -0.00463702 0.00168012 0.00403087 0.00586592 0.00365063 -0.00506608 -0.00838944 -0.00311401 -0.00127094 0.00170411 -0.000362976 -0.0115496 0.00563481 0.00170316 -0.0140327 0.0195329 0.0114355 -0.0100907
internal_weight=992 870 263 607 408 340 293 68 193 199 173 129 55 138 70 41 110 47 41 44
internal_count=992 870 263 607 408 340 293 68 193 199 173 129 55 138 70 41 110 47 41 44
is_linear=0
shrinkage=0.05


Tree=32
num_leaves=19
num_cat=0
split_feature=15 12 16 13 1 8 11 9 6 0 8 12 12 1 11 11 12 17
split_gain=26.1321 2.28863 3.2264 2.55425 2.64578 3.01659 2.67401 1.73076 2.0413 1.63235 2.43825 1.55942 1.52291 1.40539 0.986114 0.894641 0.850349 0.661584
threshold=2045.5000000000002 0.67444295433913515 463.00000000000006 0.5504454723935257 66.475569126522814 275.37631225585943 25.288821965276146 1.6103418401316563 1255.0478435120312 65.500000000000014 322.87141418457037 0.66114084910437765 0.66719270650073514 91.979163500217922 27.270570671982245 28.455778279810691 0.66169954631514971 2648.0917565867144
decision_type=2 2 2 2 2 2 2 2 2 2 2 2 2 2 2 2 2 2
left_child=-1 2 11 4 15 -6 -7 8 13 10 16 -2 -13 -5 -11 -3 -4 -16
right_child=1 3 9 7 5 6 -8 -9 -10 14 -12 12 -14 -15 17 -17 -18 -19
leaf_value=0.00017338149671535799 0.00049760409983787279 0.0018189038218759197 -0.001215076706495441 -0.00068995918729076186 -0.0020537067798106711 0.00088972180107447791 0.00010193236419971941 -0.0036438462936089159 0.00076589739970492907 -0.00064028404561218284 0.00055932175190270828 -0.0014115843298392662 0.00032844521761843663 0.00097497053228141623 -0.0016699209804213857 0.0010906580984024084 -0.00055775327388154496 -0.0012947819412965384
leaf_weight=122 38 30 20 119 37 60 253 26 31 25 31 20 20 23 55 28 28 26
leaf_count=122 38 30 20 119 37 60 253 26 31 25 31 20 20 23 55 28 28 26
internal_value=0.00286765 -0.000166648 -0.00406689 0.0015154 0.00378584 0.00212796 0.00373683 -0.00311401 -0.00127094 -0.00767153 -0.00214918 0.00441741 -0.00236908 -0.00383533 -0.0117342 0.0136833 -0.00925156 -0.0144266
internal_weight=992 870 263 607 408 350 313 199 173 185 79 78 40 142 106 58 48 81
internal_count=992 870 263 607 408 350 313 199 173 185 79 78 40 142 106 58 48 81
is_linear=0
shrinkage=0.05


Tree=33
num_leaves=19
num_cat=0
split_feature=3 16 12 1 1 0 8 0 13 12 18 16 17 12 12 6 12 3
split_gain=23.9414 2.46115 3.35815 2.4535 3.23258 2.48841 2.29598 1.80999 2.7459 1.59401 1.79161 1.2907 1.10635 1.17849 0.836816 0.77222 0.682326 0.0306612
threshold=1.0000000180025095e-35 475.00000000000006 0.67444295433913515 67.558816661110157 70.842017226594763 66.500000000000014 274.14001464843756 71.500000000000014 0.52779398675601519 0.65130991987471754 0.50525825155299287 1899.0000000000002 551.11159805001876 0.71168618681085893 0.6980864931065045 1788.8501096191408 0.66775601228232051 650.50000000000011
decision_type=2 2 2 2 2 2 2 2 2 2 2 2 2 2 2 2 2 2
left_child=-1 9 7 5 -5 14 -6 8 11 -2 12 -3 13 -11 -4 -12 -9 -7
right_child=1 2 3 4 6 17 -8 16 -10 10 15 -13 -14 -15 -16 -17 -18 -19
leaf_value=0.00016471242187959258 0.0012732073684035062 -0.00022255217302425968 0.00025177030974701808 -0.0022678835137414561 -0.0019510214408201389 0.0021677003431453791 0.00011647443343079379 -0.00085545454467166884 0.0012667904333047821 5.4522789031016818e-05 0.0012852503051598132 -0.0024317892648979158 0.0009603809473275771 -0.00031171669275356921 -0.0026913495457955489 0.00043299884258728719 -0.0023917775607811553 0.00085970488084675392
leaf_weight=112 21 65 20 30 21 21 284 25 23 148 24 45 33 34 20 20 26 20
leaf_count=112 21 65 20 30 21 21 284 25 23 148 24 45 33 34 20 20 26 20
internal_value=0.00317004 0.000392001 -0.0014081 0.00106945 -0.00080573 0.00887793 0.000721075 -0.00703422 -0.00390684 0.00426633 0.0031648 -0.00722071 0.00125523 -0.000247117 0 0.0123583 -0.0150685 0.0175182
internal_weight=992 880 600 416 335 81 305 184 133 280 259 110 215 182 40 44 51 41
internal_count=992 880 600 416 335 81 305 184 133 280 259 110 215 182 40 44 51 41
is_linear=0
shrinkage=0.05


Tree=34
num_leaves=19
num_cat=0
split_feature=15 12 16 12 16 1 7 13 11 14 15 12 12 1 10 0 16 10
split_gain=25.5279 2.40409 2.72784 2.42451 2.7703 2.6514 2.9486 2.12717 2.11229 2.09909 2.80433 2.04434 2.27612 1.69317 1.58189 0.99708 0.610888 0.4568
threshold=2045.5000000000002 0.67444295433913515 961.00000000000011 0.7200624878307661 3812.0000000000005 66.475569126522814 -681.19372558593739 0.52779398675601519 29.276193231243724 0.48483536061932275 9945.0000000000018 0.72624083425426511 0.74779641322552892 93.047092764913813 3.148567508127079 67.500000000000014 851.50000000000011 2.2336369062467534
decision_type=2 2 2 2 2 2 2 2 2 2 2 2 2 2 2 2 2 2
left_child=-1 2 9 4 5 8 -7 13 -3 14 -11 -5 -13 17 -2 -12 -14 -4
right_child=1 3 7 11 -6 6 -8 -9 -10 10 15 12 16 -15 -16 -17 -18 -19
leaf_value=0.00015647680078561545 0.0010616147421192768 0.0012293581087283818 -0.0022000962310818688 -0.0039381233546010646 -0.00071356716170563892 0.00038112306428748633 -0.00039213423092249178 0.00037208002052371294 -8.1339875909203229e-05 0.00046587077350191964 -0.00041768032863448158 0.00042160205113468409 -6.7834982996056733e-05 -0.00049121296107098591 7.9133111867185643e-05 -0.0024054747885864261 -0.0019907695932148473 -0.0014295056907130455
leaf_weight=122 23 72 30 20 30 228 157 27 25 24 40 31 23 34 36 23 21 26
leaf_count=122 23 72 30 20 30 228 157 27 25 24 40 31 23 34 36 23 21 26
internal_value=0.00311965 0.000109183 -0.00387685 0.00184484 0.00321226 0.00413815 0.00225915 -0.00956447 0.0115345 0.00065024 -0.00424799 -0.00546793 -0.00159787 -0.013263 0.00795262 -0.00982567 -0.00895692 -0.0186275
internal_weight=992 870 263 607 512 482 385 117 97 146 87 95 75 90 59 63 44 56
internal_count=992 870 263 607 512 482 385 117 97 146 87 95 75 90 59 63 44 56
is_linear=0
shrinkage=0.05


Tree=35
num_leaves=22
num_cat=0
split_feature=15 18 10 18 14 11 11 16 8 8 14 1 6 1 0 0 8 16 7 2 17
split_gain=23.7824 2.96105 2.68323 2.29117 2.81184 2.19852 2.89481 2.66626 2.13071 1.47942 1.46773 1.44602 1.2563 1.25271 1.2178 0.658686 0.639484 0.563819 0.296272 0.229232 0.0378887
threshold=2045.5000000000002 0.43070530043995131 2.0924657021123951 0.041090433748752576 0.41744860616873936 26.639099314432837 27.369751895973888 1772.0000000000002 291.25894165039068 305.27256774902349 0.47551448103271693 68.797191571476262 1086.0538782863623 70.698023629130759 70.500000000000014 65.500000000000014 311.15977478027349 1060.5000000000002 -677.01226806640614 13.500000000000002 1341.0855508301536
decision_type=2 2 2 2 2 2 2 2 2 2 2 2 2 2 2 2 2 2 2 2 2
left_child=-1 3 9 4 17 8 18 -8 12 15 -6 -4 -5 -11 -12 -3 20 -2 -7 -17 -13
right_child=1 2 11 5 10 6 7 -9 -10 13 14 16 -14 -15 -16 19 -18 -19 -20 -21 -22
leaf_value=0.00014865296074633718 0.001612072155719771 -4.3099179427874558e-05 0.0029026811405784172 0.00093363646424524387 -0.0034457138361710079 -0.0018188547874196993 -1.92332492589431e-05 -0.0012855603346454249 0.0007012022390683382 9.2794280662081296e-05 -0.00016977214045192369 0.00096618279812403236 -0.00046492858342293001 -0.00081954366000581709 0.00084549372333374284 0.00043836416938122791 4.2006124565874275e-05 0.00050000351957623648 -0.004500394620121956 0.0003093325710019579 0.00026696609355140457
leaf_weight=115 26 29 32 30 28 21 201 94 34 24 54 24 56 27 48 21 22 20 21 20 24
leaf_count=115 26 29 32 30 28 21 201 94 34 24 54 24 56 27 48 21 22 20 21 20 24
internal_value=0.00316136 0.000286182 0.00524429 -0.00145317 0.00337876 -0.00332531 -0.00539899 -0.00362589 0.00245629 0.000165153 -0.000345888 0.0112145 -0.00168409 -0.00626223 0.00239961 0.00492154 0.00706134 0.0139913 -0.017696 0.00900243 0.0102911
internal_weight=971 856 223 633 176 457 337 295 120 121 130 102 86 51 102 70 70 46 42 41 48
internal_count=971 856 223 633 176 457 337 295 120 121 130 102 86 51 102 70 70 46 42 41 48
is_linear=0
shrinkage=0.05


Tree=36
num_leaves=19
num_cat=0
split_feature=15 18 10 7 0 10 13 20 0 9 14 8 13 19 7 1 20 19
split_gain=23.7824 3.21158 2.55443 1.91965 2.80122 4.51761 2.11605 2.02618 1.8981 1.53161 1.52527 1.48261 1.38848 1.29527 1.56879 1.27232 1.10148 0.58423
threshold=2045.5000000000002 0.46155262555722332 2.2773564713200503 -592.90643310546864 68.500000000000014 1.1331520991907251 0.54464931961575735 -27004.404327392574 67.500000000000014 1.1152515033198183 0.5943688614513053 286.22706604003912 0.52874530031377087 38887.850040993704 -636.09033203124989 76.838049577751164 -39889.697998046868 16996.962300879011
decision_type=2 2 2 2 2 2 2 2 2 2 2 2 2 2 2 2 2 2
left_child=-1 3 10 4 7 9 -7 16 12 -6 13 -9 -5 14 -3 -4 -2 -17
right_child=1 2 15 8 5 6 -8 11 -10 -11 -12 -13 -14 -15 -16 17 -18 -19
leaf_value=0.0001412203127090228 0.0004051045795768038 -0.00037662691583226774 0.0030266528756344338 -0.0047398454491558023 2.2244183881467428e-05 -0.0003164528294115343 -0.0035289442541527327 -0.00063852438756461518 0.00038659116407094854 0.0019248391102374834 0.00062735495212061238 0.00036679785450820517 -0.00031506215941026208 -0.0013601093991970322 0.00030457686884278193 0.0011831813372581213 -0.0016253534575037976 0.00011042943019121677
leaf_weight=115 20 35 24 24 22 189 53 30 27 28 24 195 36 26 26 21 42 34
leaf_count=115 20 35 24 24 22 189 53 30 27 28 24 195 36 26 26 21 42 34
internal_value=0.00316136 0.000286182 0.00602315 -0.00134364 -0.000293559 -0.00374872 -0.00658819 0.00320446 -0.00826636 0.00988024 0.00108011 0.00541981 -0.013228 -0.00195178 0.00196399 0.0128951 -0.0047504 0.00852995
internal_weight=971 856 190 666 579 292 242 287 87 50 111 225 60 87 61 79 62 55
internal_count=971 856 190 666 579 292 242 287 87 50 111 225 60 87 61 79 62 55
is_linear=0
shrinkage=0.05


Tree=37
num_leaves=19
num_cat=0
split_feature=20 18 14 14 11 11 10 1 0 6 16 8 8 1 14 0 8 17
split_gain=24.027 3.15275 2.07378 3.18922 3.19508 3.09469 1.87081 1.89412 1.8588 1.73534 1.66878 1.42201 1.34972 1.15081 1.07905 0.981253 0.614252 0.499568
threshold=-626.74389648437489 0.43070530043995131 0.44691269072715561 0.4612980329824638 26.639099314432837 27.227892934832543 2.3097885673231278 68.797191571476262 72.500000000000014 341.5372919504743 803.50000000000011 305.27256774902349 291.25894165039068 70.698023629130759 0.41744860616873936 65.500000000000014 294.53482055664068 1362.9937862524869
decision_type=2 2 2 2 2 2 2 2 2 2 2 2 2 2 2 2 2 2
left_child=1 2 8 -4 12 -6 11 -8 9 14 -11 15 -5 -13 -1 -3 -9 -17
right_child=-2 6 3 4 5 -7 7 16 -10 10 -12 13 -14 -15 -16 17 -18 -19
leaf_value=0.0011431362038635596 0.00013415929707357168 -0.00010602345420013537 -0.0018589720363291929 2.7654483109595953e-07 -0.0029774937656525725 -0.00013133702023100381 0.0028664748103729102 0.0005044914801623446 -0.00043525442488479563 0.00024406187377027934 -0.0012473433453786598 8.9426602812159314e-05 0.00079667417539446288 -0.00075973513121391223 0.0002822390515169804 0.0004382456119900735 -6.97265097965305e-07 0.000174848544646658
leaf_weight=59 112 28 35 85 48 253 34 30 23 24 27 29 55 27 23 32 23 24
leaf_count=59 112 28 35 85 48 253 34 30 23 24 27 29 55 27 23 32 23 24
internal_value=0.00316136 0.000314282 -0.00149502 -0.0031401 -0.00197234 -0.0048821 0.00537208 0.0111366 0.00349135 0.00578512 -0.00136986 0.00174875 0.00424697 -0.0043672 0.0102923 0.00588585 0.00508475 0.0097148
internal_weight=971 859 632 476 441 301 227 87 156 133 51 140 140 56 82 84 53 56
internal_count=971 859 632 476 441 301 227 87 156 133 51 140 140 56 82 84 53 56
is_linear=0
shrinkage=0.05


Tree=38
num_leaves=19
num_cat=0
split_feature=20 18 14 17 18 10 11 0 8 8 19 0 19 0 19 17 0 20
split_gain=24.141 3.22554 1.95673 2.01382 1.87201 1.87081 1.83797 1.89811 1.45762 1.42201 1.33042 0.981253 0.950643 0.927649 0.740064 0.499568 0.459907 0.4203
threshold=-626.74389648437489 0.43070530043995131 0.40638994451323113 3639.567643812094 0.066744515626227671 2.3097885673231278 26.051416147762435 57.500000000000007 287.06834411621099 305.27256774902349 15138.20800389481 65.500000000000014 39340.614166750398 68.500000000000014 35145.68807261379 1362.9937862524869 66.500000000000014 -13414.235687255858
decision_type=2 2 2 2 2 2 2 2 2 2 2 2 2 2 2 2 2 2
left_child=1 2 4 6 17 9 8 -8 -4 11 -7 -3 -5 -6 -12 -13 -11 -1
right_child=-2 5 3 12 13 10 7 -9 -10 16 14 15 -14 -15 -16 -17 -18 -19
leaf_value=0.00043157042599304145 0.00012745133221989113 -0.00010072228149012597 -0.00044344943985982489 -0.0025135414259130685 0.00015499673031995066 0.0021734002860077819 0.00025849419346670458 -0.00030766283717980074 0.00064245878504446416 5.1953513420904819e-05 4.0220994544154515e-05 0.0004163333313905726 -0.0011081457038183585 -5.0852165979659027e-05 0.00051534332882014475 0.00016610611741432469 -0.00059019572842630155 0.0017141914735450626
leaf_weight=20 112 28 42 39 27 34 48 329 54 23 26 32 31 20 27 24 33 22
leaf_count=20 112 28 42 39 27 34 48 329 54 23 26 32 31 20 27 24 33 22
internal_value=0.00310988 0.000256082 -0.00157412 -0.00270668 0.00527497 0.00537208 -0.00152188 -0.00310263 0.00463059 0.00174875 0.0111366 0.00588585 -0.0106277 -0.0014862 0.00602637 0.0097148 -0.0043672 0.0129454
internal_weight=971 859 632 543 89 227 473 377 96 140 87 84 70 47 53 56 56 42
internal_count=971 859 632 543 89 227 473 377 96 140 87 84 70 47 53 56 56 42
is_linear=0
shrinkage=0.05


Tree=39
num_leaves=17
num_cat=0
split_feature=20 15 6 8 1 11 12 7 6 13 7 17 10 20 20 19
split_gain=24.141 2.08083 2.56197 2.44052 2.15986 2.25179 2.83218 1.90834 1.50321 1.61822 1.41904 1.24487 0.957764 0.791434 1.00836 1.16805
threshold=-626.74389648437489 11116.500000000002 1159.0731657480626 274.14001464843756 106.27097799080951 26.051416147762435 0.69727260748447295 -771.96548461914051 1487.8407847595222 0.52626954895376399 -657.40975952148426 1320.470824347806 3.4193964993498751 -2711.800415039062 -2027.7279052734373 498.80712761280535
decision_type=2 2 2 2 2 2 2 2 2 2 2 2 2 2 2 2
left_child=1 12 4 -4 5 10 -7 -6 9 -5 -3 -10 13 -1 -15 -16
right_child=-2 2 3 8 7 6 -8 -9 11 -11 -12 -13 -14 14 15 -17
leaf_value=0.00065367734320367357 0.00012107876560889519 0.00091364800706538189 -0.0013610224338764299 0.00016662129036968955 0.0014261977231095236 -0.00024624131767567447 -0.0019363523812766016 -3.0847539433606634e-05 0.00031497360203200375 0.0013353451163164165 -0.00068300983932793608 -0.00026923410928993976 0.00046604244587097334 -0.00027617945398608623 -9.2997022510407645e-05 0.00076137536062337037
leaf_weight=29 112 50 27 41 25 294 81 34 57 28 32 49 25 21 26 40
leaf_count=29 112 50 27 41 25 294 81 34 57 28 32 49 25 21 26 40
internal_value=0.00310988 0.000256082 -0.000828575 0.0039337 -0.00270296 -0.00387224 -0.00551853 0.00626058 0.00611079 0.0118669 0.00359318 0.00230914 0.00581148 0.0038329 0.00137773 0.00446293
internal_weight=971 859 718 202 516 457 375 59 175 69 82 106 141 116 87 66
internal_count=971 859 718 202 516 457 375 59 175 69 82 106 141 116 87 66
is_linear=0
shrinkage=0.05


Tree=40
num_leaves=18
num_cat=0
split_feature=15 9 18 6 1 7 13 18 10 10 7 9 8 6 19 1 15
split_gain=27.7375 3.38701 1.73899 2.57667 2.41485 2.4892 1.77932 2.77392 1.31785 1.25066 1.03608 0.951564 0.809412 0.791033 0.624219 0.537996 0.154358
threshold=2045.5000000000002 2.1806721967308462 0.47618268065483593 108.35178076744081 82.859414629087667 -578.31149291992176 0.5254416199146773 0.60622168672019205 2.9969601036876101 3.0829379974311202 -556.43295288085926 2.2224117211523366 328.16123962402349 1426.9795484924318 6645.9109626331965 67.558816661110157 28304.000000000004
decision_type=2 2 2 2 2 2 2 2 2 2 2 2 2 2 2 2 2
left_child=-1 2 3 9 5 -5 13 15 -6 10 -2 -3 -11 -4 -13 -8 -15
right_child=1 11 6 4 8 -7 7 -9 -10 12 -12 14 -14 16 -16 -17 -18
leaf_value=0.00011502482732845266 0.00038167206306431446 0.001358716407823607 -0.00040049024319401829 -0.00075074640916281132 0.00016017820647381555 0.00034138083532802291 0.0027275485924441959 -0.00022280650818496395 -0.00046496026275937301 0.00023352440607153359 -0.00046757333215759482 0.0005680066444947923 -0.00071063895415473264 9.1732383756926168e-06 -1.0695678217828576e-05 0.00035436197397562544 0.00010578391510320807
leaf_weight=132 93 29 36 225 168 30 25 25 50 20 21 20 30 24 22 35 26
leaf_count=132 93 29 36 225 168 30 25 25 50 20 21 20 30 24 22 35 26
internal_value=0.00358026 0.000364009 -0.000550674 -0.00175797 -0.0036356 -0.00693846 0.00391584 0.00904818 0.000206327 0.00362584 0.00652936 0.0108298 -0.00289421 -0.00110337 0.00581948 0.0148918 0.00289421
internal_weight=1011 879 808 637 473 255 171 85 218 164 114 71 50 86 42 60 50
internal_count=1011 879 808 637 473 255 171 85 218 164 114 71 50 86 42 60 50
is_linear=0
shrinkage=0.05


Tree=41
num_leaves=15
num_cat=0
split_feature=15 9 1 1 11 11 16 12 6 19 7 10 9 19
split_gain=26.8443 2.7132 1.89705 2.46328 2.27915 2.24477 2.20695 1.76759 1.74074 1.25112 1.90037 1.64895 1.16167 0.395434
threshold=2045.5000000000002 2.1806721967308462 67.006778334115225 70.842017226594763 24.519684459626472 28.698032043378639 1068.0000000000002 0.67285717392546973 108.35178076744081 32622.010089420459 -673.72088623046864 1.6972547050589701 2.2224117211523366 6645.9109626331965
decision_type=2 2 2 2 2 2 2 2 2 2 2 2 2 2
left_child=-1 2 9 5 6 -4 -5 -7 -6 10 -2 -12 -3 -14
right_child=1 12 3 4 8 7 -8 -9 -10 -11 11 -13 13 -15
leaf_value=0.00010927358596202753 -0.00035080136963141497 0.0012907805874324274 -0.0027659078922730122 0.001100040591606269 0.00043758678477238966 0.00011469417504398894 -0.0001438839012536941 -0.0013373071621083255 -0.00021243961970005833 0.00053154195958993178 1.2549420986657235e-05 0.00075072184789704845 0.00053960631227005507 -1.0160894306937564e-05
leaf_weight=132 39 29 31 34 58 25 26 35 408 25 83 44 20 22
leaf_count=132 39 29 31 34 58 25 26 35 408 25 83 44 20 22
internal_value=0.00392642 0.000762143 -5.56862e-05 -0.00140982 -8.55351e-05 -0.0090011 0.00906822 -0.00324459 -0.00127655 0.00429095 0.00267911 0.00566483 0.0101266 0.00463183
internal_weight=1011 879 808 617 526 91 60 60 466 191 166 127 71 42
internal_count=1011 879 808 617 526 91 60 60 466 191 166 127 71 42
is_linear=0
shrinkage=0.05


Tree=42
num_leaves=21
num_cat=0
split_feature=15 18 14 14 12 18 1 18 8 19 14 12 0 14 18 0 13 13 0 7
split_gain=27.4808 1.88172 1.89025 2.17673 2.16426 2.01008 1.87367 1.61887 1.51228 2.05015 1.38669 1.07945 0.972953 0.742377 1.03775 0.642813 0.623386 0.281069 0.230911 0.168194
threshold=2045.5000000000002 0.46155262555722332 0.41964114189101193 0.46967988679533618 0.75189337668440137 0.38180608040387903 66.475569126522814 0.34050895702778328 305.27256774902349 30364.621978352206 0.44691269072715561 0.68468406277502691 70.500000000000014 0.39782877217149309 0.041179370142384472 68.500000000000014 0.5254416199146773 0.50037962554350535 69.500000000000014 -718.61373901367176
decision_type=2 2 2 2 2 2 2 2 2 2 2 2 2 2 2 2 2 2 2 2
left_child=-1 2 4 10 13 7 11 -5 16 -10 -4 -3 -7 15 -15 -2 17 -8 -18 -12
right_child=1 6 3 5 -6 12 8 -9 9 -11 19 -13 -14 14 -16 -17 18 -19 -20 -21
leaf_value=0.00010380990666392643 0.00089580643954103873 0.00058162596697610704 -5.6848053719205098e-05 -3.0344874081034148e-05 -0.00084169902155312171 -0.00080231002466295005 8.4253936074008001e-05 0.00073152643907011818 8.7386624327615017e-05 -0.00058523834205348739 -0.0026505817610689569 0.0025536350704271297 1.8518816374862857e-05 0.00062443463470484575 -0.00046810534831404071 0.00054474102210368136 0.00015401781168800367 -0.00014958140721498816 0.0006228622120150074 -0.00059646062393843298
leaf_weight=132 28 20 25 289 39 79 33 63 38 20 20 25 38 23 29 24 22 20 20 24
leaf_count=132 28 20 25 289 39 79 33 63 38 20 20 25 38 23 29 24 22 20 20 24
internal_value=0.00367916 0.000477761 -0.000763471 -0.00212786 0.00433263 -0.000895331 0.00477032 0.000979835 0.00209014 -0.00421687 -0.0104197 0.0137472 -0.00657558 0.0081172 0.0037428 0.01238 0.00599369 0.00225989 0.0105701 -0.0157596
internal_weight=1011 879 681 538 143 469 198 352 153 58 69 45 117 104 52 52 95 53 42 44
internal_count=1011 879 681 538 143 469 198 352 153 58 69 45 117 104 52 52 95 53 42 44
is_linear=0
shrinkage=0.05


end of trees

feature_importances:
Base_Percent=64
LungVol_FVC_Ratio=63
FVC_Week_Interaction=57
glcm_homogeneity=55
Age=52
lung_vol_ml=50
hu_mean=41
hu_std=41
hu_skew=40
hu_kurt=39
glcm_contrast=39
glcm_energy=38
Percent_Week_Interaction=31
Age_Week_Interaction=30
LungVol_Week_Interaction=28
glcm_correlation=26
HU_Week_Interaction=23
Smk_Cur=5
Weeks_squared=4
Relative_Weeks=3
Sex=3
Smk_Ex=1

parameters:
[boosting: gbdt]
[objective: quantile]
[metric: quantile]
[tree_learner: serial]
[device_type: cpu]
[data_sample_strategy: bagging]
[data: ]
[valid: ]
[num_iterations: 500]
[learning_rate: 0.05]
[num_leaves: 31]
[num_threads: 0]
[seed: 0]
[deterministic: 0]
[force_col_wise: 0]
[force_row_wise: 0]
[histogram_pool_size: -1]
[max_depth: 6]
[min_data_in_leaf: 20]
[min_sum_hessian_in_leaf: 0.001]
[bagging_fraction: 0.8]
[pos_bagging_fraction: 1]
[neg_bagging_fraction: 1]
[bagging_freq: 5]
[bagging_seed: 3]
[bagging_by_query: 0]
[feature_fraction: 0.9]
[feature_fraction_bynode: 1]
[feature_fraction_seed: 2]
[extra_trees: 0]
[extra_seed: 6]
[early_stopping_round: 0]
[early_stopping_min_delta: 0]
[first_metric_only: 0]
[max_delta_step: 0]
[lambda_l1: 0.1]
[lambda_l2: 0.1]
[linear_lambda: 0]
[min_gain_to_split: 0]
[drop_rate: 0.1]
[max_drop: 50]
[skip_drop: 0.5]
[xgboost_dart_mode: 0]
[uniform_drop: 0]
[drop_seed: 4]
[top_rate: 0.2]
[other_rate: 0.1]
[min_data_per_group: 100]
[max_cat_threshold: 32]
[cat_l2: 10]
[cat_smooth: 10]
[max_cat_to_onehot: 4]
[top_k: 20]
[monotone_constraints: ]
[monotone_constraints_method: basic]
[monotone_penalty: 0]
[feature_contri: ]
[forcedsplits_filename: ]
[refit_decay_rate: 0.9]
[cegb_tradeoff: 1]
[cegb_penalty_split: 0]
[cegb_penalty_feature_lazy: ]
[cegb_penalty_feature_coupled: ]
[path_smooth: 0]
[interaction_constraints: ]
[verbosity: -1]
[saved_feature_importance_type: 0]
[use_quantized_grad: 0]
[num_grad_quant_bins: 4]
[quant_train_renew_leaf: 0]
[stochastic_rounding: 1]
[linear_tree: 0]
[max_bin: 255]
[max_bin_by_feature: ]
[min_data_in_bin: 3]
[bin_construct_sample_cnt: 200000]
[data_random_seed: 1]
[is_enable_sparse: 1]
[enable_bundle: 1]
[use_missing: 1]
[zero_as_missing: 0]
[feature_pre_filter: 1]
[pre_partition: 0]
[two_round: 0]
[header: 0]
[label_column: ]
[weight_column: ]
[group_column: ]
[ignore_column: ]
[categorical_feature: ]
[forcedbins_filename: ]
[precise_float_parser: 0]
[parser_config_file: ]
[objective_seed: 5]
[num_class: 1]
[is_unbalance: 0]
[scale_pos_weight: 1]
[sigmoid: 1]
[boost_from_average: 1]
[reg_sqrt: 0]
[alpha: 0.5]
[fair_c: 1]
[poisson_max_delta_step: 0.7]
[tweedie_variance_power: 1.5]
[lambdarank_truncation_level: 30]
[lambdarank_norm: 1]
[label_gain: ]
[lambdarank_position_bias_regularization: 0]
[eval_at: ]
[multi_error_top_k: 1]
[auc_mu_weights: ]
[num_machines: 1]
[local_listen_port: 12400]
[time_out: 120]
[machine_list_filename: ]
[machines: ]
[gpu_platform_id: -1]
[gpu_device_id: -1]
[gpu_use_dp: 0]
[num_gpu: 1]

end of parameters

pandas_categorical:[]
