tree
version=v4
num_class=1
num_tree_per_iteration=1
label_index=0
max_feature_idx=23
objective=quantile
feature_names=Age Base_Percent Relative_Weeks Weeks_squared Weeks_cubed Week_Decay lung_vol_ml hu_mean hu_std hu_skew hu_kurt glcm_contrast glcm_homogeneity glcm_energy glcm_correlation FVC_Week_Interaction Age_Week_Interaction Percent_Week_Interaction LungVol_FVC_Ratio LungVol_Week_Interaction HU_Week_Interaction Sex Smk_Ex Smk_Cur
feature_infos=[49:88] [43.352279059400402:153.01291248206601] [0:62] [0:3844] [0:238328] [0:0.6964799755703599] [0:5592.286722227258] [-1667.889892578125:-488.71304321289062] [0:1133.221435546875] [-0.62835692705838253:2.5510769576620098] [-1.4545910235226864:7.128640392331091] [0:44.890219308734402] [0:0.96754178542295155] [0:0.95945834483821657] [0:0.68263369763524051] [0:358344] [0:5456] [0:8568.723098995697] [0:1.6181385186947683] [0:206914.60872240853] [-95069.723876953125:0] [0:1] [0:1] [0:1]
tree_sizes=1858 1965 1799 1958 1881 1963 1537 1792 1956 1696 1362 1274 1187 1100 1271 1705 1710 1877 1710 1789 1773 1626 1365 1606 2307 1625 1546 1800 1805 1806 1362 1437 1527 1705 1879 1442 1612 1356 1445 1780 1622 1269 1528 1279 1535 1443 1789 1280 1609 1536 1700 1966 1979 1533 1451 1615 1951 1369

Tree=0
num_leaves=21
num_cat=0
split_feature=19 16 7 12 9 15 13 13 6 14 14 7 13 16 9 1 7 10 13 12
split_gain=33.4739 11.8365 5.55193 4.57568 3.97112 3.94635 3.84972 8.69192 3.78052 2.68435 2.29575 2.02764 1.8973 1.96444 1.47809 1.33307 1.3256 0.647644 0.550277 0.500106
threshold=1.0000000180025095e-35 956.00000000000011 -659.19033813476551 0.7200624878307661 2.1570455934393657 19727.000000000004 0.52415158193728983 0.5501554061763394 914.05883789062511 0.63078233850131993 0.60206937418202033 -671.93853759765614 0.51035023521757583 405.50000000000006 1.7407811788958363 67.630114172399473 -681.19372558593739 1.6100991036979393 0.52583367584573137 0.67824570934119099
decision_type=2 2 2 2 2 2 2 2 2 2 2 2 2 2 2 2 2 2 2 2
left_child=-1 2 3 12 6 9 11 8 -8 10 -4 14 13 -2 -3 -9 -14 18 -7 -13
right_child=1 4 5 -5 -6 17 7 15 -10 -11 -12 19 16 -15 -16 -17 -18 -19 -20 -21
leaf_value=0.98441288471221922 0.98475270569324491 0.98280789852142336 0.98362068533897395 0.98236711621284489 0.98486732244491582 0.98079799711704252 0.9829461142420769 0.98303165286779404 0.98584896922111509 0.98631021678447728 0.98156031966209412 0.97899171710014343 0.98503162264823918 0.98357470631599431 0.98161720186471935 0.98056293427944186 0.98402362763881679 0.98283850401639938 0.98153564631938939 0.98053382933139799
leaf_weight=120 64 57 87 37 37 21 52 24 38 20 21 55 71 84 58 50 37 20 20 28
leaf_count=120 64 57 87 37 37 21 52 24 38 20 21 55 71 84 58 50 37 20 20 28
internal_value=0.983762 0.980392 0.985656 0.989973 0.974021 0.978992 0.972422 0.978139 0.988531 0.983944 0.980864 0.967717 0.992359 0.988623 0.972124 0.965441 0.997422 0.968535 0.964858 0.961691
internal_weight=1001 881 482 293 399 189 362 164 90 128 108 198 256 148 115 74 108 61 41 83
internal_count=1001 881 482 293 399 189 362 164 90 128 108 198 256 148 115 74 108 61 41 83
is_linear=0
shrinkage=1


Tree=1
num_leaves=21
num_cat=0
split_feature=19 16 7 9 15 12 14 13 13 10 7 14 13 12 15 1 7 8 8 12
split_gain=33.2048 11.7923 5.28856 4.38416 3.53916 3.19998 2.68435 2.39585 7.04849 2.99544 2.58519 2.29575 2.20755 2.28666 1.38737 1.33307 1.3256 1.23495 0.763903 0.500106
threshold=1.0000000180025095e-35 956.00000000000011 -659.19033813476551 2.0381052551870504 19727.000000000004 0.7200624878307661 0.63078233850131993 0.52415158193728983 0.5501554061763394 2.4422062329618002 -671.93853759765614 0.60206937418202033 0.51035023521757583 0.67338246760212894 127292.50000000001 67.630114172399473 -681.19372558593739 287.06834411621099 297.50477600097662 0.67824570934119099
decision_type=2 2 2 2 2 2 2 2 2 2 2 2 2 2 2 2 2 2 2 2
left_child=-1 2 5 7 6 12 11 10 9 -9 17 -4 13 -2 -5 -10 -14 -3 -6 -12
right_child=1 3 4 14 18 -7 -8 8 15 -11 19 -13 16 -15 -16 -17 -18 -19 -20 -21
leaf_value=0.00077935576438903928 0.0011557315289974224 -0.00015088267624377983 2.6766359806063013e-05 0.0017333275079727151 -0.0025775606930255879 -0.0011641243100166344 0.0025818212330341317 0.001399414911866187 -0.00053281448781490332 -0.0012128316611051571 -0.0043707534670829771 -0.001930581033229828 0.0013671568036079385 -8.0592334270479518e-05 -0.00096729934215545883 -0.0028780971467494976 0.0004095615446567558 -0.0015527332574129084 -0.0012273992598056784 -0.0029057468473911276
leaf_weight=120 71 24 87 25 26 37 20 56 24 30 55 21 71 77 24 50 37 83 35 28
leaf_count=120 71 24 87 25 26 37 20 56 24 30 55 21 71 77 24 50 37 83 35 28
internal_value=0.000269703 -0.00308705 0.0021676 -0.00944625 -0.00433633 0.00638008 0.000351288 -0.011411 -0.00683948 0.00284553 -0.0152288 -0.00272895 0.00837563 0.00435517 0.00448065 -0.0181511 0.0138298 -0.00999066 -0.014239 -0.0219013
internal_weight=1001 881 482 399 189 293 128 350 160 86 190 108 256 148 49 74 108 107 61 83
internal_count=1001 881 482 399 189 293 128 350 160 86 190 108 256 148 49 74 108 107 61 83
is_linear=0
shrinkage=0.05


Tree=2
num_leaves=19
num_cat=0
split_feature=19 17 9 7 14 18 13 14 1 20 14 0 13 8 11 18 18 8
split_gain=33.0706 10.7984 5.37561 3.60364 4.72079 3.12775 3.12078 2.66255 3.18319 2.34638 2.33178 2.29936 2.25541 2.12684 3.3801 1.6606 1.20131 1.18117
threshold=1.0000000180025095e-35 810.05258040409944 2.1570455934393657 -656.50134277343739 0.63938655625367191 0.47831166046886253 0.5660687635723034 0.48982968072668748 80.067033988586459 -19686.919097900387 0.60206937418202033 65.500000000000014 0.51628350737441397 311.58770751953131 25.364261572824542 0.090534722014745911 0.04918812792720461 286.42907714843756
decision_type=2 2 2 2 2 2 2 2 2 2 2 2 2 2 2 2 2 2
left_child=-1 3 5 6 10 9 13 -7 -9 16 12 -4 -5 14 -2 -15 -3 -11
right_child=1 2 11 4 -6 7 -8 8 -10 17 -12 -13 -14 15 -16 -17 -18 -19
leaf_value=0.00074038797616958756 0.0024599093645811033 -0.0012538412511348713 0.0019117558449506745 -0.0014734290987253153 0.0025977037400007202 0.0017363657895475616 -0.0010776848644018179 0.00059949749708175515 -0.003067687451839449 -0.0021656613685190674 -0.0020288250595331182 -0.00038179367035627576 0.00051266208663582893 0.00055415217578410616 9.4104602932931777e-05 0.0030076998919248534 -0.0033255765140056599 -0.00053308675065636411
leaf_weight=120 26 60 21 29 20 20 28 40 24 34 31 30 74 45 103 41 122 133
leaf_count=120 26 60 21 29 20 20 28 40 24 34 31 30 74 45 103 41 122 133
internal_value=0.000319648 -0.0030303 -0.00804586 0.00307227 -0.00288774 -0.00985915 0.0068696 -0.00112961 -0.00616225 -0.011945 -0.00630127 0.0072407 -0.00261882 0.00892608 0.00480248 0.0150407 -0.0158979 -0.00760024
internal_weight=1001 881 484 397 154 433 243 84 64 349 134 51 103 215 129 86 182 167
internal_count=1001 881 484 397 154 433 243 84 64 349 134 51 103 215 129 86 182 167
is_linear=0
shrinkage=0.05


Tree=3
num_leaves=21
num_cat=0
split_feature=19 16 9 12 7 15 18 13 1 12 14 13 13 10 7 1 1 8 18 12
split_gain=32.9368 9.78408 4.19935 3.6007 4.10336 3.82264 2.98352 2.79822 2.33309 2.23425 2.08691 1.957 6.5966 2.49369 2.42983 1.784 1.35756 1.30602 0.910538 0.411767
threshold=1.0000000180025095e-35 991.00000000000011 1.9487400716117012 0.7200624878307661 -659.19033813476551 19727.000000000004 0.39108628315925958 0.51035023521757583 79.56324252252422 0.67338246760212894 0.63078233850131993 0.52415158193728983 0.54864191794494521 2.4422062329618002 -671.93853759765614 67.630114172399473 77.833565990780571 292.76916503906256 0.4092967126119858 0.67824570934119099
decision_type=2 2 2 2 2 2 2 2 2 2 2 2 2 2 2 2 2 2 2 2
left_child=-1 3 11 4 7 10 -4 9 -5 -2 -6 14 13 -13 17 -14 -9 -3 -7 -16
right_child=1 2 6 8 5 18 -8 16 -10 -11 -12 12 15 -15 19 -17 -18 -19 -20 -21
leaf_value=0.0007033685773611076 0.00096900515966117382 -0.00017414247468113821 -0.00088744184877723458 -0.0025502293802797784 -6.4886532910163333e-05 -0.0019892105234786879 0.0016935215504840007 0.0026154087759554384 0.00018752241460606169 -0.00020319684818386754 0.0023228449843823887 0.0011574758068658376 -0.00039845375036820507 -0.0010894980154931512 -0.0041302158966660509 -0.00267294861972332 0.00070776829244568746 -0.0016589884376153386 -0.00094093131599947701 -0.0022362269535660729
leaf_weight=120 75 31 36 27 100 40 22 38 21 82 20 52 24 26 54 51 72 61 22 27
leaf_count=120 75 31 36 27 100 40 22 38 21 82 20 52 24 26 54 51 72 61 22 27
internal_value=0.000369593 -0.00297356 -0.00896902 0.00164957 0.00305055 -0.00271829 0.00335628 0.00700112 -0.0113306 0.00267346 0.00245629 -0.0111776 -0.0069889 0.003137 -0.0148469 -0.0175766 0.0131244 -0.00917481 -0.0128019 -0.0212084
internal_weight=1001 881 384 497 449 182 58 267 48 157 120 326 153 78 173 75 110 92 62 81
internal_count=1001 881 384 497 449 182 58 267 48 157 120 326 153 78 173 75 110 92 62 81
is_linear=0
shrinkage=0.05


Tree=4
num_leaves=20
num_cat=0
split_feature=19 16 9 10 13 13 6 14 14 11 10 18 11 20 10 1 14 18 9
split_gain=32.6699 10.0707 3.83515 3.75303 3.43659 8.73144 3.93423 3.27068 3.48603 3.10196 2.50539 2.25844 2.84093 3.37852 1.7069 1.16987 0.62078 0.490725 0.0177378
threshold=1.0000000180025095e-35 926.00000000000011 2.1570455934393657 2.2342164311042216 0.52415158193728983 0.5501554061763394 672.01411433410681 0.63938655625367191 0.60206937418202033 24.907562965242864 1.7345404379442753 0.42513525751721865 30.273533983460137 -3564.5237731933589 2.0855108689134254 67.630114172399473 0.48982968072668748 0.041897027338321319 1.2653262082665999
decision_type=2 2 2 2 2 2 2 2 2 2 2 2 2 2 2 2 2 2 2
left_child=-1 3 4 7 10 6 -6 8 9 -2 18 12 13 -5 -12 -7 -13 -14 -3
right_child=1 2 -4 11 5 15 -8 -9 -10 -11 14 16 17 -15 -16 -17 -18 -19 -20
leaf_value=0.00066820014849305334 0.002577659208439287 -0.0047379289070144329 0.0010704015208128832 -0.00060558030454441756 -0.00089302576272049796 -0.0004595967383729305 0.0021818042046343857 0.0020400511286035152 -0.00233431440468877 -0.00026534929058048552 0.00014000440437346719 0.0029516912962030632 0.00077485300268511639 0.00082139057397843116 -0.00162328874271363 -0.0025889723156392597 0.00091184493002947073 0.00027775675917044443 -0.0041684931195154823
leaf_weight=120 23 21 38 79 44 24 50 23 33 181 25 28 26 31 117 51 27 21 39
leaf_count=120 23 21 38 79 44 24 50 23 33 181 25 28 26 31 117 51 27 21 39
internal_value=0.000469484 -0.00286006 -0.00860425 0.0021076 -0.010159 -0.0048492 0.00526036 -0.00190311 -0.00366934 -0.00120039 -0.014572 0.00704856 0.00394653 -0.000408719 -0.0108726 -0.0175766 0.0157895 0.0142251 -0.0232113
internal_weight=1001 881 409 472 371 169 94 260 237 204 202 212 157 110 142 75 55 47 60
internal_count=1001 881 409 472 371 169 94 260 237 204 202 212 157 110 142 75 55 47 60
is_linear=0
shrinkage=0.05


Tree=5
num_leaves=21
num_cat=0
split_feature=19 15 18 10 18 0 8 0 11 15 12 6 1 18 1 10 15 12 13 18
split_gain=34.0727 9.42651 6.14425 5.1592 4.13451 3.83924 3.64631 3.32667 3.18286 3.03286 2.90848 2.97383 2.30218 2.18978 1.86131 1.79488 1.72386 0.929354 0.782035 0.540218
threshold=1.0000000180025095e-35 23605.500000000004 0.45523950968617699 1.4678913808009046 0.04135247493088838 64.500000000000014 286.98995971679693 73.500000000000014 26.712274218347478 85607.500000000015 0.71680889606044462 962.25624587241839 100.77741630935651 0.046244865206873161 77.461446514574817 1.8249650042733581 96359.500000000015 0.68795959698240172 0.51776105667095618 0.5940660075082721
decision_type=2 2 2 2 2 2 2 2 2 2 2 2 2 2 2 2 2 2 2 2
left_child=-1 6 4 19 7 -5 17 9 12 -3 11 13 -6 -8 -12 -10 -7 -2 -13 -4
right_child=1 2 3 5 8 16 10 -9 15 -11 14 18 -14 -15 -16 -17 -18 -19 -20 -21
leaf_value=0.00063479014106840315 -0.0013832458526145176 0.00079883465957199533 -0.00098036951646767747 -0.0011328576734764507 -0.0001831784609159226 0.0023240809150321812 0.00077268229618575053 -0.0017983054338730877 -0.0037221886986922473 -0.00042052096135541397 -0.0020679630188699784 0.0011308490945086847 -0.0026505461104726377 -9.1999459199132438e-06 0.00011313049352169592 -0.0014385799439609994 0.00035868563899327802 -1.2013667576016297e-05 0.003287493587370266 -0.0019776394733749371
leaf_weight=118 33 43 21 21 80 36 65 20 83 35 21 35 22 114 21 143 20 23 33 21
leaf_count=118 33 43 21 21 80 36 65 20 83 35 21 35 22 114 21 143 20 23 33 21
internal_value=-0.00029263 -0.00364566 -0.0077417 0.002267 -0.0105492 0.00998703 0.00281078 -0.00147808 -0.0132429 0.003137 0.00508475 0.00716309 -0.00582762 0.00374093 -0.00700713 -0.0165635 0.0168449 -0.00882353 0.0160793 -0.0117577
internal_weight=1008 890 545 119 426 77 345 98 328 78 289 247 102 179 42 226 56 56 68 42
internal_count=1008 890 545 119 426 77 345 98 328 78 289 247 102 179 42 226 56 56 68 42
is_linear=0
shrinkage=0.05


Tree=6
num_leaves=16
num_cat=0
split_feature=19 20 12 8 12 14 18 9 6 8 11 14 6 18 19
split_gain=32.7463 9.0864 3.63991 4.52779 5.62224 5.95913 4.99822 2.93013 2.71335 2.37725 1.54632 1.24415 1.13011 1.38679 0.584489
threshold=1.0000000180025095e-35 -19686.919097900387 0.71680889606044462 279.47212219238287 0.67824570934119099 0.45267200982746941 0.45523950968617699 2.0381052551870504 60.299577660293146 272.53179931640631 26.712274218347478 0.54255853047644054 1029.5055082168581 0.052501081819961909 6752.8615079307547
decision_type=2 2 2 2 2 2 2 2 2 2 2 2 2 2 2
left_child=-1 7 3 9 5 -5 -6 10 -4 -3 11 -2 13 -12 -10
right_child=1 2 8 4 6 -7 -8 -9 14 -11 12 -13 -14 -15 -16
leaf_value=0.00060305063401498444 -0.0017163801879953257 -7.5317329905735811e-05 0.00017443357518716064 0.00070850325939768039 0.000398029132753322 -0.00089295149401896756 0.0028851436549539953 9.198463582150152e-05 -0.0020393827007186534 -0.0029260802495626294 -0.0012777059379118216 0.0002655314896784278 -0.00095678660876648562 -0.0038791804607517691 -0.0009285020935690891
leaf_weight=118 34 38 20 60 182 187 62 32 30 36 49 31 23 86 20
leaf_count=118 34 38 20 60 182 187 62 32 30 36 49 31 23 86 20
internal_value=0.000193433 -0.00308392 0.000110219 0.00145107 0.0031969 -0.00210441 0.00858255 -0.0110545 -0.0106277 -0.010054 -0.0130883 -0.00645161 -0.0157812 -0.0175426 -0.0168663
internal_weight=1008 890 635 565 491 247 244 255 70 74 223 65 158 135 50
internal_count=1008 890 635 565 491 247 244 255 70 74 223 65 158 135 50
is_linear=0
shrinkage=0.05


Tree=7
num_leaves=19
num_cat=0
split_feature=19 17 9 18 7 10 14 1 12 7 8 8 1 18 8 1 13 11
split_gain=31.835 9.10501 4.79238 3.72048 3.85125 2.97083 2.5085 2.41537 2.31043 2.23368 2.07928 3.08921 2.02433 1.78122 1.84341 3.16601 2.04293 1.52391
threshold=1.0000000180025095e-35 820.94933451445297 2.1570455934393657 0.47831166046886253 -650.82492065429676 2.2342164311042216 0.55601772368079549 55.093543560194057 0.69882643903102759 -672.59390258789051 280.90959167480474 296.34002685546881 81.093254303345816 0.48768401147425461 311.58770751953131 82.027318475916616 0.53067980879883991 27.645564415381575
decision_type=2 2 2 2 2 2 2 2 2 2 2 2 2 2 2 2 2 2
left_child=-1 5 3 6 12 7 9 -2 -8 -3 -9 -12 -5 14 15 -7 -16 -4
right_child=1 2 17 4 -6 13 8 10 -10 -11 11 -13 -14 -15 16 -17 -18 -19
leaf_value=0.0005728981023142343 0.0010086111664485643 -0.0012739483092344629 0.0018992317388359381 0.0033940070783339328 -0.0014294150931214999 -0.0020815521196050069 -0.0025390006317939614 -0.002918509411784018 0.00040362643739801367 -0.0023023495006579244 0.0010925443433023152 -0.0005697134423400086 -0.00045150847858055066 0.0035137576825175795 0.00087034142152317981 0.00042599234449761103 -0.00028876643299408647 -9.8048590877253264e-06
leaf_weight=118 21 185 24 29 33 25 72 24 27 76 43 132 22 32 55 41 22 27
leaf_count=118 21 185 24 29 33 25 72 24 27 76 43 132 22 32 55 41 22 27
internal_value=0.000540621 -0.00269071 -0.00721066 -0.00888313 0.000535077 0.00296128 -0.0110941 -0.000885961 -0.00423814 -0.0136729 -0.00261175 -0.000685323 0.00919765 0.0078241 0.00538085 -0.000680787 0.0106355 0.0072407
internal_weight=1008 890 495 444 84 395 360 220 99 261 199 175 51 175 143 66 77 51
internal_count=1008 890 495 444 84 395 360 220 99 261 199 175 51 175 143 66 77 51
is_linear=0
shrinkage=0.05


Tree=8
num_leaves=21
num_cat=0
split_feature=19 20 10 18 12 13 12 0 9 12 8 11 20 8 13 6 8 8 13 6
split_gain=31.9644 8.52224 3.46322 3.3908 3.19948 3.69886 3.20423 4.16265 3.00161 2.92097 3.01963 2.82182 1.58219 1.20276 1.19687 1.02394 0.939221 1.05963 0.858984 0.0867135
threshold=1.0000000180025095e-35 -19686.919097900387 2.2342164311042216 0.48768401147425461 0.67934693610406094 0.52583367584573137 0.71785047661009427 65.500000000000014 1.9018666267464044 0.6498816863067276 334.77906799316412 26.712274218347478 -3256.1532897949214 304.40597534179693 0.5501554061763394 259.01008762596422 315.50987243652349 332.59637451171881 0.51776105667095618 924.59782951755142
decision_type=2 2 2 2 2 2 2 2 2 2 2 2 2 2 2 2 2 2 2 2
left_child=-1 8 4 9 5 12 7 -6 11 -4 -11 14 -3 -10 -2 -8 19 -18 -5 -13
right_child=1 2 3 18 6 -7 15 -9 13 10 -12 16 -14 -15 -16 -17 17 -19 -20 -21
leaf_value=0.0005442531971985243 0.00022635234170111375 -0.0018718898028188215 0.001551302745857694 0.00095903835101510961 -0.00040546183580775219 0.0016558445737433981 -0.00016645297894891665 0.001043980290809568 0.00030831198267808894 0.00011339101139599684 -0.0017295312966704058 -0.0037823499083617846 -0.00013271238476759707 -0.00039341234533719628 -0.0018814591476939591 -0.0013586599286428249 -0.0017077362019637943 -0.003074919968048906 0.0044024169408541343 -0.0017175540963701192
leaf_weight=118 38 75 24 28 64 35 21 94 34 190 27 42 25 20 22 32 40 37 20 22
leaf_count=118 38 75 24 28 64 35 21 94 34 190 27 42 25 20 22 32 40 37 20 22
internal_value=0.000491023 -0.00274688 0.000346402 0.00439294 -0.00301936 -0.00903035 0.000805306 0.00439595 -0.0104665 0.0019494 9.21234e-05 -0.013277 -0.0139361 0 -0.00407654 -0.00979284 -0.017151 -0.0132296 0.0165281 -0.0217629
internal_weight=1008 890 635 289 346 135 211 158 255 241 217 201 100 54 60 53 141 77 48 64
internal_count=1008 890 635 289 346 135 211 158 255 241 217 201 100 54 60 53 141 77 48 64
is_linear=0
shrinkage=0.05


Tree=9
num_leaves=18
num_cat=0
split_feature=19 15 9 18 21 18 8 13 6 19 0 18 6 11 10 9 13
split_gain=30.8094 7.54505 5.15336 4.11007 4.07708 2.88702 2.53393 2.63799 3.01559 2.27321 2.28281 2.19996 2.08997 1.30564 1.23055 1.17595 0.574322
threshold=1.0000000180025095e-35 23605.500000000004 2.1570455934393657 0.47831166046886253 1.0000000180025095e-35 0.60622168672019205 286.98995971679693 0.556853945068564 962.25624587241839 1545.9573444137573 75.500000000000014 0.04713728128274397 60.299577660293146 25.746057503367719 1.155670703001545 2.2247406120188291 0.51776105667095618
decision_type=2 2 2 2 2 2 2 2 2 2 2 2 2 2 2 2 2
left_child=-1 6 3 9 -5 -6 13 8 11 14 -11 -8 -9 -2 -3 -4 -10
right_child=1 2 15 4 5 -7 7 12 16 10 -12 -13 -14 -15 -16 -17 -18
leaf_value=0.00051704053733859785 -0.0014023645735246394 0.00058769940175323887 0.0017381980552817478 -0.002874612739952659 0.0019240552206542501 -0.000850156087970802 0.00070543445963882072 0.00029829403795604559 0.00083232243902147123 -0.0016102505924638162 0.00033658205681357802 1.3194536507832311e-07 -0.0012930390896156219 -4.5514725332873599e-06 -0.00044328785928790808 4.3642031984011956e-05 0.0030467659202771617
leaf_weight=118 22 20 25 21 46 28 47 26 35 318 27 109 39 34 32 28 33
leaf_count=118 22 20 25 21 46 28 47 26 35 318 27 109 39 34 32 28 33
internal_value=0.000937407 -0.00224132 -0.00590717 -0.00750864 0.00178759 0.00735493 0.00353521 0.00543065 0.00800982 -0.00974566 -0.0112141 0.00413197 -0.00337942 -0.00614973 0 0.00885122 0.0168135
internal_weight=1008 890 545 492 95 74 345 289 224 397 345 156 65 56 52 53 68
internal_count=1008 890 545 492 95 74 345 289 224 397 345 156 65 56 52 53 68
is_linear=0
shrinkage=0.05


Tree=10
num_leaves=14
num_cat=0
split_feature=15 1 9 18 20 18 11 12 14 18 7 12 12
split_gain=32.8232 5.8351 5.26682 5.32222 4.89388 3.59522 3.5369 3.491 3.7219 1.86267 1.61099 1.52966 0.207186
threshold=1999.5000000000002 53.957868940578706 1.9018666267464044 0.39108628315925958 -17570.012084960934 0.34803921360393775 26.712274218347478 0.63646733240550379 0.63938655625367191 0.046244865206873161 -738.00128173828114 0.71680889606044462 0.69181303598655675
decision_type=2 2 2 2 2 2 2 2 2 2 2 2 2
left_child=-1 -2 4 5 6 10 11 -6 -9 -8 -4 -3 -5
right_child=1 2 3 12 7 -7 9 8 -10 -11 -12 -13 -14
leaf_value=0.00049118851047166845 0.0035974419616113282 8.3568265062267122e-05 -0.00032246784707417047 0.00097998603673484517 0.001281380150891287 -0.0021805071327860442 -0.00062014917253573891 -0.00044520870006102277 0.002110953745664629 -0.0028406614400232734 0.0006619330280884018 -0.0023310574998134078 0.0023810906929365412
leaf_weight=126 32 53 37 20 24 26 29 411 26 117 43 22 26
leaf_count=126 32 53 37 20 24 26 29 411 26 117 43 22 26
internal_value=0.00110372 -0.00236116 -0.00317108 0.00522682 -0.00505058 -0.000895382 -0.0111714 -0.00210367 -0.00313429 -0.0157084 0.00430712 -0.00226365 0.0194143
internal_weight=992 866 834 152 682 106 221 461 437 146 80 75 46
internal_count=992 866 834 152 682 106 221 461 437 146 80 75 46
is_linear=0
shrinkage=0.05


Tree=11
num_leaves=13
num_cat=0
split_feature=15 1 15 9 11 20 1 12 1 8 8 8
split_gain=33.101 5.90007 4.27728 3.57047 2.831 2.77863 2.74439 2.61673 2.61639 2.04776 1.87456 1.69365
threshold=1999.5000000000002 53.957868940578706 23605.500000000004 1.9018666267464044 26.686663216670443 -23060.920959472653 106.8636975412805 0.64777638582541974 82.218986585281115 282.56221008300787 301.99308776855474 290.79313659667974
decision_type=2 2 2 2 2 2 2 2 2 2 2 2
left_child=-1 -2 7 4 8 -6 11 -3 -4 -9 -11 -5
right_child=1 2 3 6 5 -7 -8 9 -10 10 -12 -13
leaf_value=0.00046662908494808365 0.0034175698635307591 0.0015003204881188616 0.00043055327849746139 0.0011337604539927077 -0.0022842131713757931 -0.00081285217583903504 -0.0010297602591612472 -0.0008180528237197171 -0.0013184324583856378 0.00046119712220193954 -0.00039569939598937953 0.00020551211157993912
leaf_weight=126 32 25 72 20 104 163 36 39 63 102 154 56
leaf_count=126 32 25 72 20 104 163 36 39 63 102 154 56
internal_value=0.00100292 -0.00247662 -0.00329097 -0.00611749 -0.00831883 -0.0113066 0.00173952 0.00123399 -0.00236862 -6.77736e-05 0.00154237 0.00716163
internal_weight=992 866 834 514 402 267 112 320 135 295 256 76
internal_count=992 866 834 514 402 267 112 320 135 295 256 76
is_linear=0
shrinkage=0.05


Tree=12
num_leaves=12
num_cat=0
split_feature=15 1 6 13 7 10 15 14 19 11 0
split_gain=32.9619 5.86754 4.23414 4.69785 4.57311 3.08811 3.00457 2.0349 1.27951 1.13811 0.926971
threshold=1999.5000000000002 53.957868940578706 53.135728842871096 0.54864191794494521 -657.40975952148426 1.3041457821355311 14249.000000000002 0.52606514148862871 6643.7956753701837 38.806278372598086 68.500000000000014
decision_type=2 2 2 2 2 2 2 2 2 2 2
left_child=-1 -2 10 4 5 -4 -6 9 -9 -5 -3
right_child=1 2 3 7 6 -7 -8 8 -10 -11 -12
leaf_value=0.00044329763070067864 0.0032466913703542185 0.00010536279138952943 0.0023170322810755067 -0.0025396675591187693 6.1817781621614784e-05 -9.6253006692470513e-06 -0.0017057685739423679 5.6636528271331035e-05 -0.0019893901498615417 -0.00089202662160666195 0.00090312262772216387
leaf_weight=126 32 21 20 59 54 409 163 30 20 20 38
leaf_count=126 32 21 20 59 54 409 163 30 20 20 38
internal_value=0.00105332 -0.00241889 -0.00323103 -0.00421881 -0.00246866 0.000512701 -0.00838323 -0.0129357 -0.00489022 -0.017952 0.00964467
internal_weight=992 866 834 775 646 429 217 129 50 79 59
internal_count=992 866 834 775 646 429 217 129 50 79 59
is_linear=0
shrinkage=0.05


Tree=13
num_leaves=11
num_cat=0
split_feature=15 1 6 18 18 12 7 14 0 11
split_gain=32.5466 5.77049 4.11643 3.96235 3.92178 3.40606 3.76119 3.37662 0.926971 0.803609
threshold=1999.5000000000002 53.957868940578706 53.135728842871096 0.47831166046886253 0.52756893477166644 0.73453071496184263 -672.59390258789051 0.51206600407610092 68.500000000000014 28.121763273952979
decision_type=2 2 2 2 2 2 2 2 2 2
left_child=-1 -2 8 5 9 6 -4 -6 -3 -5
right_child=1 2 3 4 7 -7 -8 -9 -10 -11
leaf_value=0.00042113274916564251 0.0030843568018365077 0.00010009465182005406 -6.7611848148613205e-05 0.0031901568597027339 0.00043412569057177668 -0.0023744641327771879 -0.0011675913000076727 -0.0010390895746710926 0.00085796649633605726 0.0015439228511537617
leaf_weight=126 32 21 339 22 46 32 260 51 38 25
leaf_count=126 32 21 339 22 46 32 260 51 38 25
internal_value=0.00120452 -0.0022457 -0.00305119 -0.00402529 0.00343511 -0.00573602 -0.00487398 -0.00226571 0.00964467 0.0152866
internal_weight=992 866 834 775 144 631 599 97 59 47
internal_count=992 866 834 775 144 631 599 97 59 47
is_linear=0
shrinkage=0.05


Tree=14
num_leaves=13
num_cat=0
split_feature=15 1 15 18 18 10 10 13 13 8 6 1
split_gain=31.4519 5.51556 4.39162 3.407 3.59761 3.72545 2.7787 4.0339 1.96478 2.12145 2.83523 1.27074
threshold=1999.5000000000002 53.957868940578706 23605.500000000004 0.046244865206873161 0.16638200537424053 1.6839131520844768 1.0903978069664817 0.53286460059252594 0.46631613898028784 282.56221008300787 1022.4113424670326 90.514957280440214
decision_type=2 2 2 2 2 2 2 2 2 2 2 2
left_child=-1 -2 8 6 11 -6 -4 -8 -3 -10 -11 -5
right_child=1 2 3 4 5 -7 7 -9 9 10 -12 -13
leaf_value=0.00040007611170735926 0.0029301389617446801 0.0010205093541663685 0.00093856164332958294 -0.0027385017912454654 -0.001947052467869201 -3.0082981543952393e-05 0.00031528193796313001 -0.0012569296513987112 -0.0014496177124359022 -3.2687593393124216e-05 0.0010752723575034983 -0.00067416681774502005
leaf_weight=126 32 20 33 60 116 182 58 32 35 206 59 33
leaf_count=126 32 20 33 60 116 182 58 32 35 206 59 33
internal_value=0.0016077 -0.00178386 -0.00257163 -0.00543669 -0.00772181 -0.0050151 0.00178716 -0.0027192 0.002015 0.000983006 0.00252735 -0.0163265
internal_weight=992 866 834 514 391 298 123 90 320 300 265 93
internal_count=992 866 834 514 391 298 123 90 320 300 265 93
is_linear=0
shrinkage=0.05


Tree=15
num_leaves=18
num_cat=0
split_feature=19 16 18 11 1 14 12 6 8 18 17 18 6 0 9 19 6
split_gain=30.2804 7.00663 3.64714 3.81198 2.99407 2.75655 2.40785 2.67656 3.00888 2.39809 4.07543 2.76552 1.64379 1.82283 1.18205 0.14777 0.030273
threshold=1.0000000180025095e-35 1971.5000000000002 0.42513525751721865 25.157192899149525 66.753743543973471 0.50116427696788957 0.64777638582541974 53.135728842871096 343.42062377929693 0.45523950968617699 3079.7562871382584 0.046244865206873161 661.75779733467209 69.500000000000014 1.6813162249927822 8249.2155511206092 1180.3827730645203
decision_type=2 2 2 2 2 2 2 2 2 2 2 2 2 2 2 2 2
left_child=-1 2 6 -4 16 -6 -2 -8 -9 11 -11 14 15 -14 -3 -13 -5
right_child=1 9 3 4 5 -7 7 8 -10 10 -12 12 13 -15 -16 -17 -18
leaf_value=0.00038007230612199241 0.00067214032344516952 -0.0007984517802651081 -0.0010768119544134148 0.0046328406742120213 0.0010215087396283184 -0.00023749439034574107 0.00067359488313241682 -0.00026734660763863273 -0.0013588522114155233 0.0021100648159175506 -0.001333491705145004 -0.0028571697091378523 -0.0016759766379452091 -0.00018783407715695645 0.00070376863889663472 -0.0025947123866217089 0.0021566141727432653
leaf_weight=124 34 31 23 26 51 62 38 334 41 21 32 22 40 29 24 34 21
leaf_count=124 34 31 23 26 51 62 38 334 41 21 32 22 40 29 24 34 21
internal_value=0.00184378 -0.00147144 0.0012617 0.00720918 0.00996252 0.00548187 -0.00116305 -0.00222706 -0.00351906 -0.00888031 0.000376648 -0.0116324 -0.0157474 -0.0104197 -0.00217786 -0.0221925 0.0205945
internal_weight=987 863 630 183 160 113 447 413 375 233 53 180 125 69 55 56 47
internal_count=987 863 630 183 160 113 447 413 375 233 53 180 125 69 55 56 47
is_linear=0
shrinkage=0.05


Tree=16
num_leaves=18
num_cat=0
split_feature=19 15 18 10 11 16 1 12 6 12 7 11 9 12 12 11 11
split_gain=29.621 6.11007 4.36941 4.00778 3.68589 3.25593 2.55921 2.54441 2.13218 2.1128 2.68022 1.50744 1.98572 1.90545 2.94097 0.892048 0.347123
threshold=1.0000000180025095e-35 55711.500000000007 0.43070530043995131 3.901648040942352 25.157192899149525 2774.5000000000005 66.753743543973471 0.67934693610406094 53.135728842871096 0.71412898228036792 -626.90438842773426 25.843618193429162 1.3522702936655562 0.68734300709168383 0.67934693610406094 29.659734460123108 26.857987957770327
decision_type=2 2 2 2 2 2 2 2 2 2 2 2 2 2 2 2 2
left_child=-1 2 8 11 -4 15 -6 -8 -2 10 -10 12 -3 14 -13 -5 -15
right_child=1 3 4 5 6 -7 7 -9 9 -11 -12 13 -14 16 -16 -17 -18
leaf_value=0.00036106869081589112 0.00091413772686489985 0.00090209494545978597 -0.00099101736214022304 0.0010419613662023431 0.0037481383213123637 -0.0009779079238752264 -0.00040405026627268471 0.00084600913895774852 5.5754101311714099e-05 -0.0014000435539272605 -0.0012172300040523222 -0.0016514463843306628 -0.0022468009142934233 -0.0022003902344308046 0.00070626442202365025 0.00013444453121203571 -0.0031632924337161752
leaf_weight=124 38 26 21 21 46 22 40 52 254 27 81 95 27 21 27 20 45
leaf_count=124 38 26 21 21 46 22 40 52 254 27 81 95 27 21 27 20 45
internal_value=0.00209705 -0.00118179 0.00191379 -0.00688918 0.0089252 0.00427892 0.0119117 0.00700326 -0.000862284 -0.00205744 -0.000954939 -0.00982995 -0.00225989 -0.0119351 -0.00814906 0.0126521 -0.0188351
internal_weight=987 863 559 304 159 63 138 92 400 362 335 241 53 188 122 41 66
internal_count=987 863 559 304 159 63 138 92 400 362 335 241 53 188 122 41 66
is_linear=0
shrinkage=0.05


Tree=17
num_leaves=20
num_cat=0
split_feature=19 16 18 1 7 9 12 6 18 13 6 12 18 19 15 0 3 10 8
split_gain=29.2288 6.66833 3.45475 3.08502 3.25916 2.30075 2.24258 2.06234 3.0232 2.27045 1.97265 2.95739 1.71599 0.996576 0.782089 0.621092 0.587289 0.579415 0.538616
threshold=1.0000000180025095e-35 1971.5000000000002 0.42212057964919875 66.753743543973471 -692.99703979492176 1.9324181226180634 0.64777638582541974 878.75303215587485 0.04135247493088838 0.52415158193728983 53.135728842871096 0.71412898228036792 0.5940660075082721 12851.57690661786 168399.00000000003 66.500000000000014 2405.0000000000005 1.7648730418959884 298.49461364746099
decision_type=2 2 2 2 2 2 2 2 2 2 2 2 2 2 2 2 2 2 2
left_child=-1 2 6 17 13 7 -2 8 16 15 -8 -12 -6 -5 -7 -9 -3 -4 -10
right_child=1 5 3 4 12 14 10 9 18 -11 11 -13 -14 -15 -16 -17 -18 -19 -20
leaf_value=0.00034301525627509767 0.00067842561434838247 0.00017495327118186301 0.00023902449621776567 0.00030306064668272903 4.8135915643116035e-05 0.00068026134467326089 0.0005942082526325499 -0.0015812780167328844 -0.0018184068536630628 0.00069284603588510576 -0.00024796377404087688 -0.0021188728680338943 -0.0012857910551485219 0.0011090682251546358 -0.00067838405085548234 -0.00050605432239280161 -0.00082007695972553807 0.0043513795000875823 -0.0030053165833627271
leaf_weight=124 34 20 21 26 43 22 38 21 23 30 337 36 25 37 20 26 20 33 51
leaf_count=124 34 20 21 26 43 22 38 21 23 30 337 36 25 37 20 26 20 33 51
internal_value=0.00224901 -0.00100799 0.00165847 0.0074014 0.00320366 -0.00823681 -0.00071894 -0.0105704 -0.0148554 -0.00415045 -0.0017514 -0.00286786 -0.00433186 0.0114105 0.00225653 -0.0110403 -0.00361596 0.0174677 -0.0208502
internal_weight=987 863 630 185 131 233 445 191 114 77 411 373 68 63 42 47 40 54 74
internal_count=987 863 630 185 131 233 445 191 114 77 411 373 68 63 42 47 40 54 74
is_linear=0
shrinkage=0.05


Tree=18
num_leaves=18
num_cat=0
split_feature=19 16 18 1 1 9 12 11 12 14 18 6 17 6 1 17 18
split_gain=29.49 5.58986 3.20094 2.88576 3.14876 2.64339 2.38027 2.23333 2.01311 2.02092 2.00968 1.76436 1.46462 2.16739 0.662699 0.593606 0.578164
threshold=1.0000000180025095e-35 1986.0000000000002 0.42212057964919875 66.753743543973471 100.51144111150201 1.9324181226180634 0.71412898228036792 25.843618193429162 0.70709409253737021 0.41372379972569578 0.5940660075082721 259.01008762596422 3150.6391408608229 914.05883789062511 59.09353072040475 4433.3345344362824 0.04975150846074914
decision_type=2 2 2 2 2 2 2 2 2 2 2 2 2 2 2 2 2
left_child=-1 2 6 14 10 7 8 -3 9 -2 -5 -8 13 -9 -4 -7 -14
right_child=1 5 3 4 -6 15 11 12 -10 -11 -12 -13 16 -15 -16 -17 -18
leaf_value=0.00032586449346134197 0.00089607039383028946 2.9210162056619859e-05 0.00066492459290160575 0.00020444118311384874 0.0017186476291387533 0.00057456647957727924 -0.00020149780396284402 -0.0014979333675921081 0.0019312086100511522 -0.00022900515470448136 -0.00084249136868552461 -0.0020710381195730653 -0.0010485279256544188 0.00074524615485985213 0.0042465726649502438 -0.00094030318353671152 -0.0029142074693472133
leaf_weight=124 28 37 29 66 31 20 30 48 24 343 36 21 25 21 25 22 57
leaf_count=124 28 37 29 66 31 20 30 48 24 343 36 21 25 21 25 22 57
internal_value=0.00214771 -0.00112386 0.00129521 0.00678781 0.00277986 -0.00780096 -0.000997534 -0.0103402 0.000303721 -0.000592832 -0.00142018 -0.0111546 -0.0130377 -0.00752533 0.0165434 0.00344418 -0.0176005
internal_weight=987 863 633 187 133 230 446 188 395 371 102 51 151 69 54 42 82
internal_count=987 863 633 187 133 230 446 188 395 371 102 51 151 69 54 42 82
is_linear=0
shrinkage=0.05


Tree=19
num_leaves=19
num_cat=0
split_feature=19 16 18 11 1 12 6 18 1 12 12 7 6 14 6 7 18 13
split_gain=29.621 5.13876 3.18316 2.56804 2.80612 2.26467 2.11999 2.76925 2.49805 2.0337 1.94986 2.17115 1.78013 2.27848 1.49758 1.00843 0.634461 0.143877
threshold=1.0000000180025095e-35 1986.0000000000002 0.43070530043995131 25.157192899149525 66.753743543973471 0.71412898228036792 1154.7440750094531 0.04135247493088838 91.203454518026874 0.67166565606971562 0.70709409253737021 -647.69213867187489 661.75779733467209 0.52441732988367673 259.01008762596422 -675.14208984374989 0.049908103030726798 0.52583367584573137
decision_type=2 2 2 2 2 2 2 2 2 2 2 2 2 2 2 2 2 2
left_child=-1 2 5 -4 17 10 7 15 -8 -6 11 -2 16 -14 -7 -3 -9 -5
right_child=1 6 3 4 9 14 8 12 -10 -11 -12 -13 13 -15 -16 -17 -18 -19
leaf_value=0.00030957126878827237 8.5641204046077454e-05 0.00033373291006507657 -0.00087024818325389113 0.00094403705322944071 -0.00046303547139789906 -0.00019142291376470223 0.00068185025300041566 -0.0022699527994573645 -0.00087784483346849964 0.00075885016204348403 0.0019805299981728365 -0.0008788794806345924 0.00025521541665113893 -0.0026892940650476375 -0.001950308476871554 -0.0006241016469388295 -0.0021869146937688404 0.00391824435446102
leaf_weight=124 263 25 24 22 37 30 35 20 26 64 29 116 27 32 23 21 44 25
leaf_count=124 263 25 24 22 37 30 35 20 26 64 29 116 27 32 23 21 44 25
internal_value=0.00209705 -0.00118179 0.00113726 0.00694364 0.00941931 -0.0010193 -0.00758366 -0.0104672 0.000327332 0.00464886 0.000232786 -0.000712213 -0.0143786 -0.00795262 -0.0107345 0 -0.0202028 0.0195329
internal_weight=987 863 633 172 148 461 230 169 61 101 408 379 123 59 53 46 64 47
internal_count=987 863 633 172 148 461 230 169 61 101 408 379 123 59 53 46 64 47
is_linear=0
shrinkage=0.05


Tree=20
num_leaves=19
num_cat=0
split_feature=19 16 9 8 6 11 20 1 0 15 13 0 10 12 13 6 10 19
split_gain=28.197 3.7835 3.193 2.61728 3.57731 2.41518 2.16235 2.12278 2.09709 2.44991 1.80037 1.70221 2.49938 1.66764 3.30613 1.5119 1.24135 0.973908
threshold=1.0000000180025095e-35 946.50000000000011 1.9045951430978552 279.47212219238287 1119.2264020114492 26.660223680933907 -18941.072143554684 103.44022081686902 57.500000000000007 12496.000000000002 0.52501619556408718 72.500000000000014 2.3272939451374359 0.68852291877356564 0.5501554061763394 914.05883789062511 1.202891967587796 20656.698720545857
decision_type=2 2 2 2 2 2 2 2 2 2 2 2 2 2 2 2 2 2
left_child=-1 3 5 16 8 13 15 17 -5 -10 -8 12 -6 -3 -15 -7 -2 -4
right_child=1 2 7 4 11 6 10 -9 9 -11 -12 -13 -14 14 -16 -17 -18 -19
leaf_value=0.00029409270534885845 -0.001354366979274141 -0.0021759523831466066 0.00027295189957851076 0.00065482250094534575 -0.00019150182549431405 -0.0020161014788785516 -0.0010478496006276568 -0.00095192586130792294 0.00057792684804035819 -0.00038937502202627264 0.00035613088807940897 0.0020483720439846589 0.0010072735462780785 0.0011678823937930876 -0.001008650751090176 -0.0011226760068638487 -0.00012691543826251763 0.00073349430398086946
leaf_weight=123 21 30 23 39 26 97 48 23 114 158 34 22 44 40 28 37 30 27
leaf_count=123 21 30 23 39 26 97 48 23 114 158 34 22 44 40 28 37 30 27
internal_value=0.00258791 -0.000677684 -0.00431413 0.00241136 0.00377078 -0.00651067 -0.00946321 0.00506156 0.00118933 -0.000349136 -0.00298417 0.0124321 0.00848787 0 0.00433186 -0.0133855 -0.00821918 0.0108782
internal_weight=964 841 387 454 403 314 216 73 311 272 82 92 70 98 68 134 51 50
internal_count=964 841 387 454 403 314 216 73 311 272 82 92 70 98 68 134 51 50
is_linear=0
shrinkage=0.05


Tree=21
num_leaves=17
num_cat=0
split_feature=19 16 23 18 8 0 17 8 11 0 1 7 1 8 10 18
split_gain=27.6769 3.73983 3.31774 3.21842 2.75274 2.23066 2.21888 1.72825 2.30356 1.61776 1.41061 1.95468 1.40394 1.35644 1.27862 0.857717
threshold=1.0000000180025095e-35 946.50000000000011 1.0000000180025095e-35 0.47831166046886253 301.61383056640631 59.500000000000007 2623.1321479072171 279.47212219238287 26.49398494737115 62.500000000000007 66.753743543973471 -682.92562866210926 80.067033988586459 280.90959167480474 2.3484979323811483 0.040311269011706861
decision_type=2 2 2 2 2 2 2 2 2 2 2 2 2 2 2 2
left_child=-1 3 4 5 7 14 12 -3 -9 -7 -5 -12 -6 -11 -2 -8
right_child=1 2 -4 10 6 9 15 8 -10 13 11 -13 -14 -15 -16 -17
leaf_value=0.00027938807008141554 0.00018835449226152213 -0.0015825133737860765 0.0010775892455364923 0.0033744588454978743 -0.00018349452112794153 -0.0023991705009862863 -0.00010580024222351381 0.00089625142522321843 -0.00059489127498388869 -0.00082960915486945399 0.00080248247784302511 -0.00012930571200024389 -0.00093366854617874537 5.0388923168065429e-05 0.0011036753758673357 -0.0019457564705955444
leaf_weight=123 31 39 21 38 86 26 21 50 73 33 35 25 28 239 27 69
leaf_count=123 31 39 21 38 86 26 21 50 73 33 35 25 28 239 27 69
internal_value=0.00279535 -0.0004399 -0.0040558 0.00263158 -0.00517618 0.000407189 -0.00903969 -0.000277606 0.00259951 -0.00132506 0.0106524 0.00574043 -0.0043383 -0.00016538 0.00938038 -0.0149279
internal_weight=964 841 387 454 366 356 204 162 123 298 98 60 114 272 58 90
internal_count=964 841 387 454 366 356 204 162 123 298 98 60 114 272 58 90
is_linear=0
shrinkage=0.05


Tree=22
num_leaves=14
num_cat=0
split_feature=19 18 7 6 0 12 15 7 21 18 1 17 12
split_gain=28.0665 3.8343 3.4416 3.33681 2.93775 3.26842 2.8874 3.15118 2.47426 2.02162 1.87251 0.534352 0.132396
threshold=1.0000000180025095e-35 0.47831166046886253 -650.82492065429676 2013.1729436721632 57.500000000000007 0.73665486354907339 13223.500000000002 -672.59390258789051 1.0000000180025095e-35 0.038175345378862087 66.753743543973471 1395.893394489314 0.68766678387964386
decision_type=2 2 2 2 2 2 2 2 2 2 2 2 2
left_child=-1 4 3 8 11 6 9 -8 -3 -6 -4 -2 -10
right_child=1 2 10 -5 5 -7 7 -9 12 -11 -12 -13 -14
leaf_value=0.00026541866657734395 0.00058997955600716969 1.3801542508690146e-05 0.00078790724302329476 -0.00015304572649363636 -0.0009893846408502772 -0.001742813253027653 -1.5603739279623775e-05 -0.0012451681725669629 0.0017057778957696446 0.00047464718292354884 -0.00067541410534565369 0.00010360915745667444 0.0030007690259994946
leaf_weight=123 38 21 25 30 28 33 264 193 27 85 36 24 37
leaf_count=123 38 21 25 30 28 33 264 193 27 85 36 24 37
internal_value=0.00263977 -0.000618238 0.00593413 0.0110339 -0.00236055 -0.00343227 -0.00253464 -0.00430978 0.0160987 0.0045977 -0.00360065 0.00797101 0.0209828
internal_weight=964 841 176 115 665 603 570 457 85 113 61 62 64
internal_count=964 841 176 115 665 603 570 457 85 113 61 62 64
is_linear=0
shrinkage=0.05


Tree=23
num_leaves=17
num_cat=0
split_feature=19 16 18 10 1 6 12 11 16 11 6 10 12 1 7 0
split_gain=28.197 3.99138 3.01544 2.76701 3.23681 2.33585 2.56561 2.28315 1.97 1.7731 1.48053 1.32224 1.37617 1.27376 0.391302 0.366746
threshold=1.0000000180025095e-35 368.00000000000006 0.30477481830656072 3.901648040942352 53.957868940578706 53.135728842871096 0.74482039749463635 27.614478731790751 145.00000000000003 30.485644749657695 1217.9425507743319 5.4789460648013932 0.67547956487595984 78.673877788034261 -757.25814819335926 66.500000000000014
decision_type=2 2 2 2 2 2 2 2 2 2 2 2 2 2 2 2
left_child=-1 2 9 4 -3 -6 -7 14 -4 13 -10 12 -9 -2 -5 -11
right_child=1 3 8 7 5 6 -8 11 10 15 -12 -13 -14 -15 -16 -17
leaf_value=0.00025214773324847565 1.4505554383464903e-05 0.0016353684614036968 3.3871842961608056e-05 0.0020148807455577624 0.00050762871759571504 -0.00051665386829964914 -0.0017142258454937416 -0.0022961322720903899 0.0021648791380722622 0.0012222103353438153 0.00049909221416067912 0.00073463690356163902 6.2269471322054515e-05 -0.00099397860066738342 0.00091010706292896657 0.0004144326562541573
leaf_weight=123 27 21 24 23 37 465 22 21 37 20 30 20 28 25 21 20
leaf_count=123 27 21 24 23 37 465 22 21 37 20 30 20 28 25 21 20
internal_value=0.00258791 -0.000677684 0.0058438 -0.00249962 -0.00398092 -0.00476054 -0.00568672 0.0045977 0.0122942 -0.000488599 0.0166915 -0.00101302 -0.00549898 -0.00662188 0.0134921 0.00735661
internal_weight=964 841 183 658 545 524 487 113 91 92 67 69 49 52 44 40
internal_count=964 841 183 658 545 524 487 113 91 92 67 69 49 52 44 40
is_linear=0
shrinkage=0.05


Tree=24
num_leaves=25
num_cat=0
split_feature=19 15 10 14 10 13 10 9 1 13 10 18 10 13 6 13 8 0 8 8 18 16 14 1
split_gain=27.29 4.15829 2.76297 2.94248 2.47486 3.16959 2.65298 3.24765 3.28065 2.30951 2.29161 1.71808 2.49097 1.58753 2.02861 1.50417 1.27537 1.35296 1.22773 2.56217 1.19072 1.00926 0.93069 0.772783
threshold=1.0000000180025095e-35 29939.000000000004 2.2342164311042216 0.63938655625367191 1.6839131520844768 0.52779398675601519 2.4326016588331334 1.9018666267464044 106.8636975412805 0.52779398675601519 0.20433363758714937 0.090534722014745911 3.1018199455730771 0.5501554061763394 259.01008762596422 0.51776105667095618 305.78553771972662 64.500000000000014 301.61383056640631 315.50987243652349 0.046244865206873161 387.50000000000006 0.47692131371551677 81.702725190904715
decision_type=2 2 2 2 2 2 2 2 2 2 2 2 2 2 2 2 2 2 2 2 2 2 2 2
left_child=-1 2 3 9 5 16 18 20 -9 21 -11 12 -4 -7 -15 22 17 -3 -6 -20 -8 -2 -13 -14
right_child=1 4 11 -5 6 13 7 8 -10 10 -12 15 23 14 -16 -17 -18 -19 19 -21 -22 -23 -24 -25
leaf_value=0.0002395403465860535 -0.00021562250851641374 -0.00012168661007564975 0.00037068376334877808 0.0018539028027227235 0.00081342584007065843 0.0015609076107869547 -0.00013807703250626747 0.00073554216153768899 -0.00099539763691270104 -0.0010700082321351502 0.00096362666157686629 0.00059979595344075156 -0.001140844771862859 9.3398438495184705e-05 -0.00090704965651026428 0.0026612975980533945 -0.0025329861952179348 -0.0026303277861508935 -0.0025850879397399137 0.0004790953872744752 -0.0018218557666867974 -0.0012209085596454089 9.5998752844597696e-05 0.00029687061543176574
leaf_weight=123 46 21 25 21 36 29 32 73 28 22 81 35 25 33 32 36 27 29 20 29 57 52 32 20
leaf_count=123 46 21 25 21 36 29 32 73 28 22 81 35 25 33 32 36 27 29 20 29 57 52 32 20
internal_value=0.00295094 -0.000261562 0.00346748 -0.000202611 -0.00357543 -0.00829924 -0.000617957 -0.00391899 0.00217606 -0.00208851 0.00310378 0.00820335 0.00206847 -0.00207226 -0.00645161 0.0123181 -0.0158236 -0.0108782 0.006698 0.00142566 -0.0108866 -0.00759429 0.00774963 -0.00487805
internal_weight=964 841 395 222 446 171 275 190 101 201 103 173 70 94 65 103 77 50 85 49 89 98 67 45
internal_count=964 841 395 222 446 171 275 190 101 201 103 173 70 94 65 103 77 50 85 49 89 98 67 45
is_linear=0
shrinkage=0.05


Tree=25
num_leaves=17
num_cat=0
split_feature=19 16 8 14 6 15 8 11 6 13 18 13 1 18 11 20
split_gain=27.7462 3.52741 3.53432 2.52697 2.71772 2.42013 2.3688 2.30273 1.35404 2.63387 2.52253 1.43444 1.06201 1.01729 0.975044 0.865836
threshold=1.0000000180025095e-35 1940.0000000000002 279.47212219238287 0.63938655625367191 998.98851249694815 55711.500000000007 272.26956176757818 24.791299739555715 661.75779733467209 0.52626954895376399 0.046244865206873161 0.48412673247772053 80.067033988586459 0.020672602989489589 25.843618193429162 -26585.638763427731
decision_type=2 2 2 2 2 2 2 2 2 2 2 2 2 2 2 2
left_child=-1 2 6 4 7 -6 -2 -4 10 11 13 -10 -13 -3 -8 -12
right_child=1 8 3 -5 5 -7 14 -9 9 -11 15 12 -14 -15 -16 -17
leaf_value=0.00022756332925675249 0.00011468757527460239 -0.00051603638757554695 0.00145733127301253 0.0017612076625865892 0.00059957496307937175 -0.0006254145841315923 -0.004033250423861651 -3.615394589454313e-05 4.6380755347374959e-05 0.0010278387045210169 -0.0020876816317165927 -0.00027866865593614842 -0.0022859148691186464 0.00043411094789318487 -0.00038628546838426762 -0.0021406870488731521
leaf_weight=123 32 21 33 21 122 28 20 364 29 38 38 25 36 35 22 22
leaf_count=123 32 21 33 21 122 28 20 364 29 38 38 25 36 35 22 22
internal_value=0.00269547 -0.000389347 0.0015496 0.00289562 0.00222994 0.00796136 -0.00870445 5.03651e-05 -0.00551004 -0.00191257 -0.00943152 -0.00660377 -0.0109656 -0.0016934 -0.0165083 -0.0165557
internal_weight=1009 886 642 568 547 150 74 397 244 128 116 90 61 56 42 60
internal_count=1009 886 642 568 547 150 74 397 244 128 116 90 61 56 42 60
is_linear=0
shrinkage=0.05


Tree=26
num_leaves=16
num_cat=0
split_feature=19 16 8 18 12 12 18 1 8 1 0 12 13 1 11
split_gain=27.9936 3.37401 2.98575 2.4185 3.00491 3.87219 2.13911 2.35651 2.0669 1.8599 1.33342 1.23102 2.31065 1.94886 0.6763
threshold=1.0000000180025095e-35 1940.0000000000002 279.47212219238287 0.43070530043995131 0.66675357211122532 0.71785047661009427 0.044618900101031332 85.313174800856061 272.26956176757818 59.840753232697104 75.500000000000014 0.66085809337553403 0.48638702205149881 78.673877788034261 25.843618193429162
decision_type=2 2 2 2 2 2 2 2 2 2 2 2 2 2 2
left_child=-1 2 8 6 -5 -6 9 -8 -2 -4 11 -3 -13 -14 -10
right_child=1 10 3 4 5 -7 7 -9 14 -11 -12 12 13 -15 -16
leaf_value=0.00021618516279391377 0.00010895319651087476 -0.0025816847270580204 -0.00032933970596830676 -0.00027572272572047585 0.0015342793356725116 -0.00069147420016466292 -0.00037887302291248485 0.00026945573209544719 -0.003831587902668571 0.00061013488518118499 0.00016474168203773899 0.000696446015693436 -0.0003209818953427063 -0.0013198847913540313 -0.00036697119496505452
leaf_weight=123 32 37 21 38 88 20 174 101 20 126 35 27 74 71 22
leaf_count=123 32 37 21 38 88 20 174 101 20 126 35 27 74 71 22
internal_value=0.00259637 -0.000502201 0.00139386 0.00263158 0.00817933 0.0124422 0.000698887 -0.00189022 -0.00802969 0.00557444 -0.00551004 -0.00703013 -0.00520046 -0.00771881 -0.0153207
internal_weight=1009 886 642 568 146 108 422 275 74 147 244 209 172 145 42
internal_count=1009 886 642 568 146 108 422 275 74 147 244 209 172 145 42
is_linear=0
shrinkage=0.05


Tree=27
num_leaves=19
num_cat=0
split_feature=19 18 18 16 1 12 13 8 0 0 18 13 10 15 16 7 1 14
split_gain=27.5 3.16015 3.39842 3.99165 3.20215 2.88774 4.08519 4.09621 1.95461 2.41027 2.14568 1.86982 3.01023 1.38707 1.22647 0.913206 1.10988 0.81179
threshold=1.0000000180025095e-35 0.43070530043995131 0.046244865206873161 368.00000000000006 59.498551127342004 0.66625952267337907 0.55250190170692848 283.49481201171881 74.500000000000014 70.500000000000014 0.33989157946890342 0.53286460059252594 1.0903978069664817 88551.000000000015 596.00000000000011 -626.90438842773426 80.461933179007161 0.5766179879945319
decision_type=2 2 2 2 2 2 2 2 2 2 2 2 2 2 2 2 2 2
left_child=-1 2 4 15 -2 14 7 -7 9 -5 -10 13 -13 -6 -3 16 -4 -9
right_child=1 5 3 8 11 6 -8 17 10 -11 -12 12 -14 -15 -16 -17 -18 -19
leaf_value=0.00020537590465422029 -0.00094423449111527558 0.00018417868377733628 7.1594552083276145e-06 -0.00037453817741476826 0.00090401602877544513 -0.00061831606551214784 -0.00038444515176042641 0.0010459075286646192 -0.00071995906934421705 -0.0025223158292335211 0.0020598519406076986 0.0010292784325977744 -0.00085767394283904619 3.7107450637907661e-05 -0.0016555013152351528 -9.3828779126775571e-05 0.00069906477326100731 0.0028544811906760005
leaf_weight=123 21 20 27 228 63 27 37 102 24 88 25 47 54 22 24 23 34 20
leaf_count=123 21 20 27 228 63 27 37 102 24 88 25 47 54 22 24 23 34 20
internal_value=0.00279457 -0.000276492 -0.00204999 -0.00449788 0.00323515 0.0047588 0.00749597 0.0112005 -0.00676527 -0.00820943 0.00244399 0.00534659 0.000692384 0.0108108 -0.00668934 0.00529132 0.00851064 0.0151106
internal_weight=1009 886 656 449 207 230 186 149 365 316 49 186 101 85 44 84 61 122
internal_count=1009 886 656 449 207 230 186 149 365 316 49 186 101 85 44 84 61 122
is_linear=0
shrinkage=0.05


Tree=28
num_leaves=19
num_cat=0
split_feature=19 16 8 18 12 1 1 11 8 12 12 14 10 15 11 13 14 16
split_gain=26.5247 3.45752 3.00488 2.33345 2.94047 1.90258 3.1776 2.09614 1.78552 1.64562 3.04273 2.80945 1.55914 1.26868 0.957681 0.912142 0.857765 0.778851
threshold=1.0000000180025095e-35 1940.0000000000002 279.47212219238287 0.46155262555722332 0.66675357211122532 70.842017226594763 68.568669888506022 30.398363025064707 272.26956176757818 0.67824570934119099 0.68643307497847694 0.59084803658208218 1.9226365611103129 103183.00000000001 25.843618193429162 0.55352681005447735 0.45267200982746941 2843.5000000000005
decision_type=2 2 2 2 2 2 2 2 2 2 2 2 2 2 2 2 2 2
left_child=-1 2 8 5 -5 6 -4 -7 -2 12 -11 13 -3 -12 -10 -6 -14 -18
right_child=1 9 3 4 15 7 -8 -9 14 10 11 -13 16 -15 -16 -17 17 -19
leaf_value=0.00019510710942151067 0.00011878445194292709 -0.0028949904225778703 1.6867189675917605e-06 -0.00022515352364800291 0.0014613534520667077 7.9585109509011659e-05 -0.0023028678096279009 0.00071983608926310121 -0.0036420272252288641 0.00096297793927174746 -0.0011818870661394615 0.0015674518479931593 -0.00095897700381543112 -0.00016213454144635154 -0.00032964805198742179 0.0002033910033872849 -0.00078059495526673357 0.00028693557589598573
leaf_weight=123 32 33 151 34 66 209 22 66 20 27 36 26 25 53 22 20 21 23
leaf_count=123 32 33 151 34 66 209 22 66 20 27 36 26 25 53 22 20 21 23
internal_value=0.00319096 0.000163638 0.00209469 0.00333568 0.00953372 0.00166258 -0.00242634 0.004253 -0.00735493 -0.00489553 -0.00137227 -0.00495222 -0.00974535 -0.00920314 -0.014133 0.0144599 -0.00535456 -0.00102041
internal_weight=1009 886 642 568 120 448 173 275 74 244 142 115 102 89 42 86 69 44
internal_count=1009 886 642 568 120 448 173 275 74 244 142 115 102 89 42 86 69 44
is_linear=0
shrinkage=0.05


Tree=29
num_leaves=19
num_cat=0
split_feature=19 18 18 16 23 1 12 12 11 1 1 18 10 13 10 15 17 7
split_gain=26.7675 2.74921 2.83621 2.62565 2.88732 2.43442 2.41271 2.40121 2.13447 1.9293 1.5419 1.39269 1.42123 1.31599 2.48981 1.19511 0.908247 0.902666
threshold=1.0000000180025095e-35 0.43070530043995131 0.046244865206873161 368.00000000000006 1.0000000180025095e-35 59.498551127342004 0.66675357211122532 0.71785047661009427 26.712274218347478 82.236311370819564 103.44022081686902 0.38050269484905147 1.5861762368930898 0.53067980879883991 1.0903978069664817 88551.000000000015 1156.0637165262167 -636.09033203124989
decision_type=2 2 2 2 2 2 2 2 2 2 2 2 2 2 2 2 2 2
left_child=-1 2 5 11 8 -2 16 9 -5 17 -11 12 -4 15 -15 -7 -3 -8
right_child=1 6 3 4 -6 13 7 -9 -10 10 -12 -13 -14 14 -16 -17 -18 -19
leaf_value=0.00018535175395043569 -0.00089710710250789363 0.00011987723020004948 -9.425005535808052e-05 -5.4753407609592355e-05 0.00044547796206279022 0.00088408253904984915 0.0017757815775584886 -0.00080850226542286685 -0.0012625982848926522 -0.00015402781437403592 0.0012247649506225257 -0.00046092118220549818 0.00088910535963519506 0.00098592123804019938 -0.00073375297178566729 5.6122765754340609e-05 -0.00092828468264922201 0.00026075114942267219
leaf_weight=123 21 29 22 99 27 58 71 25 239 39 25 22 40 47 59 22 21 20
leaf_count=123 21 29 22 99 27 58 71 25 239 39 25 22 40 47 59 22 21 20
internal_value=0.00309186 5.07843e-05 -0.00159275 -0.00382988 -0.00566968 0.00323515 0.0047588 0.00746807 -0.00693582 0.00980013 0.00304212 0.00410226 0.00797101 0.00507792 0.00136664 0.00992509 -0.00489022 0.0144896
internal_weight=1009 886 656 449 365 207 230 180 338 155 64 84 62 186 106 80 50 91
internal_count=1009 886 656 449 365 207 230 180 338 155 64 84 62 186 106 80 50 91
is_linear=0
shrinkage=0.05


Tree=30
num_leaves=14
num_cat=0
split_feature=19 18 12 12 18 6 8 12 7 17 8 7 18
split_gain=26.8462 2.84086 2.28457 3.03909 2.49813 2.51933 2.17928 2.17235 2.10172 1.78967 2.11564 1.53742 0.728788
threshold=1.0000000180025095e-35 0.48768401147425461 0.71412898228036792 0.70709409253737021 0.04135247493088838 142.31464411561907 319.64587402343756 0.6980864931065045 -1448.1931152343748 2329.6119085592768 294.67721557617193 -724.16949462890614 0.60054863106155132
decision_type=2 2 2 2 2 2 2 2 2 2 2 2 2
left_child=-1 2 3 4 7 -6 9 -2 -4 10 -3 -10 -12
right_child=1 6 8 -5 5 -7 -8 -9 11 -11 12 -13 -14
leaf_value=0.00017608416625291559 0.00065638936973068385 3.172728603232922e-05 8.1813619643267277e-05 0.0012774377378983626 -0.0010959880973530651 -0.00010232796192392591 -0.0003417148345482124 -6.4411248844453714e-05 -0.0028006327364575147 -1.7265139620636916e-05 0.0016606986218635766 -0.00075376483155739085 0.001759271234390708
leaf_weight=124 96 34 27 39 68 398 33 28 22 33 35 38 22
leaf_count=124 96 34 27 39 68 398 33 28 22 33 35 38 22
internal_value=0.00317922 8.01741e-05 -0.00124983 -0.000190749 -0.00109304 -0.00277837 0.00617441 0.00519742 -0.00884041 0.00922643 0.012843 -0.0140599 0.0187391
internal_weight=997 873 716 629 590 466 157 124 87 124 91 60 57
internal_count=997 873 716 629 590 466 157 124 87 124 91 60 57
is_linear=0
shrinkage=0.05


Tree=31
num_leaves=15
num_cat=0
split_feature=15 14 7 13 13 13 10 1 14 16 19 8 13 1
split_gain=26.4664 1.97644 2.57348 3.73249 3.30327 4.3983 2.8482 1.87857 1.87189 1.64054 1.30794 1.26015 1.20055 0.868568
threshold=1615.0000000000002 0.63938655625367191 -644.49487304687489 0.52334617327709398 0.54864191794494521 0.53463247923490986 4.0857087000241705 80.277485306073501 0.29697360874984619 492.50000000000006 651.38954234714834 295.24183654785162 0.556853945068564 82.218986585281115
decision_type=2 2 2 2 2 2 2 2 2 2 2 2 2 2
left_child=-1 2 4 9 5 6 -2 -7 -6 -4 -5 -3 -12 -10
right_child=1 11 3 10 8 7 -8 -9 13 -11 12 -13 -14 -15
leaf_value=0.00016727995794026953 -3.183332686874374e-05 1.7662941488039153e-05 -0.00048914749170489164 0.00053676698692722846 6.9196119527978328e-05 0.0018216658964422261 0.00045829084502586052 7.6237414726415545e-05 -0.00080473761613761297 -0.0034802661178347824 2.3023591185677984e-05 0.0018668184636737473 -0.0016513138823699648 -0.0027359195699399015
leaf_weight=121 374 22 26 26 28 41 118 23 50 38 58 20 30 22
leaf_count=121 374 22 26 26 28 41 118 23 50 38 58 20 30 22
internal_value=0.00302878 0 -0.000533509 -0.00586749 0.000906874 0.00241863 0.000802682 0.0147426 -0.00744256 -0.0155226 -0.000394391 0.0105701 -0.00334847 -0.0117198
internal_weight=997 876 834 178 656 556 492 64 100 64 114 42 88 72
internal_count=997 876 834 178 656 556 492 64 100 64 114 42 88 72
is_linear=0
shrinkage=0.05


Tree=32
num_leaves=16
num_cat=0
split_feature=19 16 13 12 9 7 12 13 1 10 13 10 13 16 0
split_gain=26.9703 1.91875 2.07113 2.0057 2.4817 2.37808 2.08706 1.81406 1.80526 1.65101 1.55632 1.78255 1.30211 0.897684 0.713249
threshold=1.0000000180025095e-35 1940.0000000000002 0.52779398675601519 0.7200624878307661 0.80290620999081563 -647.69213867187489 0.69645262100915051 0.49307897173107623 77.461446514574817 4.0857087000241705 0.54464931961575735 1.0903978069664817 0.50431756690294283 3043.5000000000005 68.500000000000014
decision_type=2 2 2 2 2 2 2 2 2 2 2 2 2 2 2
left_child=-1 3 7 4 -2 9 -7 13 -5 -6 -4 -12 -9 -3 -14
right_child=1 2 10 8 5 6 -8 12 -10 -11 11 -13 14 -15 -16
leaf_value=0.00015891596004325437 0.001413943936587131 -0.00046573927528545389 0.0011636169581476202 -0.0012070188576065845 0.00013754202537344664 -0.0006441840093346946 0.00098168683397794059 -0.0029020632942984349 1.0698973860701067e-05 0.00079165767168779553 0.00011862944262308051 -0.0032473526901568074 -0.00028541488771151313 0.00047224007432591919 -0.001148410626885843
leaf_weight=124 20 29 30 29 318 122 30 22 35 89 27 27 40 23 32
leaf_count=124 20 29 30 29 318 122 30 22 35 89 27 27 40 23 32
internal_value=0.00312907 2.29069e-05 -0.00388961 0.00143057 0.00236574 0.00173493 -0.00358317 -0.00749487 -0.00694228 0.00373373 0.00231867 -0.00268022 -0.0116366 0 -0.00825243
internal_weight=997 873 230 643 579 559 152 146 64 407 84 54 94 52 72
internal_count=997 873 230 643 579 559 152 146 64 407 84 54 94 52 72
is_linear=0
shrinkage=0.05


Tree=33
num_leaves=18
num_cat=0
split_feature=19 18 1 18 7 6 18 7 12 12 17 0 1 13 13 0 1
split_gain=26.3493 2.17696 2.81459 2.75198 1.97758 1.91623 2.14735 2.74503 1.8488 1.91325 1.68696 1.64286 1.58739 1.49417 0.984334 0.886033 0.845917
threshold=1.0000000180025095e-35 0.47831166046886253 66.753743543973471 0.04135247493088838 -644.49487304687489 142.31464411561907 0.066744515626227671 -757.25814819335926 0.6980864931065045 0.68427884003742478 2178.7762297298509 70.500000000000014 82.218986585281115 0.52583367584573137 0.53286460059252594 72.500000000000014 75.735703149792158
decision_type=2 2 2 2 2 2 2 2 2 2 2 2 2 2 2 2 2
left_child=-1 3 13 8 10 11 -7 -8 9 14 15 -5 16 -3 -2 -4 -10
right_child=1 2 4 5 -6 6 7 -9 12 -11 -12 -13 -14 -15 -16 -17 -18
leaf_value=0.00015097016204109194 0.00063009858202250359 0.00068751319407389655 0.00016320733339452166 -1.9638406913402574e-05 -0.0016688455662790314 0.00061526813101341624 -0.0012683376333079478 -0.00011777312167988442 -0.0001098234029480949 0.0016886248923356718 -0.0001011892253497293 -0.0027566844485159892 -0.00084401607388307767 0.0026628869584371718 -0.00064040270368822269 0.00094688490714079927 0.00014583598875912986
leaf_weight=124 51 21 32 31 24 34 32 398 29 25 29 37 24 35 20 27 24
leaf_count=124 51 21 32 31 24 34 32 398 29 25 29 37 24 35 20 27 24
internal_value=0.00297864 -8.01741e-05 0.00502677 -0.00130478 0.000401427 -0.00309152 -0.00192846 -0.00289468 0.00415945 0.00879292 0.003916 -0.0109398 -0.00155642 0.0141711 0.0045007 0.00879865 0.00320151
internal_weight=997 873 168 705 112 532 464 430 173 96 88 68 77 56 71 59 53
internal_count=997 873 168 705 112 532 464 430 173 96 88 68 77 56 71 59 53
is_linear=0
shrinkage=0.05


Tree=34
num_leaves=20
num_cat=0
split_feature=15 18 18 13 12 0 12 7 1 14 7 12 1 7 13 19 18 1 17
split_gain=26.5875 1.8131 2.7357 2.06376 3.31842 2.0466 1.95479 1.92123 1.82718 2.95849 1.86341 1.82446 1.58739 1.25128 1.06742 1.40149 0.923824 0.845917 0.539501
threshold=1615.0000000000002 0.04135247493088838 0.43070530043995131 0.52137562159226813 0.71785047661009427 55.500000000000007 0.6980864931065045 -699.98574829101551 80.461933179007161 0.4613597033518424 -577.39938354492176 0.68427884003742478 82.218986585281115 -632.87652587890614 0.53286460059252594 1108.2469280624389 0.60054863106155132 75.735703149792158 912.46388671251577
decision_type=2 2 2 2 2 2 2 2 2 2 2 2 2 2 2 2 2 2 2
left_child=-1 6 5 7 16 -3 11 18 10 -10 -7 14 17 -9 15 -2 -5 -8 -4
right_child=1 2 3 4 -6 8 12 13 9 -11 -12 -13 -14 -15 -16 -17 -18 -19 -20
leaf_value=0.0001434216539390354 0.00082290894810344017 0.0011679961137837009 0.001241460725568791 0.0016927121179355132 -0.0007636132568537735 -0.00091458823302784933 -0.00010433223280068571 -0.0012430468346822543 -0.00057800276487893491 9.2454854993745405e-05 0.00073041756038468855 0.0016041936477188879 -0.00080181527018892418 0.0002532412006375384 -0.00060838256850380976 -2.4163628340062583e-05 0.00046805126228618987 0.00013854418932117142 0.00018217011985589005
leaf_weight=121 35 20 26 47 23 216 29 47 72 142 24 25 24 23 20 23 24 24 32
leaf_count=121 35 20 26 47 23 216 29 47 72 142 24 25 24 23 20 23 24 24 32
internal_value=0.00297864 -5.1364e-05 -0.00121391 0.00335434 0.00897981 -0.00336427 0.00441421 -0.000741608 -0.00406298 -0.000677254 -0.00705956 0.00892338 -0.00155642 -0.00634807 0.00505762 0.00851979 0.014346 0.00320151 0.00593804
internal_weight=997 876 696 222 94 474 180 128 454 214 240 103 77 70 78 58 71 53 58
internal_count=997 876 696 222 94 474 180 128 454 214 240 103 77 70 78 58 71 53 58
is_linear=0
shrinkage=0.05


Tree=35
num_leaves=15
num_cat=0
split_feature=15 17 17 17 6 18 14 8 7 14 0 6 11 17
split_gain=26.7257 3.97517 2.41695 2.22371 2.63526 3.25159 1.85737 1.39905 1.30479 0.910449 1.70695 0.897112 0.736556 0.359673
threshold=1615.0000000000002 3203.0270914907387 129.75710075964324 540.06995747967574 94.553817332234345 0.4092967126119858 0.40914223484281048 302.46052551269537 -663.26699829101551 0.45257376194771115 65.500000000000014 1180.3827730645203 30.986976608027366 3985.0953375995855
decision_type=2 2 2 2 2 2 2 2 2 2 2 2 2 2
left_child=-1 2 -2 6 12 -6 -4 -8 9 10 -3 -11 -5 -10
right_child=1 8 3 4 5 -7 7 -9 13 11 -12 -13 -14 -15
leaf_value=0.00013625057124208584 -0.00059446802038344571 3.9185227261145929e-05 0.0013591969580572961 0.00022930019442423956 -0.00040178368941720113 0.00030408313529909362 0.00045655089922285732 6.6355248767630001e-05 -0.0037264216934762007 0.00015081644760555626 -0.0017418099005684585 -0.00026710052200091817 0.00066688497161803697 -0.0024139998899562892
leaf_weight=125 26 22 22 46 246 149 93 115 21 33 21 21 24 20
leaf_count=125 26 22 22 46 246 149 93 115 21 33 21 21 24 20
internal_value=0.00334824 0.000197882 0.00169186 0.00225867 0.000258009 -0.00131612 0.00627988 0.00478136 -0.00756698 -0.00432544 -0.00974478 0 0.00920114 -0.0150852
internal_weight=984 859 721 695 465 395 230 208 138 97 43 54 70 41
internal_count=984 859 721 695 465 395 230 208 138 97 43 54 70 41
is_linear=0
shrinkage=0.05


Tree=36
num_leaves=17
num_cat=0
split_feature=15 17 12 12 13 10 10 8 10 7 7 6 6 8 1 17
split_gain=27.105 3.44449 2.38318 2.66756 2.34248 3.39082 5.15195 2.9695 1.90871 1.73138 1.43751 0.756815 0.706579 1.50243 0.546156 0.359673
threshold=1615.0000000000002 3203.0270914907387 0.71680889606044462 0.72574457570644724 0.52779398675601519 1.8249650042733581 0.25531867370929989 334.77906799316412 0.77364741052192654 -676.67745971679676 -663.26699829101551 259.01008762596422 848.80913115990018 301.99308776855474 93.480734902229571 3985.0953375995855
decision_type=2 2 2 2 2 2 2 2 2 2 2 2 2 2 2 2
left_child=-1 2 4 -4 5 6 -2 8 -6 -7 12 -5 13 -3 -14 -12
right_child=1 10 3 11 7 9 -8 -9 -10 -11 15 -13 14 -15 -16 -17
leaf_value=0.00012943804267998016 0.0011806414601737592 0.00079948057687542762 -0.0019726686518789396 9.7424400054335614e-05 1.3700782052800121e-05 6.4775115646265041e-05 -0.0011292491675902738 -0.00083430309186161011 0.0012991346266967075 0.00047030996446019717 -0.0035401006088023879 -0.0001297876976282142 -5.8756465521625505e-05 -0.00064139018622797481 -0.0014586270074038454 -0.0022932998954584755
leaf_weight=125 23 21 24 24 43 209 127 25 120 90 21 36 23 33 20 20
leaf_count=125 23 21 24 24 43 209 127 25 120 90 21 36 23 33 20 20
internal_value=0.00319581 2.32802e-05 0.00141451 -0.00648038 0.00246429 0.000489869 -0.00562958 0.00715045 0.009626 0.0035774 -0.00720492 -0.000748752 -0.0038105 0 -0.00858469 -0.0150852
internal_weight=984 859 721 84 637 449 150 188 163 299 138 60 97 54 43 41
internal_count=984 859 721 84 637 449 150 188 163 299 138 60 97 54 43 41
is_linear=0
shrinkage=0.05


Tree=37
num_leaves=14
num_cat=0
split_feature=15 17 17 15 1 18 1 10 10 6 7 8 10
split_gain=26.7257 3.26897 2.37182 2.56568 2.56629 2.15547 1.29164 1.12154 1.49493 1.05612 1.00704 0.994309 0.584693
threshold=1615.0000000000002 3203.0270914907387 129.75710075964324 13656.000000000002 54.63374684658006 0.0332196972545779 110.48570466165252 2.0855108689134254 1.401615939722747 896.62096218155705 -663.26699829101551 298.49461364746099 3.1342514406751527
decision_type=2 2 2 2 2 2 2 2 2 2 2 2 2
left_child=-1 2 -2 7 -5 -6 10 8 -4 -9 11 -3 -13
right_child=1 6 3 4 5 -7 -8 9 -10 -11 -12 12 -14
leaf_value=0.00012296614054598255 -0.00056311930481472148 0.00015419677196226169 0.00055228847573569049 0.0014206311037597175 0.00059984566522176548 -6.9033784607414048e-05 8.2180871961148877e-05 0.00030381590995699206 -0.00028945183143046503 0.0019493597989614143 -0.0025347244629099486 -0.0015814733915839041 -0.00052756969905693731
leaf_weight=125 26 30 59 27 54 462 20 42 30 21 38 26 24
leaf_count=125 26 30 59 27 54 462 20 42 30 21 38 26 24
internal_value=0.00334824 0.000197882 0.00155318 0.0021148 0.000497146 -0.000280953 -0.00684287 0.00785667 0.00415264 0.0129952 -0.00884843 -0.00555556 -0.00988024
internal_weight=984 859 721 695 543 516 138 152 89 63 118 80 50
internal_count=984 859 721 695 543 516 138 152 89 63 118 80 50
is_linear=0
shrinkage=0.05


Tree=38
num_leaves=15
num_cat=0
split_feature=15 17 17 18 6 6 8 7 0 7 10 20 13 13
split_gain=27.2318 2.80669 2.2582 2.2518 3.12195 3.12297 3.01227 1.51201 1.48062 1.3867 1.21513 0.827783 0.77139 1.96548
threshold=1615.0000000000002 3256.9236719930218 129.75710075964324 0.4092967126119858 108.35178076744081 112.60006354513679 279.47212219238287 -663.26699829101551 72.500000000000014 -694.56613159179676 0.94611582756715562 -33348.758239746086 0.49127461583078597 0.52162821139700777
decision_type=2 2 2 2 2 2 2 2 2 2 2 2 2 2
left_child=-1 2 -2 4 10 -6 -5 9 -8 12 -4 -9 -3 -14
right_child=1 7 3 6 5 -7 8 11 -10 -11 -12 -13 13 -15
leaf_value=0.00011681783351868425 -0.00053496333957398499 -8.2107376467849277e-05 0.0012529980920924612 -0.0015791043593567256 -0.0049412967808259937 -6.574698517605726e-05 0.00033486388788530057 -0.0028239094107633451 0.0012007834464838885 0.00021422526842746482 0.00021751209743204326 -0.002018449787835397 -0.001914356599242223 1.6155962763153563e-05
leaf_weight=125 26 33 45 35 20 299 133 20 66 21 101 20 20 20
leaf_count=125 26 33 45 35 20 299 133 20 66 21 101 20 20 20
internal_value=0.00314501 -2.32802e-05 0.00119983 0.0017451 -0.000258009 -0.0030398 0.00574541 -0.00667412 0.00813661 -0.00313496 0.00578371 -0.0148379 -0.00642955 -0.0110973
internal_weight=984 859 725 699 465 319 234 134 199 94 146 40 73 40
internal_count=984 859 725 699 465 319 234 134 199 94 146 40 73 40
is_linear=0
shrinkage=0.05


Tree=39
num_leaves=19
num_cat=0
split_feature=15 1 12 12 19 1 19 11 13 8 11 13 11 19 15 16 1 6
split_gain=27.105 2.68514 2.78942 4.75857 2.25077 2.15257 3.9587 2.68204 2.35724 1.62761 2.25257 2.16466 1.24493 1.52103 0.506824 0.244678 0.196448 0.0194128
threshold=1615.0000000000002 66.329392491521602 0.68242840278765737 0.67338246760212894 2278.2033822748986 70.842017226594763 6505.5491858783407 34.759633648797681 0.52202413474780629 280.90959167480474 24.945630971969894 0.48171560148078135 34.690257924435024 3033.3737841796883 17606.500000000004 956.00000000000011 68.568669888506022 1050.1001656390961
decision_type=2 2 2 2 2 2 2 2 2 2 2 2 2 2 2 2 2 2
left_child=-1 2 3 12 -4 6 8 9 -3 11 -11 -7 13 -2 -6 -9 -8 -16
right_child=1 5 4 -5 14 7 16 15 -10 10 -12 -13 -14 -15 17 -17 -18 -19
leaf_value=0.00011097694184274976 0.00063636493688580271 0.00074914039693338994 -1.4777763072737482e-05 -0.0012618477044682832 0.001310781914421061 0.00074754026703987566 -0.0019442149412953276 0.0011110555040359682 -0.0010273277177928087 0.00078536020190482785 -6.6302639006482483e-05 -0.0017029655468122685 -6.5218316219692316e-05 0.00020351400500608909 0.0011377008287282388 0.00038332064007829959 -0.0040589039701788843 0.0017722067692757778
leaf_weight=125 33 22 20 36 20 20 20 22 30 59 382 45 20 43 22 20 25 20
leaf_count=125 33 22 20 36 20 20 20 22 30 59 382 45 20 43 22 20 25 20
internal_value=0.00319581 2.32802e-05 0.0048809 0.000340651 0.0121194 -0.00158115 -0.0084449 -0.000355774 0.000863724 -0.00137325 -0.000272047 -0.00875576 0.00619147 0.00913272 0.0168277 0.0117577 -0.0192905 0.0200713
internal_weight=984 859 214 132 82 645 97 548 52 506 441 65 96 76 62 42 45 42
internal_count=984 859 214 132 82 645 97 548 52 506 441 65 96 76 62 42 45 42
is_linear=0
shrinkage=0.05


Tree=40
num_leaves=17
num_cat=0
split_feature=15 15 8 13 6 1 6 6 18 18 11 2 13 12 14 20
split_gain=27.7295 2.38601 2.09626 1.76884 1.92413 1.76951 1.41363 1.30206 2.13092 1.77216 2.45431 1.3183 1.04311 1.00977 0.386558 0.384828
threshold=1615.0000000000002 29939.000000000004 287.28134155273443 0.56440057752658734 1159.0731657480626 75.735703149792158 726.06952705383299 2013.1729436721632 0.48768401147425461 0.044618900101031332 26.660223680933907 39.500000000000007 0.49070121312218767 0.6980864931065045 0.50003099490843572 -2652.251098632812
decision_type=2 2 2 2 2 2 2 2 2 2 2 2 2 2 2 2
left_child=-1 2 6 4 12 -5 -2 8 9 13 -11 -10 -4 -3 -6 -8
right_child=1 7 3 5 14 -7 15 -9 11 10 -12 -13 -14 -15 -16 -17
leaf_value=0.00010542809475061476 0.00043394620247016183 0.00037253233410017853 -3.9575926029236656e-05 -0.00050937282070772087 0.001322933684948277 0.00021672756034614161 -0.0010866401739548087 -0.00093443040616695845 0.00073527337114120961 0.00011891877207071133 -0.0009950403452131662 -6.6861094082321112e-05 0.0003607980413198403 -0.00014296538462343355 0.0007529632548203991 -0.00010045612681475747
leaf_weight=130 24 67 46 39 24 28 40 23 35 94 189 22 182 34 21 20
leaf_count=130 24 67 46 39 24 28 40 23 35 94 189 22 182 34 21 20
internal_value=0.00338375 0.00021957 0.00293563 0.0046898 0.00648114 -0.00253353 -0.00410226 -0.00225167 -0.00163228 -0.00298099 -0.0050159 0.00735552 0.00458132 0.00267062 0.0159645 -0.00823627
internal_weight=1018 888 424 340 273 67 84 464 441 384 283 57 228 101 45 60
internal_count=1018 888 424 340 273 67 84 464 441 384 283 57 228 101 45 60
is_linear=0
shrinkage=0.05


Tree=41
num_leaves=13
num_cat=0
split_feature=15 19 12 8 11 18 0 0 7 12 6 16
split_gain=27.7295 2.4455 2.12556 2.1812 3.28063 2.23145 1.47795 1.0439 1.2144 0.484107 0.266148 0.0317626
threshold=1615.0000000000002 493.7530844078064 0.73453071496184263 279.47212219238287 24.791299739555715 0.4092967126119858 64.500000000000014 70.500000000000014 -583.55178833007801 0.70709409253737021 56.167512423142774 1125.5000000000002
decision_type=2 2 2 2 2 2 2 2 2 2 2 2
left_child=-1 6 3 7 11 -6 -2 8 -3 10 -8 -5
right_child=1 2 -4 4 5 -7 9 -9 -10 -11 -12 -13
leaf_value=0.00010015669001308681 -0.00019446045290152372 0.0001149797872974312 -0.00099612104514985042 0.0013303282793443033 -0.00011451650179017392 0.00030565314241859099 0.00069596105561056947 -0.0020457260132565437 -0.0017211818637919319 3.3927222136331812e-05 0.00088981825919521034 0.00073140564835707253
leaf_weight=130 21 43 39 20 412 208 24 30 27 20 24 20
leaf_count=130 21 43 39 20 412 208 24 30 27 20 24 20
internal_value=0.00338375 0.00021957 -0.000650732 -5.92027e-05 0.000977125 7.25689e-05 0.00808081 -0.00694306 -0.00349501 0.011674 0.0144491 0.0148379
internal_weight=1018 888 799 760 660 620 89 100 70 68 48 40
internal_count=1018 888 799 760 660 620 89 100 70 68 48 40
is_linear=0
shrinkage=0.05


Tree=42
num_leaves=16
num_cat=0
split_feature=15 16 19 12 11 11 0 1 12 1 11 11 1 1 13
split_gain=27.6031 2.1647 1.53543 2.4162 1.7554 2.35757 1.55399 1.48982 2.46241 1.87782 1.47585 0.803052 1.08503 1.0272 0.560191
threshold=1615.0000000000002 1702.5000000000002 493.7530844078064 0.73320926064073821 24.525991841838973 24.978425109257049 64.500000000000014 66.431687506165204 0.68192066762134307 70.842017226594763 29.891686221237062 25.843618193429162 82.236311370819564 108.05132310736501 0.53286460059252594
decision_type=2 2 2 2 2 2 2 2 2 2 2 2 2 2 2
left_child=-1 2 6 4 -4 -6 -2 8 10 -9 -3 12 -11 -13 -8
right_child=1 7 3 -5 5 -7 14 9 -10 11 -12 13 -14 -15 -16
leaf_value=9.5148855512433578e-05 -0.00018473743025644864 -0.0016498398581037688 0.0010297098756121338 -0.00072976977644775018 -0.0015296104136721224 0.0001329808784125669 0.00087824705754014915 -0.0045899823326348791 0.00096424205276626209 0.00057086765912888198 0.00038629309936422107 -0.00062562963327226779 -0.0016351227706023375 0.00010575272872074549 0.00015483574334107519
leaf_weight=130 21 30 25 32 21 438 28 28 31 21 21 114 23 20 35
leaf_count=130 21 30 25 32 21 438 28 28 31 21 21 114 23 20 35
internal_value=0.00343287 0.00027587 0.00199133 0.000959116 0.00184879 0.00113265 0.00826397 -0.00328011 0.00237515 -0.00555556 -0.00430528 -0.00362156 0.0021542 -0.00555556 0.0122029
internal_weight=1018 888 600 516 484 459 84 288 82 206 51 178 44 134 63
internal_count=1018 888 600 516 484 459 84 288 82 206 51 178 44 134 63
is_linear=0
shrinkage=0.05


Tree=43
num_leaves=13
num_cat=0
split_feature=15 19 18 6 12 10 15 12 17 18 11 8
split_gain=27.1002 1.9503 1.76894 2.08142 2.99158 1.81563 1.47137 1.40774 1.38435 1.43327 0.869721 0.794325
threshold=1615.0000000000002 493.7530844078064 0.47831166046886253 1937.7700946165555 0.66675357211122532 5.4709177883676707 178972.50000000003 0.71412898228036792 397.63496325547152 0.038175345378862087 29.394551256882171 294.67721557617193
decision_type=2 2 2 2 2 2 2 2 2 2 2 2
left_child=-1 8 5 4 -4 6 7 -3 9 -2 -5 -6
right_child=1 2 3 10 11 -7 -8 -9 -10 -11 -12 -13
leaf_value=9.0391412736812171e-05 -0.00024387226301612885 -5.5205455858664548e-05 -0.00079715773080128456 -0.00036568312023896879 0.00010995828583506007 0.00083353194177511198 -0.0020336249760172231 -0.0008096622941764942 0.00091290126492352131 0.00017682984938832691 5.8135595728231459e-05 0.0012716032794840683
leaf_weight=130 30 506 24 23 26 38 24 62 36 23 22 74
leaf_count=130 30 506 24 23 26 38 24 62 36 23 22 74
internal_value=0.00362931 0.00050107 -0.00027531 0.00425784 0.00761483 -0.00149976 -0.00218713 -0.00166344 0.00751964 0.00225989 -0.00487805 0.0114386
internal_weight=1018 888 799 169 124 630 592 568 89 53 45 100
internal_count=1018 888 799 169 124 630 592 568 89 53 45 100
is_linear=0
shrinkage=0.05


Tree=44
num_leaves=16
num_cat=0
split_feature=15 16 1 18 7 18 13 13 19 17 8 1 8 13 13
split_gain=26.9753 2.08681 1.62817 2.44193 1.42293 1.37665 1.85446 2.82402 2.43899 1.59232 1.58147 1.28169 1.23881 1.23285 2.01006
threshold=1615.0000000000002 1702.5000000000002 66.431687506165204 0.42212057964919875 -777.30184936523426 0.020672602989489589 0.5660687635723034 0.52909003442639524 1300.454457122803 397.63496325547152 285.23480224609381 59.261896782841809 323.61796569824224 0.556853945068564 0.52779398675601519
decision_type=2 2 2 2 2 2 2 2 2 2 2 2 2 2 2
left_child=-1 5 3 11 -4 9 7 10 -9 -2 -7 -3 -8 14 -6
right_child=1 2 4 -5 13 6 12 8 -10 -11 -12 -13 -14 -15 -16
leaf_value=8.5871842099971573e-05 -1.8521096728540966e-05 -0.0016756437934679403 0.00057645256739620454 0.0008973762534146807 -0.0007323481631924478 -0.00053594889823735945 -0.00078468643356487957 -0.00011355919115797476 0.0011907924192400721 0.0010591309539978999 6.3881619933953138e-05 0.00029015609790154496 -0.00015335509047102183 -0.0034311883766595915 0.00019823499247887956
leaf_weight=130 21 23 20 24 119 81 20 31 79 35 299 35 34 22 45
leaf_count=130 21 23 20 24 119 81 20 31 79 35 299 35 34 22 45
internal_value=0.00367842 0.00055737 -0.00293301 0.00298417 -0.00531295 0.00224129 0.00146113 0.00243828 0.00949137 0.0097148 0.000381479 -0.0024957 -0.00730129 -0.00668995 -0.0051493
internal_weight=1018 888 288 82 206 600 544 490 110 56 380 58 54 186 164
internal_count=1018 888 288 82 206 600 544 490 110 56 380 58 54 186 164
is_linear=0
shrinkage=0.05


Tree=45
num_leaves=15
num_cat=0
split_feature=15 18 10 9 11 1 6 13 18 12 16 17 13 0
split_gain=24.3671 2.94645 2.67218 2.60507 2.57483 2.7003 1.87323 1.73334 1.34319 1.7309 1.69696 1.30348 1.57578 0.731645
threshold=1615.0000000000002 0.43070530043995131 2.0855108689134254 1.4780807075209237 34.759633648797681 73.065329987369822 1620.8353417892456 0.51776105667095618 0.046244865206873161 0.70792471352462016 271.00000000000006 2366.2658838441753 0.52583367584573137 64.500000000000014
decision_type=2 2 2 2 2 2 2 2 2 2 2 2 2 2
left_child=-1 4 3 11 6 -6 8 13 10 -10 -2 12 -3 -4
right_child=1 2 7 -5 5 -7 -8 -9 9 -11 -12 -13 -14 -15
leaf_value=8.1578249994973545e-05 -0.0007539301811522348 -9.447299747639693e-05 3.1336331916820281e-06 -0.00078468444274220901 -0.00045255332037936194 0.0010592045475670442 -0.0012070597472262886 0.0014873824548911731 -0.00050639315780445782 0.0010113101125995311 0.00020555670123558747 -0.00070000939391961234 0.00098024854477386249 0.0010918718391255578
leaf_weight=116 29 32 36 24 24 35 20 39 353 30 163 20 46 31
leaf_count=116 29 32 36 24 24 35 20 39 353 30 163 20 46 31
internal_value=0.00340146 0.000561161 0.00545813 0.00036855 -0.00113897 0.00879865 -0.0021341 0.011263 -0.00159972 -0.00331506 0.00179594 0.0040265 0.00697823 0.00625931
internal_weight=998 882 228 122 654 59 595 106 575 383 192 98 78 67
internal_count=998 882 228 122 654 59 595 106 575 383 192 98 78 67
is_linear=0
shrinkage=0.05


Tree=46
num_leaves=19
num_cat=0
split_feature=15 18 8 10 9 1 14 1 6 13 13 13 0 20 7 0 18 18
split_gain=24.5949 2.5677 2.34626 2.22796 2.60507 2.04908 1.95877 2.10528 1.59505 1.87901 2.09146 1.51168 1.40187 1.30348 1.8322 1.13101 0.840605 0.112048
threshold=1615.0000000000002 0.43070530043995131 315.31056213378912 2.0855108689134254 1.4780807075209237 66.753743543973471 0.56191947106101903 82.657074697129417 1620.8353417892456 0.49619956934161397 0.52909003442639524 0.52162821139700777 66.500000000000014 -22009.824035644528 -650.82492065429676 68.500000000000014 0.54819146772370397 0.4936265231057626
decision_type=2 2 2 2 2 2 2 2 2 2 2 2 2 2 2 2 2 2
left_child=-1 2 8 4 13 -5 7 11 9 15 -11 -4 -9 -3 -15 -2 17 -7
right_child=1 3 6 5 -6 16 -8 12 -10 10 -12 -13 -14 14 -16 -17 -18 -19
leaf_value=7.7499337495223755e-05 -0.0002745942707021776 -0.00029121926369857221 0.00034115579149708868 0.002230665158865225 -0.00074545022060510118 0.00016721177644933306 0.001073277101475606 0.00074500832052235011 -0.0011467067598649767 -0.0009419938468893885 -4.708401108824423e-06 -0.00035748807135447261 1.2138609208972585e-05 0.0010633250548109652 0.00022014382293534531 0.00079047229593061656 -1.5070648564999289e-05 0.00026674143905123241
leaf_weight=116 66 20 62 30 24 20 24 25 20 155 118 101 21 24 54 62 34 22
leaf_count=116 66 20 62 30 24 20 24 25 20 155 118 101 21 24 54 62 34 22
internal_value=0.00330127 0.000447795 -0.00113897 0.00501973 0.00036855 0.0103205 0.0028743 0.00129125 -0.00337212 -0.00266766 -0.00501648 -0.00134887 0.0107375 0.0040265 0.00697823 0.00230289 0.00584757 0.0105701
internal_weight=998 882 654 228 122 106 233 209 421 401 273 163 46 98 78 128 76 42
internal_count=998 882 654 228 122 106 233 209 421 401 273 163 46 98 78 128 76 42
is_linear=0
shrinkage=0.05


Tree=47
num_leaves=13
num_cat=0
split_feature=15 10 18 19 0 18 1 1 12 8 13 16
split_gain=24.8237 1.78562 2.09204 2.35234 2.70602 2.27667 2.01206 1.62841 1.45269 1.37248 1.29792 0.888198
threshold=1615.0000000000002 5.6492295667319574 0.47831166046886253 8249.2155511206092 75.500000000000014 0.52756893477166644 68.070462050914713 108.73008320823551 0.6704307991673687 314.01017761230474 0.47220678984103082 405.50000000000006
decision_type=2 2 2 2 2 2 2 2 2 2 2 2
left_child=-1 2 3 7 10 9 -7 8 -2 -4 -5 -8
right_child=1 -3 5 4 -6 6 11 -9 -10 -11 -12 -13
leaf_value=7.3624370620462012e-05 0.00021950005644484627 0.00069977874139309228 0.0014796035721648783 3.8313830598993295e-05 0.0013475314109392068 0.0011288413823654364 2.6173228730308475e-05 0.00082374632143199515 -8.8101213044172733e-05 0.00015948886634666317 -0.0011649006149490743 -0.00015085360164096009
leaf_weight=116 134 26 35 36 22 28 23 20 298 26 170 64
leaf_count=116 134 26 35 36 22 28 23 20 298 26 170 64
internal_value=0.00320108 0.000334429 -5.2564e-05 -0.00131598 -0.00545813 0.00479841 0.000608167 0.000763106 0.000104143 0.0126023 -0.00725376 -0.00309989
internal_weight=998 882 856 680 228 176 115 452 432 61 206 87
internal_count=998 882 856 680 228 176 115 452 432 61 206 87
is_linear=0
shrinkage=0.05


Tree=48
num_leaves=17
num_cat=0
split_feature=15 15 16 6 9 9 13 9 13 11 12 11 0 6 14 9
split_gain=25.0535 1.59816 1.64756 1.30925 1.08587 3.10544 2.44147 2.01936 2.26162 1.96337 1.67807 1.07433 1.03781 3.46381 0.70179 0.361954
threshold=1615.0000000000002 10623.000000000002 123.00000000000001 70.739728813934406 1.2490231715096785 1.3522702936655562 0.556853945068564 1.0543512676914502 0.52909003442639524 26.995306649467469 0.74482039749463635 30.986976608027366 68.500000000000014 872.21279472911704 0.53833711738984646 1.2258374637275147
decision_type=2 2 2 2 2 2 2 2 2 2 2 2 2 2 2 2
left_child=-1 2 -2 11 7 9 -7 10 -9 -6 -5 15 13 -4 -14 -3
right_child=1 3 12 4 5 6 -8 8 -10 -11 -12 -13 14 -15 -16 -17
leaf_value=6.994315208944113e-05 -0.00038416635203543381 0.00013107258040054859 -0.00053451673973233806 0.00050397521974636101 0.0026769541339938421 -3.1595805028850064e-05 -0.0034528667668161069 -0.0044617365267351885 -0.0005289153830394189 0.00013458192998192233 -0.00085422391103966719 0.0008337000830498098 0.00031250529873519395 0.0011683065363553237 0.0012339800957312742 -0.00029805456334498493
leaf_weight=116 30 26 24 49 26 468 22 31 31 28 22 24 33 21 22 25
leaf_count=116 30 26 24 49 26 468 22 31 31 28 22 24 33 21 22 25
internal_value=0.00310089 0.000221063 0.00534204 -0.000658157 -0.00135874 -0.00035839 -0.00162212 -0.00540947 -0.0119968 0.0109982 0.000281294 0.00559254 0.00844156 0.00266075 0.0130672 0.00136986
internal_weight=998 882 130 752 677 544 490 133 62 54 71 75 100 45 55 51
internal_count=998 882 130 752 677 544 490 133 62 54 71 75 100 45 55 51
is_linear=0
shrinkage=0.05


Tree=49
num_leaves=16
num_cat=0
split_feature=15 11 18 18 18 14 2 8 14 11 18 10 6 6 6
split_gain=25.6323 1.54353 1.80865 2.46105 2.36306 1.93515 1.73036 1.727 1.84665 1.69801 1.47308 1.34647 1.21115 0.876104 0.546156
threshold=1615.0000000000002 34.759633648797681 0.4092967126119858 0.34803921360393775 0.31010511160048532 0.48982968072668748 6.5000000000000009 279.47212219238287 0.5766179879945319 36.913423499106692 0.046244865206873161 2.9195625081641352 1899.6391779371727 259.01008762596422 1414.4979334447123
decision_type=2 2 2 2 2 2 2 2 2 2 2 2 2 2 2
left_child=-1 2 3 4 10 12 -5 14 -9 -3 -2 -8 -4 -11 -7
right_child=1 9 5 6 -6 7 11 8 -10 13 -12 -13 -14 -15 -16
leaf_value=6.6445994484970466e-05 3.6800102735409793e-05 0.00067943831257049063 0.0018620398341761104 3.4451492850057219e-05 0.0011100347448613546 -0.0020963897616787133 -0.0011336520795776851 -2.2530241084006699e-06 0.0010053200367512894 0.00047394601013906195 -0.00040565721946934642 -0.0016462971316948656 0.00021662841203048402 -0.00014802211740097548 -0.00033525342343607715
leaf_weight=116 192 23 29 29 37 20 45 123 47 22 208 26 33 25 23
leaf_count=116 192 23 29 29 37 20 45 123 47 22 208 26 33 25 23
internal_value=0.00285042 -5.10146e-05 -0.0006711 -0.00236455 -0.000732098 0.00261723 -0.00944056 0.000328484 0.00261611 0.00706134 -0.00186203 -0.0136428 0.0103865 0.0014862 -0.00858469
internal_weight=998 882 812 537 437 275 100 213 170 70 400 71 62 47 43
internal_count=998 882 812 537 437 275 100 213 170 70 400 71 62 47 43
is_linear=0
shrinkage=0.05


Tree=50
num_leaves=18
num_cat=0
split_feature=15 18 1 19 15 1 14 0 8 0 7 1 6 7 16 6 17
split_gain=24.2473 1.6236 2.15247 1.9384 1.9357 1.61037 1.57894 1.56635 2.89646 1.38121 1.35749 1.23293 0.914137 2.22919 0.866618 0.5988 0.598604
threshold=1615.0000000000002 0.43070530043995131 66.753743543973471 15608.247810601099 138589.50000000003 59.09353072040475 0.59084803658208218 71.500000000000014 301.99308776855474 72.500000000000014 -682.92562866210926 94.244709747441775 930.20214172572673 -729.06823730468739 775.00000000000011 726.06952705383299 686.81711298069956
decision_type=2 2 2 2 2 2 2 2 2 2 2 2 2 2 2 2 2
left_child=-1 3 5 4 7 -3 10 11 -9 12 16 -2 15 -14 -12 -5 -4
right_child=1 2 6 9 -6 -7 -8 8 -10 -11 14 -13 13 -15 -16 -17 -18
leaf_value=6.312369476071944e-05 0.0002145876796732449 0.00027888954222484162 0.00038835713432471832 -0.0020679656806980974 0.00021944399700736807 0.0024765361616858163 0.00070664227656931373 0.00023175901992074645 -0.0011183934386007066 0.00027381579300491678 -0.0013757014237198912 -9.5971965180924326e-05 -0.00097051875807653847 0.00030567115442945439 -1.0962486013399442e-07 -0.0041978059432763839 -5.7363184953973528e-06
leaf_weight=117 283 35 33 27 30 28 25 58 85 21 24 55 21 44 25 21 51
leaf_count=117 283 35 33 27 30 28 25 58 85 21 24 55 21 44 25 21 51
internal_value=0.00358051 0.000686988 0.00438716 -0.000573554 0.000821757 0.0122029 0.0012334 4.15714e-05 -0.00433263 -0.00592841 -0.000901578 0.00190772 -0.00813439 -0.00414747 -0.00753564 -0.0134096 0.0029132
internal_weight=983 866 221 645 511 63 158 481 143 134 133 338 113 65 49 48 84
internal_count=983 866 221 645 511 63 158 481 143 134 133 338 113 65 49 48 84
is_linear=0
shrinkage=0.05


Tree=51
num_leaves=21
num_cat=0
split_feature=15 18 19 12 12 14 7 12 15 10 19 13 16 10 13 10 19 8 15 2
split_gain=24.1317 1.38432 1.57666 2.46726 2.21638 1.86873 1.79525 2.01487 1.39023 1.21592 1.18546 1.75238 1.58928 1.31179 1.05317 1.02943 0.861325 0.816382 0.771115 0.375433
threshold=1615.0000000000002 0.43070530043995131 10150.380874195094 0.69718594674039969 0.6894526719461338 0.41964114189101193 -626.90438842773426 0.66085809337553403 6733.5000000000009 1.0903978069664817 14133.152587858194 0.52583367584573137 2094.0000000000005 2.2342164311042216 0.52626954895376399 2.771268928602844 23802.204975723082 298.83772277832037 57718.000000000007 13.500000000000002
decision_type=2 2 2 2 2 2 2 2 2 2 2 2 2 2 2 2 2 2 2 2
left_child=-1 2 3 4 5 -2 7 -4 -3 19 11 13 18 -10 -9 -11 -8 -14 -12 -5
right_child=1 8 6 9 -6 -7 16 14 10 15 12 -13 17 -15 -16 -17 -18 -19 -20 -21
leaf_value=5.9967510022684856e-05 0.00063708732414669293 -0.00035458280878269965 -0.001839956508896945 -4.7044103890284131e-05 0.001235521852307675 6.7321087694127704e-05 -0.0020338885567090627 -0.00018673217283788346 -0.00012415333795955664 -0.00092091090540853964 2.141960184515457e-05 0.0012729082307097461 0.00096841532521486093 0.0012659706445894759 0.00035624342430384261 -9.4197679110755172e-05 -0.0032591609371122408 0.00011959463874837706 -0.00017394211539781824 0.00078279198026274264
leaf_weight=117 48 23 27 34 27 239 22 77 34 49 50 30 20 20 32 46 24 23 21 20
leaf_count=117 48 23 27 34 27 239 22 77 34 49 50 30 20 20 32 46 24 23 21 20
internal_value=0.00363137 0.000744718 -0.00041854 0.00112287 0.00364534 0.00233368 -0.00436573 -0.00143277 0.00416101 -0.00415828 0.00552751 0.0100476 0.00214724 0.00452865 0.0015582 -0.00757098 -0.0129067 0.00974478 -0.002391 0.00175601
internal_weight=983 866 645 463 314 287 182 136 221 149 198 84 114 54 109 95 46 43 71 54
internal_count=983 866 645 463 314 287 182 136 221 149 198 84 114 54 109 95 46 43 71 54
is_linear=0
shrinkage=0.05


Tree=52
num_leaves=21
num_cat=0
split_feature=15 18 1 19 20 2 6 14 14 13 7 11 13 18 6 2 11 16 1 7
split_gain=24.4794 1.52747 1.99831 1.62632 1.3665 3.18919 1.25882 0.869198 1.83908 2.42954 1.13798 0.867818 0.851021 0.782588 0.805418 0.712488 0.489972 0.543843 0.453196 0.089577
threshold=1615.0000000000002 0.43070530043995131 80.067033988586459 15608.247810601099 -16157.247512817381 32.500000000000007 1435.0857398986818 0.41964114189101193 0.52441732988367673 0.54464931961575735 -642.18771362304676 26.49398494737115 0.50160206909069616 0.50303357794983306 1131.9420766067508 25.500000000000004 28.680310692637921 879.00000000000011 68.070462050914713 -699.98574829101551
decision_type=2 2 2 2 2 2 2 2 2 2 2 2 2 2 2 2 2 2 2 2
left_child=-1 3 6 7 5 -5 13 12 9 -9 -10 -7 -2 14 -3 -14 17 19 -15 -4
right_child=1 2 16 4 -6 11 -8 8 10 -11 -12 -13 15 18 -16 -17 -18 -19 -20 -21
leaf_value=5.6969134521550613e-05 0.00045274314870171476 -0.00012193930061850101 0.00014614764816321124 0.00046101139193300281 -0.0010584112247713135 -0.00020852000737939247 -0.00021443181545864056 -2.0134424060846978e-05 0.00045316657490060977 -0.0025762889637756139 -7.6861811339368212e-06 -0.0031874342292966488 -3.7894406414396013e-05 0.0020919744931014173 0.00092011588868952951 0.00062275039310143165 -0.00019172451309137917 0.00017932595374011429 0.00024472900010501231 -0.0002329871827062624
leaf_weight=117 28 21 20 29 24 27 22 175 86 48 107 54 47 24 24 20 32 30 28 20
leaf_count=117 28 21 20 29 24 27 22 175 86 48 107 54 47 24 24 20 32 30 28 20
internal_value=0.00347879 0.000571528 0.00416101 -0.000651062 -0.00555556 -0.00313351 0.00856423 0.000626101 -0.000348474 -0.00345137 0.00321077 -0.00826141 0.00494217 0.0110196 0.0059867 0.00178838 -0.00093046 0.00135521 0.0152591 -0.00236908
internal_weight=983 866 221 645 134 110 119 511 416 223 193 81 95 97 45 67 102 70 52 40
internal_count=983 866 221 645 134 110 119 511 416 223 193 81 95 97 45 67 102 70 52 40
is_linear=0
shrinkage=0.05


Tree=53
num_leaves=16
num_cat=0
split_feature=15 18 1 6 6 8 9 16 17 2 16 0 15 7 18
split_gain=24.3632 1.41915 1.40128 1.34793 1.33562 1.12524 1.06114 1.37797 1.9227 1.60591 0.564851 1.40109 1.18699 0.532671 0.211475
threshold=1615.0000000000002 0.47831166046886253 80.067033988586459 1646.2949914179569 1435.0857398986818 302.46052551269537 1.9018666267464044 1702.5000000000002 2055.9077842704892 17.500000000000004 1275.5000000000002 68.500000000000014 127292.50000000001 -699.98574829101551 0.52756893477166644
decision_type=2 2 2 2 2 2 2 2 2 2 2 2 2 2 2
left_child=-1 3 4 6 5 -3 7 9 -9 -2 11 -8 -12 -4 -7
right_child=1 2 13 -5 -6 14 10 8 -10 -11 12 -13 -14 -15 -16
leaf_value=5.4120677795471696e-05 -1.4578263280518035e-05 0.0020047317072642958 4.1138973671517312e-05 -0.00055194474509516207 -0.00020371022468570755 0.00029243884699857724 -7.1770868821346978e-05 -0.001732327933552269 -0.00025654639721139352 0.00052923377525557755 0.00069940158411812561 0.00067872654372913566 8.8800672935973604e-05 -0.00094788683211378684 0.00028294098749040707
leaf_weight=117 344 29 39 21 22 23 39 29 162 36 21 25 23 29 24
leaf_count=117 344 29 39 21 22 23 39 29 162 36 21 25 23 29 24
internal_value=0.00352965 0.000629258 0.00478627 -0.00034995 0.00861366 0.0117608 2.94507e-05 -0.000822973 -0.00429095 0.000907656 0.00457909 0.00148206 0.00895692 -0.000660793 0.00679406
internal_weight=983 866 166 700 98 76 679 571 191 380 108 64 44 68 47
internal_count=983 866 166 700 98 76 679 571 191 380 108 64 44 68 47
is_linear=0
shrinkage=0.05


Tree=54
num_leaves=15
num_cat=0
split_feature=16 18 15 1 12 18 10 10 2 16 12 13 16 19
split_gain=23.8773 1.74163 1.47731 1.37433 1.62159 1.46207 1.22694 1.83975 1.1477 2.40604 1.58007 0.867541 0.745183 0.505891
threshold=66.500000000000014 0.43070530043995131 6733.5000000000009 80.067033988586459 0.69835196379108988 0.70172221776460808 5.4709177883676707 4.4535509428531155 40.500000000000007 3611.0000000000005 0.71412898228036792 0.48412673247772053 856.00000000000011 22847.578836052748
decision_type=2 2 2 2 2 2 2 2 2 2 2 2 2 2
left_child=-1 6 -3 5 11 12 7 8 10 -10 -2 -5 -4 -6
right_child=1 2 3 4 13 -7 -8 -9 9 -11 -12 -13 -14 -15
leaf_value=5.1414643905700609e-05 9.6963646748438048e-05 -0.00022218315157257473 0.0010477334320667443 4.7409779623253102e-07 4.731831965826272e-05 -0.00027673793871987596 0.00058664666919538977 -0.00049219931375514287 -0.0030646380857897756 0.00019499409298845972 -0.00026023052099400924 -0.0021619398055606753 0.00041055842677971969 0.00025288441113889283
leaf_weight=123 413 21 45 25 22 20 29 33 48 43 75 21 40 25
leaf_count=123 413 21 45 25 22 20 29 33 48 43 75 21 40 25
internal_value=0.00352965 0.000575514 0.0044272 0.00577991 0.00128894 0.00970504 -0.000733115 -0.00121712 -0.000552582 -0.00570801 0.000399508 -0.00531453 0.0125734 0.00785563
internal_weight=983 860 219 198 93 105 641 612 579 91 488 46 85 47
internal_count=983 860 219 198 93 105 641 612 579 91 488 46 85 47
is_linear=0
shrinkage=0.05


Tree=55
num_leaves=17
num_cat=0
split_feature=15 10 8 8 7 8 2 18 19 15 0 8 8 15 16 2
split_gain=24.6706 1.48566 1.44419 2.71072 2.3453 2.17846 1.67669 1.41053 1.0733 1.65427 1.21778 0.867471 1.57716 0.686866 0.66574 0.534238
threshold=1615.0000000000002 5.9872803962912453 301.99308776855474 308.05574035644537 -674.97503662109364 294.67721557617193 39.500000000000007 0.48768401147425461 15059.916442794804 57718.000000000007 73.500000000000014 278.23497009277349 272.26956176757818 16777.500000000004 787.00000000000011 12.500000000000002
decision_type=2 2 2 2 2 2 2 2 2 2 2 2 2 2 2 2
left_child=-1 2 5 4 15 11 7 -7 10 -10 -5 12 -2 -13 -6 -4
right_child=1 -3 3 8 14 6 -8 -9 9 -11 -12 13 -14 -15 -16 -17
leaf_value=4.8843911710416689e-05 0.00017371464338645782 0.0005559080175163905 -0.0012576137854662995 0.00021048556337064373 -0.00019139934055798503 0.00044322551387286917 -0.00033063125040020129 0.0021891384471217803 0.0002272414000659806 -0.00095363875103140767 -0.00073109743906209505 -0.00048407876213608648 -0.0015050472213245236 0.00012333190095182301 0.00031069736238732438 -0.0014825717695453045
leaf_weight=118 45 22 20 243 21 73 22 26 21 44 58 34 48 136 22 20
leaf_count=118 45 22 20 243 21 73 22 26 21 44 58 34 48 136 22 20
internal_value=0.00351454 0.000549643 0.000204057 -0.00171454 -0.00986763 0.0024603 0.00800991 0.0107972 0.000122917 -0.00568356 0.00139489 -7.60167e-05 -0.00397422 0.00202822 -0.00162413 -0.0185786
internal_weight=973 855 833 449 83 384 121 99 366 65 301 263 93 170 43 40
internal_count=973 855 833 449 83 384 121 99 366 65 301 263 93 170 43 40
is_linear=0
shrinkage=0.05


Tree=56
num_leaves=21
num_cat=0
split_feature=15 16 16 12 12 1 8 7 1 12 1 19 7 16 8 19 0 6 6 11
split_gain=24.6706 1.26882 1.79099 1.56375 1.3106 2.47965 2.3352 2.30538 2.26228 1.70462 1.81735 1.7802 1.68428 1.40717 1.28356 1.46489 1.02413 0.870336 0.688351 0.266602
threshold=1615.0000000000002 397.50000000000006 138.00000000000003 0.66798521385680754 0.67824570934119099 68.396690967687604 274.36328125000006 -650.60333251953114 100.02361345195546 0.67338246760212894 98.644352514873262 3322.6062896230346 -577.39938354492176 537.50000000000011 290.79313659667974 2609.7642510208216 66.500000000000014 814.14426131395453 391.70723953964881 26.138364710248958
decision_type=2 2 2 2 2 2 2 2 2 2 2 2 2 2 2 2 2 2 2 2
left_child=-1 2 -2 17 7 13 -7 9 -8 10 -3 -11 18 -6 19 -16 -15 -4 -9 -5
right_child=1 4 3 14 5 6 8 12 -10 11 -12 -13 -14 16 15 -17 -18 -19 -20 -21
leaf_value=4.6401716124894192e-05 -0.00029334428563994601 0.00033794599393349169 0.00028401545590598379 -0.00080500637331339944 -0.00011744050747043434 -0.0019585883369728553 -9.5680165386435875e-05 -0.00018459605727827455 0.0004950098158141514 7.0156100661666892e-05 -0.00048783894086320005 -0.0015010124982609452 0.00059132642379928493 0.00072509238844279409 9.2598729330806154e-05 0.00070321154336900899 0.0014062074379121436 0.0010866718630025919 -0.0035628219044955057 -3.3466520052222173e-05
leaf_weight=118 35 121 25 21 20 23 213 25 53 21 26 20 22 37 57 25 25 24 42 20
leaf_count=118 35 121 25 21 20 23 213 25 53 21 26 20 22 37 57 25 25 24 42 20
internal_value=0.00351454 0.000549643 0.00395944 0.00607205 -0.000532325 0.00140124 -0.000760982 -0.00313966 0.000544908 0 0.0025153 -0.00900243 -0.00976431 0.0090743 0.00300569 0.00663825 0.0128019 0.0136456 -0.0137109 -0.00413625
internal_weight=973 855 207 172 648 371 289 277 266 188 147 41 89 82 123 82 62 49 67 41
internal_count=973 855 207 172 648 371 289 277 266 188 147 41 89 82 123 82 62 49 67 41
is_linear=0
shrinkage=0.05


Tree=57
num_leaves=14
num_cat=0
split_feature=15 10 18 14 18 17 13 18 18 1 0 7 8
split_gain=24.434 1.45813 1.00123 1.69646 1.87647 1.5705 1.28586 1.15635 2.50326 2.23897 0.927639 0.670714 0.589428
threshold=1615.0000000000002 5.9872803962912453 0.43070530043995131 0.45257376194771115 0.5940660075082721 3782.367386029769 0.52956548795516467 0.044618900101031332 0.14919940419992817 82.218986585281115 68.500000000000014 -668.55914306640614 295.65740966796881
decision_type=2 2 2 2 2 2 2 2 2 2 2 2 2
left_child=-1 2 5 -4 11 7 12 9 -9 -2 -6 -5 -7
right_child=1 -3 3 4 10 6 -8 8 -10 -11 -12 -13 -14
leaf_value=4.4081630318648648e-05 0.00028930195638402493 0.00048857057467015523 0.00083658137789107692 1.8675744901985872e-05 -2.9796033608364692e-05 -0.001046306493675081 0.0001073548585735551 -0.00036174664103471866 8.6174983880255024e-05 -0.00063494189638122205 -0.00099788566725945711 0.00062445032585684013 -0.00207564430597888
leaf_weight=118 159 22 23 77 34 21 22 108 247 20 28 67 27
leaf_count=118 159 22 23 77 34 21 22 108 247 20 28 67 27
internal_value=0.00361731 0.000666589 0.000324091 0.00314273 0.00167394 -0.000736633 -0.00777461 0.000177869 -0.00146438 0.00346175 -0.00555556 0.00482304 -0.0123701
internal_weight=973 855 833 229 206 604 70 534 355 179 62 144 48
internal_count=973 855 833 229 206 604 70 534 355 179 62 144 48
is_linear=0
shrinkage=0.05


end of trees

feature_importances:
LungVol_FVC_Ratio=100
Base_Percent=85
glcm_homogeneity=79
glcm_energy=77
hu_std=64
lung_vol_ml=61
FVC_Week_Interaction=61
LungVol_Week_Interaction=53
hu_mean=52
hu_kurt=52
glcm_contrast=48
Age_Week_Interaction=44
glcm_correlation=41
Age=39
hu_skew=28
Percent_Week_Interaction=27
HU_Week_Interaction=13
Relative_Weeks=9
Sex=2
Smk_Cur=2
Weeks_squared=1

parameters:
[boosting: gbdt]
[objective: quantile]
[metric: quantile]
[tree_learner: serial]
[device_type: cpu]
[data_sample_strategy: bagging]
[data: ]
[valid: ]
[num_iterations: 500]
[learning_rate: 0.05]
[num_leaves: 31]
[num_threads: 0]
[seed: 0]
[deterministic: 0]
[force_col_wise: 0]
[force_row_wise: 0]
[histogram_pool_size: -1]
[max_depth: 6]
[min_data_in_leaf: 20]
[min_sum_hessian_in_leaf: 0.001]
[bagging_fraction: 0.8]
[pos_bagging_fraction: 1]
[neg_bagging_fraction: 1]
[bagging_freq: 5]
[bagging_seed: 3]
[bagging_by_query: 0]
[feature_fraction: 0.9]
[feature_fraction_bynode: 1]
[feature_fraction_seed: 2]
[extra_trees: 0]
[extra_seed: 6]
[early_stopping_round: 0]
[early_stopping_min_delta: 0]
[first_metric_only: 0]
[max_delta_step: 0]
[lambda_l1: 0.1]
[lambda_l2: 0.1]
[linear_lambda: 0]
[min_gain_to_split: 0]
[drop_rate: 0.1]
[max_drop: 50]
[skip_drop: 0.5]
[xgboost_dart_mode: 0]
[uniform_drop: 0]
[drop_seed: 4]
[top_rate: 0.2]
[other_rate: 0.1]
[min_data_per_group: 100]
[max_cat_threshold: 32]
[cat_l2: 10]
[cat_smooth: 10]
[max_cat_to_onehot: 4]
[top_k: 20]
[monotone_constraints: ]
[monotone_constraints_method: basic]
[monotone_penalty: 0]
[feature_contri: ]
[forcedsplits_filename: ]
[refit_decay_rate: 0.9]
[cegb_tradeoff: 1]
[cegb_penalty_split: 0]
[cegb_penalty_feature_lazy: ]
[cegb_penalty_feature_coupled: ]
[path_smooth: 0]
[interaction_constraints: ]
[verbosity: -1]
[saved_feature_importance_type: 0]
[use_quantized_grad: 0]
[num_grad_quant_bins: 4]
[quant_train_renew_leaf: 0]
[stochastic_rounding: 1]
[linear_tree: 0]
[max_bin: 255]
[max_bin_by_feature: ]
[min_data_in_bin: 3]
[bin_construct_sample_cnt: 200000]
[data_random_seed: 1]
[is_enable_sparse: 1]
[enable_bundle: 1]
[use_missing: 1]
[zero_as_missing: 0]
[feature_pre_filter: 1]
[pre_partition: 0]
[two_round: 0]
[header: 0]
[label_column: ]
[weight_column: ]
[group_column: ]
[ignore_column: ]
[categorical_feature: ]
[forcedbins_filename: ]
[precise_float_parser: 0]
[parser_config_file: ]
[objective_seed: 5]
[num_class: 1]
[is_unbalance: 0]
[scale_pos_weight: 1]
[sigmoid: 1]
[boost_from_average: 1]
[reg_sqrt: 0]
[alpha: 0.5]
[fair_c: 1]
[poisson_max_delta_step: 0.7]
[tweedie_variance_power: 1.5]
[lambdarank_truncation_level: 30]
[lambdarank_norm: 1]
[label_gain: ]
[lambdarank_position_bias_regularization: 0]
[eval_at: ]
[multi_error_top_k: 1]
[auc_mu_weights: ]
[num_machines: 1]
[local_listen_port: 12400]
[time_out: 120]
[machine_list_filename: ]
[machines: ]
[gpu_platform_id: -1]
[gpu_device_id: -1]
[gpu_use_dp: 0]
[num_gpu: 1]

end of parameters

pandas_categorical:[]
